1000 100
A2M-AS1 -0.03411772 -0.01143356 -0.029996755 -0.022050353 -0.17232293 -0.013969085 -0.0733522 -0.09541752 0.0045521073 -0.10760728 0.11851098 0.021270042 0.02920493 0.07037171 0.016310442 0.008695179 0.013681997 -0.02741493 0.08556662 0.021670682 -0.015348659 0.0419997 0.06518668 0.054187678 0.21346064 0.012830887 0.020320244 -0.003405078 -0.041360162 0.0013697564 0.050587382 -0.040599793 0.032266054 -0.027146043 -0.089008614 0.04391784 -0.09120768 -0.116419554 0.014631098 0.0033154064 -0.07022644 -0.061303105 -0.007163086 0.08367413 -0.082923286 0.042568218 -0.0025378969 0.0367507 0.07666167 -0.10668652 0.0070963977 -0.009139627 0.08097011 0.094722666 0.0019418298 -0.068228416 0.11239982 0.04579268 -0.04748671 0.08790645 -0.042404104 0.029069725 0.024450352 -0.040891267 0.07499256 -0.0015892871 -0.008292133 0.037579685 0.09452776 0.106211446 -0.116642885 -0.084147006 0.011445326 -0.056445874 -0.13280287 0.10285806 -0.0006288658 0.017753696 -0.057577398 -0.011906141 0.030069498 -0.08521045 0.06228737 0.04787921 -0.031343985 0.017358169 0.10650223 -0.07932676 -0.07177114 0.0026414343 0.010553198 -0.0106054945 -0.02044187 0.092093 0.0047502522 -0.054778717 -0.042104106 0.037446186 -0.004730823 0.11358621
ABCB1 -0.73898077 0.15337336 -0.21997903 -0.053679116 0.14084439 -0.3050528 -0.404551 0.16980171 -0.20937228 -0.057779364 0.37922412 -0.28268698 -0.1558597 0.2663262 0.08837812 -0.13668667 -0.23645665 -0.20684214 -0.39803144 -0.14030166 -0.0075995373 0.55255413 0.07431659 0.49944368 0.46031943 0.44199148 -0.016520612 -0.12506722 0.04497343 -0.09273598 0.2722014 -0.3805186 -0.037375815 -0.3725774 -0.569265 -0.18229906 -0.16744454 -0.40218836 0.3576139 -0.053271353 -0.24029735 0.22477908 0.4248634 -0.34980777 -0.5082297 -0.30592114 0.058909938 0.05641277 -0.36621517 -0.55568826 0.60299003 0.097123265 -0.017011158 0.1997964 0.1041872 -0.461337 0.32853186 -0.34623384 -0.30575907 -0.13129027 -0.11947657 0.41148892 0.0874402 -0.3578531 0.26998675 0.059859525 0.42919424 -0.031493757 -0.27304178 0.06515897 -0.079954244 -0.42588538 0.3518124 -0.14733014 -0.25000775 0.35074815 -0.21067046 -0.276674 -0.24355179 -0.24776414 0.3796435 -0.12291645 -0.18775012 -0.037678603 0.41339913 0.4893956 0.14441496 -0.3692312 0.14850853 0.03396931 -0.09835523 0.23879474 0.1400436 0.76707417 0.43758434 0.4488343 0.044043414 0.20448868 -0.2426202 0.48010096
ACOT7 -0.39644885 0.31961545 0.6465588 -0.33255604 -0.36910194 -0.1354185 -0.05378486 0.10822137 -0.1456527 -0.12943944 0.32690838 0.2332286 -0.43551406 -0.0657881 -0.075577766 -0.17019232 0.36257735 -0.33382064 0.13901371 0.57415974 0.14400893 -0.015340026 0.010200453 0.39107075 -0.1332873 0.31811684 -0.14421834 0.4097397 -0.76523226 0.040076956 0.72341913 -0.38766003 -0.6499986 -0.104202546 0.110324346 0.013887091 0.123664476 -0.17368191 -0.002402353 -0.24540235 -0.11159567 -0.25686154 0.40703407 0.05434646 -0.19532533 0.40527558 -0.11226691 0.010343521 -0.444691 -0.2661158 -0.24132574 -0.12449021 0.47519252 0.08749482 0.4269934 -0.036643982 -0.17570119 0.47953436 -0.024799984 -0.26287726 0.01063658 0.3427594 -0.047057066 -0.20828362 0.49993458 0.0012883272 0.66932595 -0.14130396 0.19157518 -0.17467609 -0.5174248 -0.34246758 -0.5321704 -0.014593829 0.5104262 0.7055965 0.11677333 -0.17432742 0.2043196 0.37478593 -0.5296247 0.26602554 0.045276158 -0.46661758 -0.10916986 0.6197462 -0.16664556 -0.3676627 -0.3986918 0.39728212 -0.3089703 0.52256954 0.3126157 0.62310076 0.46786764 0.47187287 -0.0068480102 0.29388368 -0.7907911 0.11656718
ACP5 -1.7008616 -0.49303257 -0.88266814 0.26014045 0.16597675 -1.0490974 0.011838378 0.8579098 -0.5270678 0.5103907 -0.7146129 -1.5540631 -0.6372365 0.7224546 0.1333003 -1.362513 -1.8356009 -0.6475738 -1.6132158 0.6057257 -0.16789164 0.8229761 -0.8832314 0.9187378 -0.18629663 2.0319693 2.2065268 -0.67859477 0.19835332 0.641118 0.8314869 -0.096773945 0.56224334 0.108491644 -0.89518636 -0.05990211 -0.24912222 0.7365178 0.026987435 0.74935204 -0.905553 -1.4067097 0.9111893 0.57895243 -0.051066373 -1.1209363 0.26432598 -1.3090122 -1.4962558 0.39176774 0.3859485 -0.1521385 0.16455923 -0.30145398 -0.57843184 -1.1742247 0.45345283 0.1214452 -0.54227763 -0.64578396 0.6945556 0.27084267 -0.6207129 -0.13174066 1.3949229 0.42145175 1.3272947 -0.17995963 -0.29830614 0.01758101 -1.2254122 -0.53006506 -1.044347 0.65328264 0.6941029 0.6182026 0.044231247 -0.23596193 -0.14345847 1.368257 -0.8755694 0.48167154 -0.45127875 0.6000246 0.646941 0.6931466 -1.2358354 -1.6536808 -0.59445906 1.1983656 0.26444954 -0.038487516 -0.7947002 0.85767764 1.4958696 0.018413378 0.88059753 -0.024639757 -1.6531053 1.5212139
ACSL1 -0.42694384 0.2579841 0.061283886 0.006618552 0.08585187 -0.26344204 -0.19853318 0.3453431 -0.06999407 -0.071330875 0.19335216 -0.06930861 -0.10929322 0.08511169 0.035026014 -0.06699612 -0.07885582 -0.2184758 0.002509037 0.19082557 -0.016407996 0.1956363 -0.115422085 0.10064978 0.2662344 0.10985067 -0.004575305 0.061481055 -0.10993332 -0.011322991 0.40894952 -0.12154027 -0.11324852 -0.11842571 -0.27284184 -0.014647664 0.012422487 -0.0666063 0.3269067 0.020858824 0.12956461 0.19779873 0.05360064 -0.107578926 -0.16120954 0.0628385 -0.061570436 -0.10835313 -0.23126292 -0.18076795 0.20498979 0.1081859 0.09314496 0.061619435 -0.026135528 -0.164078 -0.09082747 0.11622973 -0.20737438 -0.13818933 -0.031987682 -0.06460849 -0.08765889 -0.16308998 0.03486966 -0.043650925 0.16003564 -0.011848108 -0.2169315 -0.08875045 0.04206026 -0.0765859 0.007219022 -0.19818026 0.05304878 0.23668115 0.1101469 -0.15718158 -0.03370854 -0.2187014 -0.15622924 -0.023182396 -0.016228935 -0.07185522 -0.073659174 0.089445814 -0.18705404 -0.08305902 -0.105827406 0.08549106 -0.13195013 0.17627035 0.039787073 0.36147565 0.42048746 0.016277945 0.057852514 0.057269774 -0.012667164 0.0009001541
ACTB 0.26319936 1.2928827 -0.3546085 -0.653299 0.53866076 -1.5796767 -0.51142085 0.40269548 -0.23226802 -0.72346425 -0.8928913 0.60755235 -0.94400066 0.8158426 0.99067265 -0.27645698 -0.5064305 -0.70378065 -0.71322316 0.8973427 0.28817844 0.23620257 0.8668328 -0.3299449 0.79021853 -0.33293343 -1.1324109 0.47797215 -0.77584034 -1.4614191 -0.16511798 -0.5518152 1.1988429 -0.882698 0.3120885 0.07685116 1.0205014 -0.04174842 0.21020472 0.64896375 -0.500226 -0.39193904 -0.04445018 0.20967184 -1.0563582 -0.5088822 0.45378053 0.45496884 -0.0769464 0.45573065 -0.25283152 -0.7761703 -0.3957581 -0.4574765 0.5898782 0.45817617 0.13129424 -0.054050244 -0.34559092 0.91235536 -1.204348 0.35448587 0.42310157 -0.3211619 -0.373132 -0.50785905 -1.2572532 -0.5006729 -1.0196022 0.33947372 -0.032550678 0.096613154 -1.0466161 -0.47122175 0.022939712 -0.41069096 1.1472799 0.27497643 0.41915956 -0.12729445 0.25107267 -1.4608618 -0.6103172 0.17927945 -0.46235377 -0.22906858 0.2965806 0.15027764 0.2770628 -0.10321485 -0.026245814 -0.11245909 0.8428178 -0.9044898 -0.539161 -0.57933205 0.7166541 -0.16182698 -0.923989 1.1163583
ACTG1 1.6108441 1.9839512 -0.93742245 -1.7895628 0.78929585 -0.70240176 -0.7565867 1.32943 -0.18386708 -1.4713945 -1.6845769 1.3400147 -1.2710911 1.8907433 2.7616942 -0.9867511 -2.030244 -1.3751532 -0.23051605 2.1156008 1.9869335 0.80610234 0.3363398 0.54849786 1.9111731 -0.4361502 -2.5286946 0.2695522 -1.1738749 -1.9310552 0.20949024 0.3524512 1.4624264 0.7114183 1.0489167 0.32500178 1.6779776 0.62383443 0.7393865 0.07260253 -1.2909026 -0.4248325 -1.1000267 0.5547534 -1.2169743 -0.9243565 -0.46892053 1.013152 0.3806533 1.0569392 -1.4980394 -0.8327961 -0.63128674 0.7643985 1.4221956 0.17301226 1.2773553 1.0871234 -1.1678946 0.02703734 -2.3546383 1.5434202 1.1181561 -0.8430055 -0.7882431 -1.6827844 -2.465759 -1.4955333 -0.5965959 -0.06490533 -0.4589104 0.7361557 -1.6265467 -1.0825596 0.9004028 -0.78682995 1.1985117 -0.10305029 0.53314763 -1.3864866 1.2599801 -2.9860513 -1.4472518 0.55578864 0.7910265 -0.94457686 0.071745776 0.2585677 0.369985 -0.098869085 -0.3560193 0.9929803 2.7214544 -1.205482 -0.09200155 -1.3027295 1.7533534 -0.13710621 -2.3293154 1.8920815
ACTG2 -0.08598791 0.101972364 -0.032152522 -0.1602467 -0.027062802 -0.048912548 -0.0044593806 0.0046724104 -0.119913995 -0.044238094 -0.004740405 0.027780171 -0.02729981 0.12247403 -0.032771207 -0.14661051 -0.028106773 -0.05731248 0.014181688 -0.044194315 -0.00828894 0.030532368 0.14830697 -0.059457846 0.045930024 0.15372777 0.010176962 0.10598672 0.035853926 0.1223167 0.101327874 -0.01637029 0.029507408 -0.18219422 -0.03553982 -0.028717596 -0.08166839 0.1398099 -0.06798882 0.053078894 -0.010689164 0.09904471 -0.012381767 -0.09748949 0.088073835 -0.08539985 -0.11821436 0.046676535 -0.15129393 -0.034077015 -0.14095823 -0.06031823 -0.024577877 -0.018019572 0.02374864 -0.18469234 0.07694358 0.022204015 -0.13067397 -0.0018822151 0.021426074 0.044055842 0.07298242 -0.17954235 0.0085312445 0.09262269 0.048454117 0.035362586 -0.09661236 -0.06292162 -0.042879373 -0.035722643 -0.014043355 -0.092885196 -0.076949336 0.12016867 -0.1667612 -0.13829523 -0.20208044 0.050166856 -0.120023325 0.17696415 -0.054783873 -0.11638707 0.013396183 0.058245823 0.053082425 -0.1477668 0.059693467 -0.121214144 -0.078233354 0.15633713 0.06514384 -0.040528882 0.18834977 -0.18363033 0.07297693 -0.059611835 0.044718046 -0.06285517
ADAM12 -0.022057556 -0.018681152 -0.010379583 -0.044624757 -0.04447347 -0.009491777 -0.0063010645 0.008348535 -0.0026485142 -0.019382164 0.009067571 0.015816923 0.023711149 0.0055378475 -0.03961497 0.0003156757 0.0027079172 -0.014576854 0.032503072 0.0033638317 -0.011963482 0.023022998 -0.0069987867 0.016271649 0.03420686 -0.0036910842 -0.003281989 -0.0028684223 0.0068075564 0.0125608435 0.02819975 -0.0015356017 -0.020589413 -0.011527416 0.035600387 0.01701869 -0.00795852 -0.053397153 -0.03918386 0.022085976 -0.018122075 -0.017445404 -0.02164086 0.05686353 -0.021538358 0.006033271 0.015650896 0.01144809 -0.0076379864 -0.012665488 -0.015437315 -0.005124053 0.037801478 9.294663e-05 0.020643964 -0.014782552 -0.014978989 0.0020817602 -0.016575154 0.033446744 -0.03298546 0.025994696 0.01904023 -0.055113062 0.025138874 0.0033306908 -0.007690849 -0.010350579 -0.014508624 0.027259557 -0.04021525 -0.031092284 0.005265741 0.016885826 -0.024979614 0.052694377 -0.019915547 0.028304534 -0.012413132 -0.0032220369 -0.01637342 0.017143741 -0.00048521464 -0.0068224776 -0.014169163 -0.0025256998 0.040651668 -0.020307653 -0.009289914 -0.021364221 -0.005165606 0.014551798 0.019745352 0.016546916 -0.009800962 0.028655306 0.011003239 0.03015902 0.0013599168 0.007147082
ADAM19 -0.8458877 0.45438883 0.3918058 0.0015975803 0.10094376 -0.36890855 -0.27212593 0.73615336 -0.38571268 -0.3194941 0.14571829 -0.27766508 -0.2170736 0.10607505 0.38449383 -0.274261 0.08546659 -0.10569498 -0.21516281 0.44917086 -0.11061476 0.6576466 -0.3192703 0.20541298 0.54632616 0.6163363 -0.13943836 -0.017746115 -0.5277891 0.21810445 0.9217086 -0.64584345 -0.4378137 -0.51859814 -0.4066315 -0.371349 -0.24854131 -0.2177278 0.32306513 -0.060854077 -0.09016428 0.15782923 0.4303144 -0.40482208 -0.21482074 0.26909223 -0.09388152 -0.025729751 -0.92717415 -0.48513687 0.32667303 -0.16531186 0.08820188 -0.2041778 -0.18518913 -0.480781 -0.20162877 0.05539607 -0.24028695 -0.15720034 0.10142192 0.41692996 0.0754872 -0.7265923 0.23321529 -0.05463436 0.32375836 -0.1324054 -0.22776324 -0.21283545 -0.4321272 -0.277783 0.027987946 -0.4392274 0.3728802 0.66716295 0.29646185 -0.4216976 -0.35451934 -0.36694893 -0.09983936 -0.20961124 0.17166808 -0.3838242 0.089598134 0.18296303 -0.39617497 0.048681583 -0.10184434 0.294731 -0.28504568 0.6824709 0.14878333 0.76826644 0.7580601 0.734214 -0.10369128 0.31599072 -0.5532649 0.20377803
ADAMTS6 -0.031790584 -0.012672381 -0.012414065 -0.04730463 -0.059657324 -0.004089755 -0.0038294978 0.0072367564 -0.010054099 -0.04637929 0.0068316334 -0.014374307 0.028351257 -0.01248982 -0.048828457 -0.0021171134 0.0042592823 -0.011250854 0.022736195 0.012834331 -0.020710258 0.027681092 -0.0055244695 0.047658015 0.06059773 -0.011456036 -0.008893115 -0.009714508 0.014872343 0.026689516 0.02263804 0.008580988 -0.029903365 -0.010322142 0.034927983 0.029339286 -0.01023613 -0.086030796 -0.057526357 0.024390431 -0.026332255 -0.023366222 -0.032415975 0.07708934 -0.04034448 -0.019229997 0.0035137564 0.025299398 -0.0154982 -0.007741692 -0.013917951 0.009884127 0.053343266 -0.0017643434 0.03208696 -0.003389901 -0.013724447 0.027543975 -0.029791111 0.05452449 -0.050337393 -0.0016607498 0.025785632 -0.06004569 0.015454582 0.017147277 -0.026438683 -0.013833785 -0.018159311 0.05763144 -0.05659301 -0.030812448 0.02407256 0.02189575 -0.019592468 0.044736445 -0.02024708 0.04042755 -0.017008264 0.016706407 -0.018827878 0.010148914 -0.004295743 -0.009591701 -0.0067642867 -0.0011210587 0.057226334 -0.041576527 -0.014343742 -0.044842333 0.0185601 0.006838336 0.024562001 0.03421364 -0.0023309854 0.03968089 0.02301236 0.030789714 -0.009773348 0.01316177
ADTRP -0.353397 0.40129626 0.1751957 -0.17642072 -0.08172333 -0.27709836 0.07231478 0.21635376 0.00967475 -0.3276786 0.25066906 -0.1931322 -0.15565078 0.058204323 0.02493719 -0.24623598 0.18191238 -0.20686309 -0.46011007 0.41617072 -0.20734936 0.13750072 -0.035202574 0.4926853 -0.05442619 0.7676506 -0.00074712123 0.009719201 -0.36497477 -0.02908802 0.23478638 -0.39728087 -0.170709 -0.03157992 -0.16884331 -0.27196357 -0.14888588 -0.028195469 0.049890976 0.11893203 -0.2191053 0.17658575 0.22774604 -0.095203206 -0.35693133 0.04905414 0.0011708625 -0.11664174 -0.4915642 -0.42091724 0.2192712 0.06371126 0.08119286 -0.08371654 0.1725311 -0.51470876 -0.186596 -0.1524249 0.31822333 -0.22467281 0.041327283 -0.039958928 -0.12659408 -0.16485557 0.6397891 -0.3079605 0.52582824 -0.23158911 -0.20165958 -0.19335479 -0.39740452 -0.2826668 -0.35063407 0.04648649 0.29744336 0.6809561 -0.0740329 -0.2560962 -0.11338122 -0.056377813 -0.09955244 -0.0045151524 -0.06091638 -0.14380601 -0.15898442 0.27808526 -0.10762024 0.02607766 -0.30651727 0.11741316 -0.26790348 0.5122814 0.01581214 0.6352064 0.021759449 0.46417707 -0.18152177 0.014416123 -0.24992406 0.470879
AFAP1L2 -0.049930237 -0.1878152 0.12951116 -0.17287475 -0.3213424 -0.10436105 0.019688798 0.108752124 0.058158245 -0.20784649 0.118566066 0.13665605 -0.048225876 0.04482826 -0.22534053 -0.006390418 0.14556706 -0.020036139 0.12634516 0.2600114 -0.12913534 0.3029928 -0.065623924 0.09014919 0.26832506 0.045961678 -0.027558275 -0.019135911 -0.12263838 -0.05091566 0.12449351 0.057743173 -0.3584298 0.009466546 0.10381176 0.11981195 -0.16028136 -0.3137259 -0.2766002 0.015403036 -0.14169371 -0.08264892 0.0327557 0.44309336 -0.2314853 -0.08658871 0.21345805 0.14285372 -0.11030037 -0.037929997 -0.27822298 -0.14876056 0.56326944 -0.09405399 0.053783294 -0.13721013 -0.16245016 0.08704292 0.15724608 0.11810208 -0.28843248 0.18754365 0.15844074 -0.41261014 0.2682306 0.1307938 -0.038483653 -0.10610679 0.011969253 0.072717324 -0.27080405 -0.22425532 0.03010721 -0.030792441 0.041081175 0.3671286 0.030383734 0.05760786 -0.12749167 0.0030243471 -0.04323878 0.17430057 0.040795 -0.23744865 -0.059483845 0.05164706 0.07309713 -0.23422095 -0.1517937 -0.2349851 -0.17147227 0.059206754 0.17158642 0.2556321 -0.04889766 0.1949613 0.05719789 0.3436942 -0.078553215 0.09038289
AHI1 -0.5392437 0.37645194 -0.2852547 -0.11447932 0.85944146 0.044585433 0.2635222 0.45270333 0.1659442 0.05359186 0.6601802 -0.15636565 -0.44789007 0.18683699 0.43773007 -0.62113523 -0.2925159 -0.22291157 -0.39442116 0.1341048 -0.16329572 0.31080726 0.38340124 -0.13791376 0.24055672 0.21182385 0.72673154 -0.51876026 0.20829584 0.39146602 0.32840693 -0.15919548 0.03526858 0.016242862 -0.9479709 0.17655084 -0.3836591 0.18369947 0.053341348 -0.11564483 -0.008589496 -0.1320755 0.5133884 -0.32571375 -0.4025129 -0.36265177 -0.15709665 -0.5253983 -0.6624635 0.21635756 0.17502688 -0.15968825 -0.33720064 0.25112563 0.19517817 -0.9103477 0.48276326 0.08803665 -0.86434877 -0.37295598 0.16420874 -0.36492676 -0.47383305 -0.36966696 0.2547894 0.22580475 0.49501377 0.0145463 0.021939361 -0.043143354 -0.15223545 -0.14402063 -0.48685968 0.35205024 0.38730428 0.04244695 -0.70223373 -0.31222314 -0.30134228 0.64940965 0.13753054 -0.30976233 0.033496626 -0.30961508 0.37974164 0.36144888 -0.0073333974 -0.76644266 0.1941548 -0.2734805 -0.50521773 0.2352151 0.121587925 0.30395466 0.44671595 0.04427949 0.45467165 0.08150601 -0.6430397 -0.13443059
AHR -0.30654144 -0.45908594 -0.2847474 0.43428546 0.07615535 -0.34688646 -0.01357706 0.8583908 -0.77430326 -0.65204793 -0.20825018 -0.34663296 -0.6157328 -0.044420123 0.22105509 -0.027665487 0.3637733 -0.9211007 -0.017546471 -0.0982169 -0.47203112 0.7861897 0.5569476 -0.7310699 0.46668425 -0.001923088 1.0800989 0.05421102 -1.3546417 0.40102765 0.48769438 -0.13559408 0.1854287 -0.79421836 -0.88980335 0.054896213 -0.7877682 0.4582007 0.22721997 0.20311156 0.2676968 0.60020196 0.7741417 0.38360152 -0.59455705 0.52564883 -0.82691824 -0.25084627 -0.4391738 -1.028111 -0.030826222 -0.34474394 0.674684 -0.33081672 0.026955456 -0.4238535 1.2539545 1.2368041 -0.5112096 -0.2004023 -0.9030498 0.48843017 -1.6734288 -1.0448605 0.22328654 0.91718835 0.6693872 0.3105878 -0.3378832 -0.7905846 -0.63399386 1.221127 -1.3652276 -1.0979161 0.67197114 0.33131018 -1.2447193 -0.6234636 -0.5174447 0.94369125 0.32953 0.30053845 -0.18320638 -0.7526632 0.58015656 0.09572593 -0.40651485 -0.27953628 0.14773858 0.53772813 -0.43945974 0.018612336 -0.3504213 0.49375755 0.79725665 -0.6173792 -0.19423312 -0.7103334 -0.122370474 -0.41354755
AIF1 -0.27400914 0.08172342 -0.10481471 -0.10634475 0.18018547 -0.1336303 -0.13550872 0.35718066 -0.23163651 -0.16753091 -0.25186685 -0.101708345 -0.21021856 0.11558909 0.005068165 0.1353042 -0.22543117 -0.22922015 0.1114983 -0.008087034 -0.40999463 0.18212408 -0.277106 0.22464523 0.35219127 0.109620534 0.35336575 0.057810996 -0.040390477 0.34294736 0.47828287 0.20578386 0.20475723 -0.21895994 -0.02385995 -0.34329766 0.18572362 0.22811104 -0.028389813 -0.0037568111 -0.30506787 0.03665321 0.10571269 0.20549157 0.0021840772 0.55060667 0.025476238 -0.392035 -0.03776394 -0.17236891 0.35906515 -0.41940966 -0.1729086 0.012876139 0.1171851 0.101693004 0.16741338 -0.40221804 -0.21749914 -0.034392435 -0.010686599 -0.11001672 -0.412202 -0.27619314 0.14744468 0.20400073 0.25255942 0.2713252 -0.21096276 -0.32839298 -0.26452783 0.02510914 0.16075681 -0.20267533 0.25208262 -0.100344546 0.06440092 -0.13573499 -0.06568602 -0.019159894 -0.040004898 0.07989691 0.03859688 0.13016449 -0.031710494 0.19796507 -0.30777276 -0.07461655 -0.1449456 -0.11808359 -0.09808933 0.058990844 -0.41129377 0.2800466 0.03331528 -0.018615803 0.15024358 0.054389533 0.06876163 0.08865613
ALG13 0.3057445 -1.0131838 -0.34553203 0.813079 -0.67067903 -3.109142 1.3808018 -0.5259619 -0.15736389 -0.35137933 0.27437752 -0.038576674 -0.34702834 -0.18069492 1.3647971 0.5024066 0.42948106 1.0391477 -1.3707793 0.30478227 -0.40540373 1.3506404 -1.0276312 0.99489915 0.22211686 1.0396615 0.56532896 0.46966583 -0.124549806 -1.2179008 0.16278943 -0.31796843 -1.5652833 -2.7489753 -0.8742033 0.1882712 0.9547608 0.6195591 -1.6886464 0.34183076 0.6226858 -0.61413276 -0.47498107 -0.3613227 0.6218686 -0.29149085 -1.277403 -0.33456504 -2.228515 -0.6170078 0.8877381 -0.14377415 -0.5979792 0.69817823 1.1980499 0.9024274 -0.02452868 0.6926413 -0.73322415 -1.0470399 0.8860702 1.0642217 -1.6546298 -1.1790245 -0.2503458 0.15251033 0.71182275 1.7227321 -0.95752054 -1.1746927 -0.18606924 0.26366168 -0.5722881 -0.45114866 -0.22128808 -0.47197902 -0.46219096 -0.42790017 -0.13529737 1.2430533 0.23130684 -0.39829528 0.46292788 -1.2350373 -0.8626485 1.055933 0.33135208 -0.31221068 -0.9021185 1.2166827 -0.61868024 0.782768 -0.62204695 1.5990067 0.36032298 -0.11397107 0.4790159 0.8246313 -0.6410011 -0.65309685
ALOX5AP -0.3680967 -0.2658695 -0.5565094 -0.47662467 -1.8243365 -1.1929159 0.12436674 0.5747256 -0.8472254 0.14270164 -0.4868327 0.8229375 -0.5929216 0.83088285 1.5476326 -1.8807126 0.43247104 -1.3768206 -1.2219583 1.3713751 -0.15640268 1.4517137 -1.6438632 1.920128 1.1726625 -0.86636 -1.9661596 -1.1991403 -0.59602636 0.8838348 1.1873441 -0.85676014 -0.3491733 -2.0986843 2.4119034 2.1063023 -0.8342322 1.4609926 2.3584237 1.5215024 0.12074088 -1.258487 -1.5161735 1.3834683 -0.54685974 0.026943931 -0.695743 2.1112933 1.8024616 -1.442828 -0.08998409 -1.5871204 -3.4886851 1.2343358 1.9776375 1.1570857 0.27725273 1.8675913 -1.3623087 -1.5294775 -1.5532311 0.31947488 0.07781111 -0.81323284 0.8121059 -0.19236168 2.7835608 1.408069 0.12294469 -0.14236122 -1.4085134 0.9449851 -2.5590968 -0.70253474 0.47433057 0.2625418 -2.2305093 -0.6728043 1.5509831 -0.048919253 1.271524 -0.65143126 -0.81366044 -0.859873 0.08890674 -0.23358676 -2.3766887 0.5664522 -1.4445636 -1.3611488 -1.3137524 0.9872523 -3.610566 -1.6864016 -0.21220087 -1.4675488 1.7939271 -1.2205 -2.4177108 1.7933991
ANKRD28 -0.83819425 -0.7995492 -0.876501 -0.0642803 0.6836529 0.139464 0.3714164 0.60788524 -0.7394608 -1.3882138 -0.03052586 -1.5144137 -0.9636823 1.28237 1.2718456 -0.8000772 -0.80098796 -0.86864656 -0.8755624 -0.98621285 -1.3338331 0.52026856 -0.75039965 -0.7345172 0.439804 0.93121886 1.1273266 -0.4817764 -0.42547742 1.7581925 0.4939763 -0.3073047 0.37930545 -0.46180084 -0.65101385 0.09381586 0.17877214 0.41801217 0.77332366 0.19519971 -2.0260932 -0.5641746 0.27780724 1.2929107 -1.0351313 -0.18493955 1.6181326 -0.6901213 -0.5391893 -0.43169558 0.9165506 -0.44121656 0.7086657 -0.3334109 -0.17460224 -1.2440099 0.23315209 0.86700547 -0.3466005 0.3045799 1.0037135 -1.0711606 -2.142556 -0.45886752 0.7870713 0.29168835 2.256606 0.5278612 0.73538244 -0.15332665 -0.51465285 0.4297679 -1.0321587 -1.0187224 -0.25655344 0.5591537 0.2092031 -0.81985426 -1.846643 1.1861541 -0.5494795 0.33879972 -0.849486 -0.81013405 1.0781939 1.5895064 -1.1861776 -0.27399266 0.9244147 0.16047199 -1.0709362 0.9192652 -1.3184911 0.76840913 1.2118591 -0.38188 1.2375915 -0.93031985 -1.3887988 0.6421298
ANKRD37 -0.25298145 -0.1272472 0.28945634 -0.033848494 -0.0022026491 -0.31899136 -0.08704501 0.0880971 0.0386681 -0.16224962 0.53774863 -0.26392558 -0.3808759 0.3572092 0.013195103 -0.09243581 0.0913651 -0.18878669 -0.06537306 0.35759348 -0.3295837 0.2699499 -0.34638292 0.11037639 0.48348498 0.8566991 0.19145942 -0.032661334 -0.6349332 -0.14853603 0.15269959 -0.15000549 -0.3633834 0.12710673 -0.19854705 -0.3291185 -0.41580498 -0.13569249 -0.004725745 0.35149708 -0.061067984 -0.4065526 0.3168444 0.09926416 -0.24033965 -0.091018654 0.20923272 0.013120875 -0.5188012 -0.29547137 0.31897655 -0.36895278 0.32179883 0.30156133 0.09761993 -0.36061355 -0.2925466 -0.16413869 0.422063 -0.07323029 -0.054289013 -8.283701e-05 -0.08264552 -0.48688436 0.33970788 -0.4533674 0.29772878 -0.1448253 0.19756816 0.061710842 -0.417353 -0.095572524 -0.13236926 -0.36609003 -0.05926484 0.4993825 0.21321405 -0.18684229 0.055290047 -0.21682987 0.21093254 0.22659704 0.34508055 -0.15442863 -0.17950334 -0.13651048 -0.49993095 -0.118363 -0.1530222 0.2268097 -0.36031955 0.18892916 0.092219725 0.5678545 0.18840761 0.19163029 -0.122198924 0.14632267 -0.3077764 0.5979351
ANKRD55 -0.16078697 0.31511757 0.012613697 -0.118227504 -0.04351119 0.009069781 -0.017594097 0.26011375 0.014355492 -0.36505076 0.21252002 -0.021922424 -0.14800197 0.12172075 0.12597194 -0.045787055 -0.006491827 -0.16325346 -0.12711015 0.12141967 -0.1388197 -0.1037606 0.3281205 0.27987614 0.25388786 0.12312316 0.14565504 0.047887232 -0.046653267 0.24043274 0.1798824 -0.17565261 0.023631813 -0.01263994 -0.15016873 -0.09843275 -0.28441128 0.034817178 0.060715042 0.03300787 -0.17752765 0.15544806 0.15890133 0.13572009 -0.21122888 0.21632321 -0.0945393 -0.08830138 -0.27682084 -0.048059426 -0.06335243 -0.17108904 -0.017781686 -0.07232348 0.05649893 -0.15228261 0.11566797 -0.06130001 -0.025513222 -0.02228593 0.27482796 -0.10068774 -0.21011214 0.023386044 0.30560625 -0.028416626 0.26453772 -0.032754384 0.03340969 -0.0862602 -0.21908662 -0.26022124 -0.19002432 -0.024054129 0.35155275 0.12029864 -0.32163572 -0.043657716 -0.105847776 0.03889312 0.031156775 -0.14706598 0.08599072 -0.15456739 -0.00980144 0.18990912 0.07157832 -0.018428788 0.06269227 -0.02849399 -0.049999885 0.29875454 -0.060863845 0.20837584 0.11012454 0.27158463 -0.050418034 -0.03082357 -0.2034486 0.10155776
ANP32E -0.33273026 0.047033574 -1.4096557 1.9769689 1.5820316 -0.070885286 -0.35238504 0.55256444 -0.3587018 0.12717345 -1.1273613 0.11085493 -0.31769365 -0.77487814 0.7698997 -0.6771094 0.20098323 -1.0677515 -0.27184114 -1.0352726 -0.51158744 1.0841465 -0.7289408 0.7075356 -0.0440681 0.70304775 0.4984774 0.12372043 -0.21146196 1.0894878 1.93454 -1.3645124 0.33012956 -0.89655346 -1.7865777 -0.13506335 -0.9809026 0.54372495 -0.81065476 0.5916741 -1.210485 -1.1444395 2.0574238 -0.069800876 -2.0725486 -0.85368246 -0.7097699 -1.8162322 -0.51221913 -0.745353 1.1010516 -0.57230514 -0.15294422 1.0348666 0.61089677 -0.69464886 1.4852284 1.2403713 -1.5023906 -0.6394771 0.815098 0.16657022 -0.78980833 -0.691998 0.7884912 0.13556005 1.4058542 0.6979812 0.0995648 0.22753704 -1.9366428 -0.17621233 -0.45810053 0.060412038 0.41931236 -0.24138533 -0.6803631 -0.7623198 -0.26710135 0.8109593 -1.1694475 -0.6867417 -0.29438636 -1.675745 -0.2323023 -0.2021439 -0.20070587 -0.12351273 -0.87302184 0.54180473 -1.112525 -0.3366822 -1.0103599 0.9396491 1.0575504 -0.29477662 0.6894726 -0.14172445 -1.1325774 1.243147
ANXA1 -0.47720325 0.807734 -0.68903095 -2.731308 -2.4459243 0.8011569 0.62293005 -0.7098494 -0.92388433 2.2834496 0.0423505 0.6479719 -1.4922346 1.5595902 2.1189246 -2.7042704 -2.428107 -1.2405559 -2.4965029 -0.9695539 0.8089382 3.1184819 -1.9253211 0.96276045 1.7399957 -0.76137286 -2.2634406 0.26661947 -0.034602974 1.6817484 1.1674315 -2.3496804 1.4929048 -0.69071245 1.4396924 0.90117 -2.2599864 0.08479973 1.877156 0.17113136 -1.5230398 -2.3328393 -1.0455487 1.1683854 -1.1175189 -1.9401538 0.43404478 2.1383955 -0.2190355 -2.2800431 -1.250038 -1.7895525 -2.158203 0.15114017 -0.3263753 1.1606908 1.9766701 0.99526805 0.36358154 -1.9369136 0.06280517 0.020909125 -1.6483467 -0.59159964 0.61828536 -1.5549645 -0.58405584 0.7640707 -3.1023364 -3.118382 -0.033816855 1.6864108 -0.9113226 -2.88229 1.5706948 -1.6209203 0.33014765 -2.0157578 1.3791053 0.7135918 -1.2302434 -0.7381299 1.8790878 1.8402832 -0.34210807 0.16161416 -1.2403611 -2.2955961 -2.2078593 0.35427353 -1.5534389 1.54296 -1.9000454 -2.0256462 -1.9305931 -0.8542034 1.1674082 -0.7544956 -0.7294407 0.4940599
ANXA2 2.9665053 3.624032 -0.14016011 0.48991787 -0.6688597 -1.6880642 -0.28853038 1.6350998 -1.4492515 2.54119 -2.3208954 -0.9681217 -0.24194218 2.243962 1.5631223 -1.3710903 0.69752735 -2.418016 -1.330791 0.8632562 -1.6010729 0.3192758 -1.6956176 1.803354 0.6026841 1.9150702 0.84461504 -1.4949454 -1.4754996 1.2959503 0.29460725 -0.24305724 -2.0116832 -0.57469726 -2.2673256 1.054166 -1.1161113 -1.9613117 1.9193417 1.1044184 -1.34948 -0.16836588 -0.5149303 0.6923199 -0.46789482 0.5480264 -1.7759609 0.23286024 0.7396943 -1.2472218 -0.31586868 -0.27143824 -0.464507 1.0245559 0.34704462 0.17750706 -0.1899757 1.1293455 -0.54743624 0.57074934 -0.16672528 0.9932275 -1.5141917 -1.907693 0.80416423 1.7320262 1.1016032 2.2676916 -0.481769 -1.4112166 -1.5642618 1.6397307 -0.7434309 -0.7068078 0.55904806 -0.8446393 -1.4504042 -1.5205929 0.7082086 0.65652174 -1.4945759 1.9056034 -2.6224391 -0.961577 -0.8332853 2.2643857 -1.1527375 -1.0871578 1.9016432 0.15527977 -1.2324214 0.3813291 -0.8270851 -0.7905887 -2.3866942 0.041147426 1.2092729 -0.29888225 -1.0609411 0.73904073
ANXA2P2 -0.90539575 0.20612219 0.33990583 -0.49790105 0.8667194 0.1942176 -0.09822313 0.24285147 -0.19203593 0.3019859 0.6042134 0.019423367 -1.3510938 0.57283616 0.37709343 -0.46101707 -0.06858033 -0.7880922 0.16958028 0.12632519 -0.24099785 0.018190945 0.8970953 0.3048176 0.47748557 0.048649553 0.14939697 0.31878075 -0.2866761 0.74862015 0.5415859 -0.8809009 -0.4254613 0.069440305 -0.6203216 0.030136557 -0.44145393 -0.62235045 0.22843482 -0.034662846 -0.8496159 -1.0370135 1.1526754 -0.07696064 -0.6587544 0.24609265 -0.22748247 -0.17286777 -0.30460924 -0.44633675 0.5054028 -0.52558166 0.026595814 1.1410328 0.48445866 -1.0558035 1.1676679 -0.121603064 -0.7552659 -0.304975 0.6416521 -0.04739394 -0.71707547 -0.07790704 0.32965028 0.67831933 1.3907493 -0.055232316 0.4684305 0.044759896 -1.1724927 -0.44520158 -0.5860137 0.041815825 1.1497372 0.031228308 -0.34390435 -0.67114156 -0.16374788 0.8086405 0.07955402 -0.21844694 -0.050663 -1.0263287 0.29059577 0.28713688 -0.29693052 -0.71620655 0.13974944 0.02812916 -0.32190722 0.75444955 -0.015982855 0.58264166 1.3945973 0.46251708 0.5870983 0.32171136 -1.563672 -0.17125632
ANXA5 2.2873385 0.78438896 -0.9887337 0.5674336 -1.058406 -1.2871405 -1.1022607 1.0122477 -0.7092989 1.108708 -0.5241596 0.06664052 -0.09837076 0.92430866 2.0853329 -1.9691129 -0.35039 0.07889995 -0.9064415 -0.71194243 -0.59731823 1.5623845 -0.8182246 1.5325917 1.4396777 0.06858653 2.0124793 -1.0644566 -0.66160506 1.4643512 0.19581997 -0.5014223 -0.8627178 -0.73341423 -1.1556183 -0.0878589 -0.98765224 0.39650416 0.9751181 0.3860033 -1.2695768 -0.13108236 -0.6018269 0.7124439 -1.3224252 -0.38334185 -0.86755747 -0.31829038 0.01432905 -2.8384316 0.9515651 -0.8932868 -2.0753627 1.007174 -0.3642793 1.1560632 0.98610634 0.027930789 -1.0253826 -0.15509987 -1.0670817 1.6183857 -1.5661368 -1.0835855 1.1816721 3.0017157 -0.72991645 -0.13462402 1.0609223 -1.0614761 -0.9470964 0.4317184 -0.96400803 -0.72354203 0.41688913 -0.48012507 -1.5502517 -1.3505855 -0.4993052 -0.9408296 0.0022133125 2.6763928 -1.5420657 -0.50791544 2.0561619 0.013099644 -1.11244 0.036926348 -0.050412737 0.35666758 -0.38466522 0.15055874 -0.16524485 -0.14943126 -1.5448333 -0.6454904 1.2775583 -0.88012964 -0.9426386 0.9152309
AOAH -1.9642539 0.6102273 -0.70116574 -0.0170896 0.1257044 -1.7560512 -1.754018 0.22769257 0.06790834 -0.1792658 2.847766 -0.15068269 -2.1443448 1.5721079 -0.46687275 -0.5385121 -1.0350679 -1.7786568 -1.8216977 0.31637302 -0.20596741 0.99747324 -0.7402885 0.28534257 1.5386364 1.3020235 1.3618959 0.5458796 0.4431735 -1.3094181 1.8508847 0.22296688 1.0029464 -0.07117159 -1.4964737 0.9788829 -1.2597852 -0.9662821 1.1166638 0.5256269 0.8319674 0.106758006 -0.13397095 -0.95980054 -0.60336715 -1.3762637 0.38201827 -0.12070316 -1.0303278 -0.044892665 1.4509406 -0.22020449 0.44580778 2.1621394 0.6652762 -1.1355073 0.07588263 0.0004327306 -1.8339173 -0.8795255 0.7542343 -0.30939853 0.13896662 -0.6936829 -0.14290799 0.6714933 1.723008 1.0177219 0.06940783 0.5704884 -0.36797705 0.08070819 -0.20292452 0.05011492 -1.1086231 2.6806424 0.24165934 -0.15168573 0.33672827 0.23498684 0.24980998 0.5558368 0.5275684 -0.43259478 0.5337435 1.4848969 -0.39003426 -1.0796261 0.27582422 1.2629476 -0.76781434 0.23695616 -0.55057293 2.1462412 0.8180951 -1.387908 -0.089926936 0.52447885 -1.5064722 0.6775956
APLP2 -0.8269618 0.6457002 0.5946796 -0.051724717 0.30193377 0.20923302 -0.78670853 0.2550022 0.13382967 0.40058228 0.68139124 -0.13550925 -1.0332178 0.111656815 -0.34697664 -0.2641884 -0.14727391 -0.64310807 0.0634387 0.64533556 0.08390206 -0.24664505 0.11977759 0.03468995 0.20071822 0.43139425 0.3951616 0.57130593 -0.813172 -0.14801554 1.2207515 -0.3493318 -0.07699638 -0.13149853 -0.40252143 0.35496292 0.06975518 -0.062585555 0.49061227 -0.11574601 0.32639912 -0.39895752 0.42301935 -0.12710953 -0.4819601 0.04062471 -0.2176774 -0.06990646 -0.5918129 -0.14270553 0.33504856 -0.013069189 0.75621337 0.48711422 0.39224914 -0.47077098 -0.13548355 0.6121811 -1.1114979 -0.934829 0.08562098 -0.4749421 -0.6296442 -0.49027508 0.6478273 0.15087834 0.81385314 0.34325084 0.06372349 -0.20266941 -0.31288666 -0.25874528 -0.87021685 0.052108616 0.69531345 0.7314375 0.10792575 -0.18656586 0.57927907 0.3596468 -0.8162955 0.34576216 -0.09661362 -0.6915809 0.017966807 0.46309054 -0.5283164 -0.8356717 -0.551558 0.12676388 -0.18968159 0.30753174 0.5990326 1.0532442 1.2759539 -0.28324544 0.46953732 0.082385726 -0.5966992 0.031139975
APOBEC3B -0.049928177 0.11215068 -0.019117048 0.028083561 -0.01789297 0.07362862 -0.022991223 0.08894946 0.044203147 -0.0133982785 -0.015935559 0.025325911 -0.031471785 -0.055432502 0.01667985 -0.04637494 0.00745078 -0.07872739 0.094800144 0.008548651 -0.017756246 -0.10032889 0.08897023 0.071557805 0.110963225 -0.057989914 0.027139492 0.045903116 -0.018384513 0.13163914 0.008351978 -0.07937484 -0.040029913 -0.011854731 -0.035150528 -0.0064382344 -0.005098308 -0.01967896 -0.057117257 -0.035285234 -0.06491884 -0.020171264 0.12549128 0.07537335 -0.0812153 0.010594478 -0.04361461 -0.013697872 -0.009595837 -0.088402316 -0.07430965 -0.07006199 0.028346851 -0.031446196 0.046888918 -0.07532031 0.05675847 0.074490674 -0.053034868 -0.04561437 0.059846785 0.06414662 -0.075854674 -0.0012271118 0.10379191 0.0003832078 0.08384864 -0.036627237 0.03318944 0.06855521 -0.093573935 -0.068168856 -0.10606365 0.0452658 0.12890244 -0.025104892 -0.11952114 0.03157585 -0.051955055 0.078775756 -0.05462539 -0.06036903 0.033881817 -0.07727822 -0.06866999 0.046878617 -0.00028119673 -0.09442973 -0.02211647 -0.086888544 -0.0145128835 0.11386523 0.06958202 0.051989745 0.07143582 0.07122894 -0.003924089 -0.0018740657 -0.09961131 5.6058983e-05
APOBEC3C -1.8177044 0.7951656 1.3890784 0.13866827 -0.5873993 0.25629213 -0.609692 0.40488586 0.30654198 0.75390977 0.6441595 -0.23923033 -0.7054771 -0.22152509 0.27674598 -1.0158395 0.5723505 -1.1567466 -0.043487046 1.5062613 0.4169611 0.16495307 0.63883823 0.6314175 0.95265234 0.8705692 0.5535146 0.3343646 -1.3343117 -0.12917618 1.071143 -0.41428596 -0.8490772 0.0054969904 0.20797835 -0.03415974 0.26875916 -0.34318975 0.7514508 -0.1881114 -0.23684071 -1.3432593 1.5070767 -0.04070923 -0.44587275 0.17040573 -0.32323164 0.17107762 -1.1554025 -1.3626715 -0.97928786 -1.3047297 1.2753903 0.059255082 0.03641959 -1.1142023 0.4527412 0.62568676 -0.07258214 -0.7149932 -0.25456744 0.98796356 -0.1941767 -0.70154923 1.7054653 -0.004720231 0.7823518 -0.49319577 0.48485005 0.23114401 -1.4327633 -0.82663304 -1.1774309 0.14045909 0.9585473 0.5687102 0.40159076 -0.8185525 0.63986707 0.6745893 -1.275903 0.6491547 0.25736624 -0.8270855 -0.24792162 1.0126201 -0.3418431 -1.9525465 -1.6254511 0.37556794 -1.0437212 0.30316356 1.0908259 1.7315332 1.1158879 1.3961337 -0.51603955 0.72021586 -1.4113839 0.107161775
APOBEC3G -0.9499663 1.868788 -1.4136586 2.1386187 -0.6972194 -0.91467494 -0.12201768 1.2694993 -2.2106051 2.812024 0.32079846 -1.5739799 -0.96409166 1.4345783 0.894295 -2.2131383 1.8648971 -1.8153069 -1.3676115 -1.1771736 -2.3861623 0.74966425 0.009941312 0.747798 0.77560663 -0.12418428 1.658657 -0.9767087 -1.6980035 1.2117734 1.473519 -1.2596234 -0.58313847 0.23080735 -2.4026818 2.0860713 -1.3220098 -0.63622665 1.0463314 1.2530576 -1.0316106 -0.08514926 -1.3400408 2.4437242 0.13087426 -0.61357564 -0.6123865 -2.1853478 -1.3578218 -1.4988537 -0.32786992 -0.6597027 -0.0041989367 0.9928989 -0.33304483 0.97490436 2.5808423 -0.5935812 1.0027788 1.8721138 -0.95438224 0.72255987 -1.9465265 -2.145803 0.630306 2.1168926 2.8102732 1.8589356 -0.13354988 0.67158914 -1.1965332 2.100362 -1.5563304 -0.71569103 0.7218479 -2.0890455 -1.2545811 -2.4748588 0.35507098 0.4277561 0.42405564 -0.70748365 -0.4215508 -0.8643805 0.51463246 0.1931823 1.3775365 1.034675 1.3567703 -0.124139816 0.88323957 -0.16267785 0.32495543 0.39223894 1.5782405 -0.88192606 2.0322402 -0.55185896 -1.2853673 1.9829757
APOBEC3H -0.9529495 0.43932483 0.74528074 -0.5964565 0.08600652 0.38731542 -0.5340322 0.047910023 0.31465346 0.10120763 0.9835153 -0.033985946 -0.62988293 0.6417561 0.28977758 -0.7811643 0.058455564 -0.71424925 0.04386539 1.2387209 0.19718304 -0.2423991 1.0932573 0.7435654 0.6339768 0.37816185 0.54881006 0.7015292 -1.0325296 -0.12905875 0.5667707 -0.64449054 -0.39987856 0.13553122 -0.17389753 -0.20668536 -0.29526696 -0.49655178 0.38256258 -0.036608648 0.05694006 -1.0460426 0.97808963 0.14567773 -0.37120828 -0.38302642 -0.4209138 0.40515447 -0.7513882 -0.9718882 -0.13274401 -0.69065267 0.91718847 0.45378688 0.74865896 -0.6063284 0.26959348 -0.04769287 -0.13226762 -0.51738495 0.30231014 0.3462788 -0.26647088 -0.39157435 1.2017454 0.31121793 0.89427984 -0.4848842 0.5391413 0.021436734 -0.5513335 -0.44451272 -0.7935304 -0.039620634 0.3019134 0.74924666 -0.029092604 -0.19543879 0.4727415 -0.14861228 -0.4670475 0.6332707 0.4629882 -0.6245573 -0.04241292 0.623052 -0.4023342 -0.65711826 -0.47557485 0.090561055 0.15957697 0.4569372 0.3772876 1.3495392 1.0586268 0.74068993 0.0040353206 0.6491378 -1.1414654 0.4409969
AQP3 -0.024761382 -1.14772 -1.6300687 1.7001816 -0.09943003 -1.2607051 -1.3446949 1.4071785 -0.3531857 -1.4782603 0.06375418 -1.0200139 -0.52782696 -0.2516143 1.2924078 -0.3861052 -0.3113563 -0.47570953 0.07181908 0.43572637 -1.7034112 0.9186633 -1.3992826 1.584178 0.2504092 1.7041658 0.84093887 0.03516545 -1.1099831 1.3625325 0.80251056 -1.5944049 -1.2707912 0.19363046 -0.7124318 0.4141872 -0.08048286 0.48754093 0.114538364 1.0513005 -1.7347784 0.3402632 0.93157 1.3444407 -2.0396392 0.43598604 -0.5775611 -1.572817 -0.48087612 -0.40455148 1.6903037 -1.3180397 -0.41183525 0.467931 2.330097 -0.0067652585 1.0777103 0.72627443 0.38042995 0.6149151 0.2578 0.5022571 -1.3078462 -0.15104891 -0.08428128 -0.072377644 0.7942578 1.1475234 -0.29126185 -1.475538 -0.13398641 1.906283 -0.24040297 -0.8052478 0.31549427 -0.74054295 -1.3359239 0.0987574 -0.37749627 1.3503975 0.22010814 -0.20303261 -1.3653959 -1.7064774 -0.35924196 0.43727276 0.4340272 0.24539231 -1.0842724 0.925071 -0.5516589 1.2476879 -1.5592818 0.37032083 -0.09383533 1.286447 -0.96315813 -0.47307086 -1.2138872 0.7700141
ARC -0.03812986 0.015133076 0.0068697124 -0.09053829 -0.007734533 -0.058149956 -0.019348573 -0.020156914 -0.040617105 -0.03924768 0.08904775 -0.044273376 -0.059921023 0.110937685 -0.004075887 -0.03562496 -0.019375062 0.048068646 -0.04220967 0.0002749478 -0.006477282 0.008325561 0.02479733 0.13227159 0.08455812 0.07259838 -0.02612134 -0.001860607 -0.0035447394 0.031448632 -0.0119661465 -0.043999445 -0.12918112 -0.07849733 -0.025407532 -0.020300772 -0.032700736 -0.06401004 -0.06668992 0.06654553 -0.022526715 -0.014549634 0.06819656 -0.022781381 -0.047159128 -0.02013856 0.029271454 0.020725371 -0.13092989 -0.10387588 0.06232053 -0.03116529 -0.027329266 0.10254334 0.023728756 -0.037614193 0.06886022 -0.1104131 -0.022957768 0.07253468 0.068231955 0.009329895 0.022980642 -0.03220887 0.026481884 -0.026358284 0.031146886 -0.0077842935 0.00025813002 -0.017696435 -0.01677947 -0.039048556 0.063280284 -0.08124274 -0.026200702 0.08192819 0.002869236 -0.06842686 -0.034678567 -0.018663445 0.18134473 0.058938324 0.06696095 0.06167885 0.051119965 0.14434808 -0.024815725 -0.016309319 -0.014265347 0.02386654 -0.015988963 0.03340828 0.037732873 0.03463784 0.106203414 0.029544458 -0.07868657 0.013859259 -0.05120975 0.067445695
AREG -0.57446223 -0.54437464 -0.06454554 -0.36731955 -0.3518623 -0.25856093 -0.5164088 0.3023516 -0.5573804 0.8125627 -0.70789826 -0.37411496 -1.1810393 0.13315809 0.11499839 -1.4731057 -0.37392506 -0.22471043 -0.65674186 0.5527549 0.14531527 -0.0072249533 -0.9028802 1.702227 -0.11118256 -0.22373897 -0.37187338 -1.0591588 -0.53223264 1.6174078 0.6020517 0.020884525 0.016164232 0.5884601 1.0870042 -0.08748762 0.39425752 1.912798 0.97470576 2.1553884 0.19818324 -1.5466878 -1.5461234 0.5358681 0.5104063 1.2317852 -0.42349023 0.36625597 0.7832074 -0.39179447 1.5511084 -0.6679578 -0.47933102 -0.6832248 0.51299655 2.0667613 0.60537326 2.0004845 0.52858675 -0.28869545 -0.7996595 0.19536118 0.47286034 0.08888896 0.68015707 0.012977742 -0.24912977 0.47430706 -0.9986597 -0.86525255 -0.35358098 0.5924298 0.10679732 0.34555367 0.2145952 -0.08587482 0.19957206 -0.06426213 0.46152693 1.2191256 1.4668977 0.6266658 -0.61325955 -0.23980437 -1.0528901 1.2705854 -0.37585363 -0.49234 -0.83506954 -0.401475 0.18213226 -0.56879014 -1.001745 0.8231735 0.66402704 -1.0976257 0.77974343 -1.3602263 -0.76472026 0.24016339
ARHGAP11A -0.35103282 0.16002949 -0.16150254 -0.1757265 -0.1594807 0.05914106 -0.18772647 -0.0009666319 -0.115092196 0.14765693 0.07392806 0.12526 -0.19156708 0.084890485 -0.05468235 -0.28633022 0.18274166 -0.29105717 0.11789295 0.22815569 0.05152553 -0.11840409 0.0967528 0.34922346 0.19077775 0.015806047 -0.03019017 0.13899867 -0.29777566 0.17968157 0.2513239 -0.14851113 -0.17366426 -0.004733255 0.111438386 -0.14818761 0.10420917 -0.23450692 -0.12904066 0.08201117 0.030014759 0.02005724 0.13665208 0.15611076 -0.10469535 0.16008006 -0.11280193 0.050846983 -0.26770556 -0.36457294 0.16955334 0.01442692 0.2812277 -0.05865375 0.1447355 -0.23941535 -0.0754584 0.076282844 -0.11180827 -0.056510136 0.27252123 0.19440848 2.847644e-05 0.05856138 0.47911385 -0.22937386 0.35919675 -0.18735853 -0.05565928 0.19152576 0.0502461 -0.18183403 -0.40332562 -0.04556357 0.1300452 0.1596561 -0.12601481 -0.102296345 -0.0013344041 -0.14492373 -0.12275173 0.094284855 0.15502912 0.091385365 -0.25818074 0.29999644 -0.114984795 -0.18614897 0.052177437 -0.011584965 -0.13750772 0.19155915 0.24533737 0.2378275 0.3162805 0.21273847 -0.011624342 0.05968106 -0.26763377 0.08971934
ARHGAP24 -0.112246975 0.10466004 0.02728692 -0.05193412 -0.054878067 -0.057492353 -0.04772582 0.022160186 0.0089005 -0.032009188 0.010494047 0.022605073 -0.0057383785 -0.02969536 -0.027549414 -0.061356056 -0.0062823226 -0.05398091 0.049154647 0.08180136 -0.0057823407 0.020563714 -0.10264552 0.033693735 0.03559378 0.07883272 0.02926891 0.008284484 -0.019374229 0.030596074 0.103119306 -0.03376352 0.016995057 -0.041743416 -0.05023641 2.7264643e-05 0.00861152 0.02232505 0.0073291315 0.060080875 0.008766943 0.008375461 -0.0002395272 0.02412015 -0.0126199 0.0644859 -0.04467666 -0.028962292 -0.08918147 -0.07899313 -0.012090309 0.005375101 0.004260022 0.003906131 0.055409342 -0.09753599 0.0060045077 -0.020682035 0.0042244033 -0.0024027089 0.0018008738 0.004927559 0.007470228 -0.060371134 0.05506698 0.0038781497 0.04005667 0.04320531 -0.07316292 0.008666839 -0.0071500577 -0.025038013 -0.019376842 -0.028156629 -0.006194566 0.027176565 0.060044277 -0.023715302 0.068254836 0.03391812 -0.03713764 0.00476778 0.010992765 -0.0061933734 -0.040551838 0.001936259 -0.0110948635 -0.11510638 -0.10374799 -0.032899573 0.015104561 0.03389375 -0.006418166 0.07668772 0.0017411239 0.034738585 -0.017485311 0.028536487 -0.050784834 0.013581369
ARL4A -0.72006756 -1.1603495 0.647503 0.57006496 -0.52385867 -0.80615216 0.11422538 1.3697908 -0.69544226 -1.1372646 0.27985632 -0.35034597 -1.5305778 1.0041145 0.93890727 0.28981712 -0.010950658 -1.8628727 -0.04469817 -0.5546162 -0.44530708 -0.5678228 -0.62089175 -0.0987696 1.1229264 0.95691395 0.47476435 0.3813034 -1.0242368 -0.7039339 0.64645386 -0.79397714 -1.4029889 -0.43456787 -0.14785881 0.22761317 -0.73105186 -0.3071456 1.1801192 -0.030727109 -0.45808476 -0.9780563 1.2032017 0.20920269 -0.8357331 1.0817666 -0.4736033 -0.7288727 0.48496622 -0.83155495 0.7343088 -1.9902203 -0.68391705 -0.3665834 0.2560215 -0.34033966 0.23675677 0.8499054 -0.625267 0.057256524 0.44207388 -1.2213758 -0.6574624 0.10333772 -0.37540123 0.020432778 1.4427818 -0.024198797 0.54362804 -0.9380656 0.09939765 1.5567304 0.09869211 -1.723154 -0.1513705 0.490823 0.13806444 -0.23526832 -0.11539469 1.2094556 0.07219052 0.6297036 -0.48043102 -0.097619444 0.7066596 0.7083928 -1.0718348 -0.5709552 -0.30326164 1.8804876 -0.11250339 0.843055 -0.37935668 0.9077894 1.5915787 0.21240835 0.36591318 0.8195764 -0.596413 0.4228078
ARL4D -0.52529824 0.4238735 0.48973578 -0.44836715 -0.5423653 -0.16894233 -0.21406807 0.19355902 -0.075308286 -0.15512857 0.5681358 0.04969206 -0.032597072 0.2216187 0.12791607 -0.46612412 0.08704663 -0.24133456 0.19794728 0.89643484 -0.13637099 0.2382341 0.009025023 0.5262094 0.6581768 0.009027744 0.107738875 0.27487072 -0.6081876 0.1359079 0.587267 -0.27766356 -0.39756978 -0.03646791 -0.0270527 -0.18341474 -0.069037296 -0.49541768 -0.21886759 0.24603666 0.06469877 -0.052406162 0.2629311 0.31101245 -0.3578323 0.0412119 -0.13966143 0.28085065 -0.5632726 -0.3133769 -0.24100304 -0.2653862 0.7393684 0.035814967 0.2476368 -0.27769244 -0.14364034 0.034819335 -0.054119915 0.13043216 0.030106116 0.33876806 -0.06165079 -0.46283957 0.82926536 -0.2164816 0.399008 -0.1830882 0.1635233 0.11122258 -0.21618876 -0.54752296 -0.21389991 -0.24026746 0.16683438 0.4266929 0.01123004 0.07765372 0.11516246 -0.39674446 -0.23904705 0.3273869 0.31770903 -0.36193275 -0.2861464 0.31485474 -0.063140795 -0.5358392 -0.33597597 -0.111088574 -0.22373544 0.24191713 0.2269112 0.7748574 0.5798652 0.6182074 -0.18129344 0.4422308 -0.44130367 0.20141642
ARL5B -0.37184665 -0.0071892813 0.5479346 0.3827315 0.16641705 -0.48108745 0.048908442 0.21322986 0.034305766 0.14374502 0.5783876 -0.5540437 -0.041751787 0.27438983 0.59026927 -0.06550189 -0.06580797 -0.42993313 -0.024258165 0.7687083 0.04434638 0.6232283 -0.34925693 0.42129025 0.71592927 0.93058944 0.22194012 -0.38740113 -0.9208648 0.1781023 0.481618 -0.31983563 -0.40351132 -0.057313208 -0.4335617 -0.3249463 -0.5504885 0.11187266 0.30917162 0.30775034 -0.1837238 -0.5532379 0.82566315 -0.031736456 -0.36201665 0.1850659 -0.093312845 -0.46930772 -0.9208676 -0.40747824 0.6232619 -0.068681434 0.07613371 0.42923737 0.10271965 -0.2612735 -0.24293 -0.113400295 0.05120351 0.04972952 0.17627238 0.118399344 -0.63135767 -0.27593848 0.4396779 -0.7472436 0.09962778 0.24076347 0.3671855 -0.40054643 -0.47137862 -0.050104264 -0.7060784 -0.39705074 0.17720218 0.0523396 0.63999695 -0.48062286 0.23399734 0.021305526 -0.0013742424 -0.03181111 0.75862926 -0.1591743 -0.4642974 -0.56601816 -0.9389592 -0.26029107 -0.900036 0.44608653 -0.18410204 0.34395203 0.041265048 0.5474046 0.51098883 0.35970575 -0.5493127 0.32723907 -0.4714252 0.10582905
ARL6IP1 0.53697383 3.4921622 -2.564322 -0.2578842 -0.25888982 -0.47969198 1.7005608 -0.032766048 -0.5497685 -0.7160568 -1.6632211 0.09911724 -1.520671 -1.1447376 0.14651337 0.6903492 -1.2076353 0.05493952 -1.3429458 0.7308386 -1.1574292 0.4758017 -1.1760716 1.6265132 1.0749407 0.25418398 0.63445973 -0.873068 -1.024772 -0.37248 0.23762868 -0.25050715 -0.3236288 -0.3528798 0.6507367 1.923965 -2.7491548 -1.6979519 2.682794 1.2071935 -0.3589415 -1.2128386 -0.29611585 2.082624 -0.1387854 0.16215858 0.20913555 -0.5999818 -0.12120957 -1.1540439 0.17674871 -0.3132988 -0.16146943 -0.63915163 0.32233626 1.6204222 2.2833738 0.5161384 -2.5914252 -0.68021166 -0.7864283 2.2057755 0.09440041 0.6910478 1.3072691 1.3421688 -0.7731183 2.676432 0.24647576 0.23535056 0.06242509 1.2296262 -2.7502575 -1.6773145 -0.005759513 0.76714414 0.39564338 -0.80208 1.9456036 -1.1187593 0.4668897 1.5500526 -1.4373316 0.68460625 0.34088212 -0.43250284 0.42413822 -0.4719627 1.9682316 1.0276173 -3.4677503 3.023738 -2.3208919 -0.92296875 -0.90689784 0.25590163 0.47837898 -0.7282617 0.08234369 -0.40191552
ARPC1B 3.137513 -2.1613858 -2.3699243 0.84731215 -1.0081977 -1.2060922 1.5040178 2.5448966 -0.5994168 1.0464402 -2.429163 -1.5409528 -2.2425761 2.1143694 2.1187036 -0.18103698 -1.877556 -0.11787727 -1.678556 1.8536813 -1.3701854 1.0772177 -0.9828665 2.8927112 1.706985 -0.88120407 0.5732095 -1.1121131 -1.2497174 1.0940914 2.0208316 -1.9881889 -3.5416343 0.38072437 1.9950062 3.7581718 -3.6285267 0.92816097 0.7938468 1.1336359 -0.8224713 -1.860405 0.98782575 1.407359 -1.4139957 -2.5341117 -1.5922844 1.6182613 0.6812945 -0.9509021 -0.7084633 -0.86248434 0.3147931 0.48472 0.14181915 2.3746507 1.022075 1.32559 -1.0883309 -0.1983976 -1.4106277 -0.5502363 0.63213027 -1.4580144 0.9599945 0.7654538 -1.0548015 2.6047914 -1.3808969 -1.1353823 -0.6662711 0.3945266 -1.5907185 -0.7908887 3.0191367 -2.2757425 -0.8584222 -1.073345 -0.42873713 -3.427168 2.979319 2.3101714 -1.2865992 2.9174297 -0.25281233 -1.0039749 -1.7362943 2.920326 4.439294 -2.7703848 -0.38858646 0.5210402 -1.4592998 -2.0015178 -0.18100186 -2.8252838 0.89451605 -0.52413714 -1.6955831 0.99654835
ASB2 -0.832467 0.44873208 0.38837853 -0.2667394 0.5158618 0.29992202 -0.15740314 0.42850944 -0.13030016 0.27913275 0.22215492 -0.28029758 -0.5192574 0.3357405 0.33487797 -0.6484219 -0.4325195 -0.18600461 -0.4888811 0.694799 0.24185658 0.2234644 0.40801272 0.35120538 0.030952025 0.07583782 0.35285625 -0.17111991 -0.056933198 0.30699977 0.59739107 -0.36356556 -0.021298949 0.014406167 -0.41622147 0.1926694 0.15727895 -0.11131757 0.28262922 -0.08949589 -0.26491776 -0.14348263 0.7213142 -0.38818702 -0.34597892 -0.2783647 -0.19825888 -0.40389985 -0.6614168 -0.44558161 0.030888347 -0.34693554 0.039579943 0.39163736 -0.0018757564 -0.8068841 0.5600633 -0.037553057 -0.47313467 -0.37472644 0.22232266 -0.113129355 -0.16184415 -0.114297 0.35859856 0.27566725 0.45393622 -0.12333742 0.33042538 -0.057663545 -0.31862593 -0.36751592 -0.31187326 0.0060168393 0.7747983 0.25056544 -0.08424918 -0.2646761 -0.16409543 0.118157804 -0.08907542 0.086263165 0.1473285 -0.124424934 0.14062911 0.63250417 0.0030347803 -0.7315541 -0.46801773 -0.037337653 -0.27578807 0.4601286 0.027491204 0.6737895 0.619204 0.5979 -0.23670855 0.24530824 -0.6885421 0.09354451
ASF1B -0.21724166 0.27104318 0.005394671 0.04766416 0.16643438 0.3166293 -0.109648734 0.10003928 -0.029895851 0.071475275 -0.085922174 -0.080359735 -0.23578253 0.01573562 0.009848209 -0.17551951 -0.011152112 -0.06365154 0.26577824 0.08518106 0.04564809 -0.009686596 0.23147625 0.02974549 0.0882072 -0.18232787 0.19098309 0.03487518 -0.060419295 0.22708213 0.07526521 -0.20432547 -0.010321782 0.0037487505 -0.06309577 -0.020023733 0.029999409 0.0030698972 -0.068793796 -0.015410231 -0.29607573 -0.19511658 0.32380188 -0.013686779 -0.20187612 -0.0833985 -0.14743425 -0.11200239 -0.13203016 -0.19221805 -0.07148579 -0.09612456 -0.036081463 -0.022825453 0.29994655 -0.23112671 0.16554224 0.26896137 -0.1635534 -0.27923626 0.13544092 -0.10011011 -0.14311199 -0.004151483 0.16997764 0.044932418 0.25749704 -0.03141342 0.28511095 0.1536539 -0.2066672 -0.04999353 -0.39424756 0.2243802 0.5584978 -0.04295903 -0.27274448 -0.020174466 0.0016278077 0.20419529 -0.2628093 -0.08364019 -0.098542154 -0.15898818 -0.1407736 0.21766709 0.013567021 -0.17948951 0.0033250162 -0.13915208 -0.106750295 0.02182081 0.015197914 0.12723556 0.25237143 -0.045847405 0.14798346 -0.001583835 -0.16841415 -0.16739722
ASPM 0.12441838 0.3619306 0.07517593 0.28894782 0.34913462 0.047380593 -0.26684803 0.055887405 -0.055919826 0.07536234 -0.1374391 0.012527009 -0.35208336 -0.017672842 0.18911 -0.18387572 0.08315484 -0.07705111 0.28272155 -0.17031662 -0.06362661 -0.028729845 -0.23843277 0.1487507 -0.09917436 -0.1799887 0.25677362 0.11613862 0.49278 -0.12308303 -0.06301212 0.10297633 -0.095601976 -0.18407144 -0.22389585 -0.24413048 0.12044694 -0.21266767 -0.03975398 0.15212229 -0.15383616 -0.33191517 0.2142277 0.12731706 -0.39220548 -0.108526066 -0.10808204 0.03306879 -0.036658436 -0.039932545 -0.010821747 -0.36305073 -0.24749357 -0.13768516 0.35876274 -0.13140309 -0.2283418 0.16271734 -0.05368717 -0.3571418 0.13359116 0.020231038 -0.31003135 -0.08063383 0.03514056 0.337702 -0.08424073 0.051099893 0.12771307 -0.13609973 -0.3856007 -0.24547423 -0.017064167 0.1243822 0.3250835 0.010160271 -0.28774247 -0.33197692 -0.028172283 -0.034645434 -0.0031314841 0.07830898 -0.15360427 -0.031508032 -0.080566995 0.13401216 -0.20229192 -0.049948767 0.21460557 -0.054528896 -0.2339371 -0.024622563 -0.25251657 -0.08562705 0.251014 -0.36772904 0.31214947 0.21544085 0.014704632 -0.076941565
ATAD2 -0.8735905 0.3689457 0.14669123 -0.003867383 0.40211973 0.42885986 -0.29217583 0.39130554 -0.024722766 0.46005112 0.03199782 -0.12043489 -0.56735027 0.010649735 0.4129722 -0.5519831 -0.41722012 -0.33594444 -0.13345824 0.6535814 0.25658137 0.21947218 0.16472287 0.38453624 0.06289545 -0.08638264 0.32090497 0.15051119 -0.32239726 0.2406215 0.81910974 -0.51061255 -0.13654679 -0.06205357 -0.5692486 0.122617036 0.19404794 -0.03345592 0.30698967 -0.20843607 -0.20653117 -0.53462774 0.898703 -0.14894384 -0.49364203 -0.13688914 -0.3434396 -0.41089034 -0.5363406 -0.41715342 0.21753548 0.23485886 0.28994638 0.36963484 0.41110536 -0.80647993 0.34168252 0.15412657 -0.76768553 -0.6181142 0.33349532 -0.032765202 -0.36719304 0.010992125 0.6127276 -0.016773615 0.6601145 -0.06655159 0.44753042 -0.008251231 -0.22718914 -0.20169581 -0.7838259 0.4000515 0.9113758 0.0834952 0.12755053 -0.25549385 0.2564094 0.44000638 -0.46959597 0.03592063 -0.036994535 -0.33805013 -0.13379446 0.3999788 -0.28355974 -0.8989603 -0.62326807 -0.0027747324 -0.31531823 0.4198261 0.041234955 0.80374074 0.8857496 0.32446283 0.25018048 -0.043787763 -0.7136276 -0.21534958
ATF3 -0.84004766 0.42193955 -1.2335817 1.2856302 -0.36270356 -0.4489581 -0.11674181 1.5350524 0.2965048 1.4861839 0.3060867 -0.25122714 -0.9241015 1.3066084 1.5675273 -0.9704151 -0.71964633 0.67755044 -0.6434054 1.038461 -0.58926606 0.37189588 -0.55771595 0.8745477 0.25712332 -0.675943 0.4812345 -0.6087267 -0.062440746 0.755462 -0.041686196 0.11514358 0.32056847 -1.0998682 -1.1654272 -0.6417266 -0.10670211 -0.06784326 0.47963595 0.824699 -0.13645823 -0.3746316 -0.22309923 0.68632835 -0.27006254 1.0471675 -0.1974668 0.37372842 0.059810795 -0.76032287 0.24443266 -1.0892481 -0.25622046 0.56711435 0.21118465 1.0553565 0.69979346 0.9338447 -0.54183775 -1.1390789 -1.3387281 0.04236812 0.43690184 -1.4544544 0.8864871 0.5473441 -0.29940265 0.050307665 -0.17471813 -1.6319861 -0.8736543 0.79338384 -0.37851083 -0.6936308 -0.44296402 0.7394544 -1.1003385 -2.237923 -0.089869805 0.6852534 1.0125622 0.124169126 -0.68463963 -0.2953711 0.16647951 1.449214 -1.2141454 0.5384404 0.48677012 0.039735887 -0.5429491 0.043305557 -0.8442421 -0.492444 -0.655725 -0.56632096 -0.06681229 -1.8963829 -0.83703643 -0.56233054
ATP2B1 -1.2189176 -0.57139355 -0.1615316 1.2347335 -0.9681614 -0.08814249 -0.10846557 1.3526305 -0.74131227 -0.25510114 -0.06346812 -0.81714356 -0.5872774 0.76984674 -0.014719449 -0.162965 -0.33298695 -1.883142 -1.1939791 -0.5120701 -0.09763669 1.8856565 -2.0919993 0.17384125 0.2520266 1.0933213 0.5936701 -0.23255733 -1.2397789 0.6870227 0.6192623 -1.2492157 0.25208843 -0.67328054 -0.4628949 0.778709 -1.3540639 -0.30267906 0.6441975 0.45315585 -0.67792034 -0.9896056 1.5628239 0.18094932 -1.4247675 0.6928185 -0.27628234 -1.6223185 0.66336 0.61549705 1.9206291 -0.8591042 0.06187953 -0.44041142 0.2446712 -1.0424173 0.3876729 0.9168077 -1.3011223 -0.28416473 0.031541113 0.08916494 -0.060092617 0.13170329 0.0825627 0.2795287 1.5523916 0.7904473 -0.6809402 0.35607833 -1.8253639 0.069517985 -0.3713451 -0.11555588 0.706165 0.29771444 0.44201398 -0.9462167 -0.4237157 0.9887664 -1.8272241 0.05563812 -0.26796514 -1.8914022 -0.4675764 -0.49376923 -0.24861886 0.30759367 -0.65444 1.5012667 -0.452123 0.2353629 -0.7775387 0.48592007 0.7607875 0.70897764 0.16637442 -0.1266626 -1.8568715 0.3759059
AURKA -0.02804602 0.23097931 0.09734854 0.058017083 0.12913324 0.049971588 0.00024249201 -0.089814775 -0.08383499 -0.022047162 -0.11234611 -0.08262499 0.024142837 -0.075484164 0.08917122 -0.009583505 0.08685344 -0.037901137 0.32088444 -0.16380648 -0.08898156 -0.045514435 -0.022363203 0.20389542 0.12054104 -0.021314057 0.07892079 0.14222644 0.10730664 0.1215335 0.045643814 -0.115545414 0.024174009 -0.15020822 -0.046375554 -0.059159007 0.039975457 -0.0089275455 -0.13774438 0.14287253 -0.09125694 -0.31329474 0.11942576 -0.0028936341 -0.18798995 0.03221758 -0.06930336 0.11992133 -0.21162625 -0.12805234 -0.06526682 -0.21004866 -0.26630136 -0.05078518 0.14681005 -0.08749815 -0.037420478 0.20168565 -0.074673444 0.0136870425 0.11276836 0.047344077 -0.10256403 -0.119494714 0.052401356 0.058052473 0.14917147 0.0466914 0.1281529 -0.10637022 -0.2683757 -0.14983815 -0.062666275 0.049510222 0.27864882 -0.14328212 -0.13461255 -0.16586152 0.0068174847 -0.032314934 -0.23210664 -0.022082778 -0.18713292 -0.15532058 -0.1944844 0.06925873 -0.12590635 -0.024202026 0.042016275 0.091431364 0.0036105388 -0.067388 -0.16879402 0.03678639 0.19992827 -0.20146409 0.09673713 -0.012192053 0.040299147 -0.07355336
AURKB 0.13143669 0.11034043 -0.1435848 0.32057515 0.18639745 -0.093446665 -0.10423099 0.15922257 -0.006396991 0.00645668 -0.1490073 0.047538288 -0.030510513 -0.14881328 0.11001091 -0.117345326 0.1395353 -0.11489902 0.18895014 -0.10542488 -0.01272024 0.024017558 -0.1223254 0.1824943 -0.071471594 -0.2239391 0.07952757 0.042989753 0.19764616 -0.13606232 0.060598426 0.04159429 -0.01792516 -0.18357903 -0.20232543 -0.09295949 0.23308052 -0.112639874 0.011326122 0.077546895 -0.024256367 -0.13486244 0.1859493 -0.010367942 -0.2659916 0.11743745 -0.026086014 0.052964665 -0.2028556 -0.17831199 0.077852115 -0.19484164 -0.26859045 -0.11652556 0.15039381 -0.0038425631 -0.17541704 -0.010043413 -0.028696662 -0.20413268 0.120629005 0.12286292 -0.24441646 -0.037767224 0.004861447 0.10309194 -0.19315338 0.07140459 0.20180474 -0.13330299 -0.32235214 -0.014274824 -0.09805897 0.08551747 0.23740222 0.019913042 -0.13439564 -0.22996044 -0.07514177 -0.037608564 -0.06591499 -0.016928144 -0.09236318 0.13803522 0.020617789 0.119390585 -0.19849412 0.077535465 0.095310465 0.10385433 -0.19065508 -0.1381788 -0.25352526 -0.03230452 0.24984252 -0.14445768 0.14489111 0.011000784 0.15797387 -0.0050880844
B3GNT5 -0.0030392334 0.02236842 0.014180358 -0.018257203 -0.052661326 -0.041992422 -0.00037563115 0.035457566 -0.0109538045 -0.0648465 0.07122542 -0.008303139 -0.01737481 -0.0029554558 -0.02120361 0.042324726 -0.014452462 0.009282766 -0.0007967122 0.07777526 -0.025743892 0.063729465 -0.031539634 0.041884966 0.0821503 -0.0023901863 -0.023314238 -0.0064623053 0.001969066 0.014308833 0.010975504 -0.012975866 -0.072482854 0.0065901023 -0.09290327 0.03142108 -0.018697577 -0.07718697 -0.03482025 0.041888643 0.00030255114 0.033912342 0.002182758 0.06345188 -0.10271757 -0.031429015 0.01039176 0.04313429 -0.012267524 0.0065132943 -0.033910543 0.006146012 0.06414226 0.015230993 0.018969195 -0.07601352 -0.032017585 -0.017564503 -0.005519918 0.025122577 -0.019914584 -0.02463615 0.031325504 -0.039653156 0.04614015 -0.0060619623 -0.009880461 -0.032655623 0.0035592313 0.016492363 -0.042302873 -0.011822897 0.02389573 -0.07322548 0.0026877485 0.07342256 -0.011010676 0.030773504 -0.03556102 -0.020601247 0.045970213 -0.02975595 0.02837444 -0.031525966 -0.007912837 0.025195634 -0.009900443 -0.059675712 -0.039451264 -0.04037337 0.03326202 0.00896849 -0.013487499 0.08272409 0.07444838 -0.019173913 0.018094352 0.041584138 0.007065663 0.055300854
BACH2 -0.75409406 0.732468 0.7082318 -0.46435827 -0.43381536 -0.3286832 -0.25782707 0.41008145 -0.11874723 -0.645533 0.61310595 -0.016651262 -0.051808704 0.31792212 -0.07342706 -0.7714555 0.043950517 -0.24555525 0.38777635 1.1777332 -0.48107412 0.24029407 -0.4893151 0.40336958 0.8575363 0.18572076 0.07698378 0.43418485 -0.7272418 0.23353264 0.961169 -0.43464333 -0.4157439 -0.1589977 -0.025090892 -0.062045597 -0.13545132 -0.443377 -0.49758497 0.822093 -0.16897275 -0.06495059 0.1319446 0.11553163 -0.33617625 0.021393258 0.09614327 0.2873075 -1.0109018 -0.5591987 -0.109693855 -0.27327704 0.78192574 0.23900053 0.29644233 -0.69693166 -0.51613384 -0.0196633 0.1330963 0.08522239 -0.11398637 0.068500854 0.019618265 -1.1206901 0.75056314 -0.21993537 0.22918734 -0.11518122 0.016660724 0.10681091 -0.68413097 -0.35427812 -0.28894144 -0.4473243 0.1676935 1.040552 0.354155 0.039333493 0.09438246 -0.817815 0.016053153 0.68828905 0.2866532 -0.640286 -0.43452102 0.34640238 -0.2424193 -0.8106813 -0.8145686 -0.22542158 0.018560765 0.7225518 0.3285455 1.2251183 1.0714121 0.7599923 -0.18521594 0.24353404 -0.5772555 0.23164323
BAG3 -1.1753341 0.07072381 -0.17991613 0.02567247 0.55913764 -0.72639596 0.32796514 0.6901914 -0.44761243 -0.65652674 0.71909183 -0.30511278 -0.6169312 0.231692 0.52161473 0.47276917 -0.4671326 -0.41775277 -0.85539395 0.18756866 -0.18654802 0.89697456 -0.4516625 0.070537835 0.33852258 0.53736115 0.6825543 -0.68441826 -0.44400758 0.6132965 0.2831142 -0.57885057 -0.66774523 -0.44985604 -0.7104149 -0.57036376 -0.22732219 -0.13148457 0.31775922 -0.028833624 -0.47954622 0.10485113 0.9066849 -0.1689454 -0.17675336 0.370153 0.0086376835 -0.77383244 -0.55029637 0.35469702 0.9235268 -0.25149587 0.32514158 0.07464671 0.14903964 -1.1540979 0.32881182 0.16207199 0.018594014 0.21770205 0.32832447 0.6041909 -0.8451775 -0.70290846 0.21752079 0.30013448 0.70858324 0.026231188 -0.34515265 -0.63649106 -0.9542739 -0.7137633 -0.51682955 -0.19582298 0.5942885 0.5928473 -0.8724787 -0.5201887 -0.30126446 0.53569126 0.94533384 -0.12469294 -0.4071114 -0.7658822 0.6273922 0.45622724 -0.5625661 0.298676 0.14171776 0.9078244 -0.9494009 0.30275908 0.343461 0.43075016 1.1397754 0.9294677 0.5617026 0.07619054 -0.9823879 0.8467304
BAMBI -0.058514893 0.01587446 0.010143742 -0.08655109 -0.18408515 -0.027396064 -0.016259888 -0.042305633 0.0017198042 -0.11591107 0.103722125 0.037897315 0.020827355 0.01275423 -0.015685352 0.056241747 0.017509537 0.016203666 0.09863816 0.1325094 -0.031970084 0.08450417 0.029767022 0.13774781 0.2176944 0.030465962 -0.010577151 0.0053763627 -0.037812103 0.013124472 0.038308695 -0.031222038 -0.06741068 -0.058465492 -0.04774836 0.038903974 -0.09912991 -0.15824094 -0.063445516 0.0634919 -0.08281024 -0.10992149 0.014103695 0.121359475 -0.10772252 -0.039295707 -0.03643648 0.091615126 0.036878295 -0.07340789 -0.027475273 0.005500316 0.121357754 0.03095568 0.032896455 -0.07010265 0.023982244 0.038431272 0.02667767 0.08123788 -0.029078227 0.01577886 -0.0029825373 -0.06807229 0.07236562 0.0024760913 -0.0013961494 0.000960071 0.0120922625 0.13393395 -0.06148032 -0.083054036 -0.006986683 -0.085950606 -0.060170747 0.14897378 0.019656371 0.043665227 -0.04332764 0.01725843 -0.050167717 -0.05439995 0.03013942 -0.040668923 0.0050524403 0.048140805 0.093906954 -0.11350732 -0.022112722 -0.09078614 0.05809705 -0.022193333 0.005906938 0.13106464 0.053943798 0.029271038 -0.0007994076 0.07630283 -0.060139127 0.108020626
BANK1 -0.037482284 0.020518508 -0.023018867 0.07280663 0.07402194 -0.08829863 -0.07808788 -0.013392814 -0.096113235 -0.053523257 -0.07569044 -0.06072199 0.023010276 -0.09144253 0.07000314 -0.035027012 -0.05566764 0.03202512 0.09087059 0.06076221 -0.06168126 0.029484887 -0.06714722 0.12364356 0.10927467 -0.010029006 0.06382022 0.05386239 0.063295566 0.04573468 0.1757149 -0.08271828 0.06212009 -0.16474243 -0.05450983 -0.10340706 0.0600097 0.066926494 -0.07996715 -0.017408812 -0.023481451 -0.113371596 0.02592384 -0.033825055 0.03156881 0.10979128 -0.109704226 0.064752415 -0.1619633 -0.117444 0.044398632 -0.081660435 0.00058732106 0.021287544 0.13465765 0.056969266 0.032286 -0.08945846 -0.011185318 0.049014073 0.096784204 0.07569977 -0.0912608 -0.025319504 0.022313267 0.010133806 -0.0029256837 -0.004451254 -0.0234145 -0.053277917 -0.074595846 0.009892793 -0.0038924627 0.058363963 0.08598523 -0.11843604 0.047613915 -0.088837326 0.09669371 -0.072108254 -0.02470902 -0.020486312 -0.009558734 0.08133856 -0.013517685 0.028971558 -0.063489154 -0.066824146 -0.04508889 0.08508952 -0.091072656 -0.021093655 -0.19375263 0.08487641 0.01661501 0.045862705 0.070395134 0.044215757 0.01043596 -0.0055952994
BATF 0.13620493 0.43004543 -0.6723052 1.7487019 -1.0730267 -1.9359038 0.2078834 1.4437549 -0.57232785 -0.064706564 0.5359232 -0.88020706 -1.074497 1.0261148 1.059024 -0.7296673 -0.5901261 -1.4866132 -0.99330735 1.2312863 -0.9956393 -0.12694483 -1.3354069 1.2542171 -0.4388056 -0.054080844 -0.24868257 -2.1342297 -1.8809608 2.6972466 1.3868997 -1.5147815 -1.3991148 -0.47131905 1.0516105 0.256505 -0.28576055 2.490868 1.0011384 2.4331813 -1.3374768 -1.2623612 -1.6593211 1.4818168 -1.5411749 -0.16884308 -1.16484 -0.78873557 -0.1295406 -1.7488683 -0.3856059 -1.2501676 -2.0982625 1.3033253 0.88687456 -1.4369733 0.112208046 1.0973946 -2.131295 -1.9350033 -1.178434 1.371094 1.2535247 -1.927263 1.4068426 2.0872376 -1.7906796 0.3237119 -0.20062776 0.43277976 0.8312424 -0.9108015 -0.6055189 -1.6566896 -0.33669922 -1.09038 -0.7099092 -0.053863876 0.9622359 1.8567692 1.6494008 0.6320752 -0.9843857 0.35626718 1.4176012 -0.60029 -1.2909173 -1.729971 1.0099688 -0.7465187 -0.6033679 1.1876094 -1.4923781 -0.4509292 -0.1439732 -0.35581836 0.30861977 -1.5713527 0.08782687 -1.1148096
BCAT1 -0.09638547 0.119366154 0.097603254 -0.14550246 -0.024451839 0.058667913 -0.0008403106 0.059435293 0.01976606 -0.02062447 0.10423387 0.008670141 0.014621071 -0.00041096512 0.03386013 0.015596618 -0.006757562 -0.11834306 0.114748225 0.22988269 0.014500396 -0.027295731 0.055223394 0.083825245 0.05098299 0.040593673 0.008568948 0.024147846 -0.24302553 0.15567487 0.109421924 -0.11191422 -0.06360568 -0.019882334 -0.116512716 -0.07722646 -0.084476426 -0.016759757 -0.028651604 0.007084821 -0.035287283 -0.04518817 0.18388677 0.08939052 -0.07439352 0.07012969 -0.103188135 -0.01997479 -0.115353964 -0.09918271 -0.04087185 -0.043915223 0.18753976 -0.014517643 0.12833045 -0.10647193 -0.06675346 0.0460213 -0.07004461 -0.035541385 0.014185906 0.104480855 -0.093663 -0.118677035 0.20219202 -0.07613183 0.116581894 -0.13453743 0.10053923 -0.05619582 -0.11240205 -0.047493163 -0.25895366 -0.02732479 0.1273618 0.12493722 -0.042379856 0.042607557 0.074890964 -0.02197646 -0.120231174 0.0027588208 0.081554234 -0.1369098 -0.07581259 0.030813972 -0.07200858 -0.08394654 -0.052910965 -0.08053747 0.04871224 0.19742626 0.06745817 0.15221505 0.17273091 0.18204091 0.08429789 0.06753782 -0.14593326 0.027721733
BCL2A1 -0.54883426 0.08305282 -0.7422862 -0.088542394 0.39962286 -1.0474375 -0.3040014 0.73883957 -1.0636867 -0.46947655 -0.36803612 -0.6393741 -0.31047463 0.9721987 0.41419217 0.23756906 -0.34333533 -0.563127 0.09097917 0.24805976 -1.32933 -0.31771946 -0.33600467 0.2256394 1.9035476 0.081159025 1.0954877 -0.14026958 0.008269198 1.0058875 0.6459608 0.049949683 -0.2640386 -0.85560304 -0.14084367 -0.12357688 0.45533118 -0.3935384 -0.074995294 -0.19632468 0.011037782 -0.69548625 0.5837162 0.49310037 -0.047425997 0.62175673 -0.7877626 -0.42725956 -0.3271438 -0.4832814 1.2365592 -1.333597 -0.55691344 0.11167924 0.3912018 0.9388406 1.2266816 0.2756389 -1.2241929 -0.71513504 1.4055517 -0.081900485 -1.4598088 -0.3564039 0.023408959 0.5032377 0.7375705 0.42159933 -0.81050646 -0.81475496 -0.46481118 0.44308296 0.16198552 0.2993313 -0.08028495 -0.83976537 -0.36360702 -1.0070571 -0.048096817 0.3420469 0.08063871 -0.45347637 -0.2637251 -0.37761474 -0.34880772 0.9212581 -0.60093075 -0.011922287 -0.87375927 0.01792186 0.032176632 -0.13844934 -0.8961595 0.6515891 0.19831395 -1.2486849 0.6040219 -0.1574545 0.9115983 -0.47021008
BCL2L11 -0.5475774 -0.049265213 0.2057006 -0.35395685 -0.43757206 -0.39603797 -0.13095693 0.2850056 0.041428827 0.17344314 0.31164435 -0.00015573273 -0.743508 -0.026905714 -0.16119188 -0.5600295 0.08580337 -0.2490992 -0.0869204 0.7463327 0.08398263 0.57627624 -0.19070055 0.41576895 0.75017244 0.6742285 -0.032865252 -0.06478632 -0.06660977 -0.023563791 0.6266242 -0.059762113 -0.9250565 -0.16580805 0.38085666 0.0925987 0.33289653 -0.6755214 -0.4185976 0.28906488 -0.1047677 -0.45337138 0.07536531 0.55345386 -0.5529295 -0.19527882 0.5262885 0.08050638 -0.5691568 -0.49957743 -0.5832704 -0.8543233 0.6379831 0.03942408 -0.011103961 -0.8818948 0.016790517 0.095734194 0.28223214 -0.081337534 -0.17875127 0.17829911 -0.0050541777 -0.6515724 0.6620504 0.3668862 0.11845687 -0.23316745 -0.12103149 0.5656336 -0.5482921 -0.7379893 0.16656707 0.022786746 -0.013563145 0.97976196 0.111303635 -0.29659933 -0.15488294 0.5387946 -0.05216007 0.33214977 0.098095424 0.03501741 0.075426035 0.6648967 0.02707804 -1.1617968 -0.80261856 -0.1665345 -0.69674104 0.08228936 0.509482 0.868633 0.32839003 0.7511364 -0.31612808 0.72983426 -0.52143997 0.28090963
BCL3 -1.5802358 0.6746584 0.15893474 -0.3801812 0.82213706 -0.35491332 -0.31652156 1.1893548 -0.114775196 0.22843581 1.5478052 -0.7374049 -0.75469583 1.1350622 0.6588735 -0.37055412 0.1744484 -1.2419908 -0.7652658 1.1911643 0.38849732 -0.16808644 0.79994696 1.1449295 0.8394835 0.4982838 0.5903781 -0.18936734 -1.2744716 -0.032374986 1.2652286 -0.6274994 -1.1438681 0.56866485 -1.6145033 -0.3388469 -0.6415627 -0.66086936 0.75552505 -0.08720054 0.4037146 0.082860515 1.2553358 -0.40127775 -0.94793797 -0.29039627 -0.46513316 -0.37982717 -1.4391019 -0.36014256 0.65754795 0.023204701 0.29089656 0.8729325 0.15507121 -0.9643282 0.55530775 -0.020433744 -1.7977217 -0.52930033 0.6169892 -0.4856077 -0.5115612 -0.009681775 0.77491236 -0.22055835 0.46487048 -0.31344363 0.3740453 -0.7931462 -0.02663276 -0.7977118 -0.7039609 -0.8592027 0.50164837 0.47061667 -0.42398044 -0.4829453 0.04810067 -0.12734087 0.39907727 0.20717053 0.11090978 -0.032574683 0.08587773 1.0971143 -0.5727505 -0.8132671 -0.9677785 0.47302338 -0.18491873 1.207405 0.578543 1.3509141 2.323907 0.5815188 -0.38223022 0.95164144 -1.2557415 0.29512644
BHLHE40 -1.8630052 -1.6828432 -1.3880545 -0.34886983 -0.708271 -2.1172101 -0.50722027 0.6248569 -0.9803311 0.2106255 -0.5176753 -2.2969117 1.6707308 0.01860604 0.9513478 0.86242104 0.009065927 -0.8544391 -1.3811743 2.2817512 -0.96708304 1.4566835 -0.7092284 0.4466952 -0.326027 1.3134855 1.8215913 0.0038964178 -0.7232306 0.6504594 1.3938687 -0.30406007 -1.3776854 -0.15204571 -0.2248239 0.37944034 -0.8907577 -0.2336731 0.9341866 0.46112964 -0.97467285 -1.9414176 1.0450289 0.76161057 -1.697726 -1.0553762 -0.7346082 -2.4143794 0.089736335 -0.68583757 1.4928951 -0.5704545 0.027268898 0.6860947 0.65816575 0.561336 1.741482 0.3617746 -1.2094223 0.49553016 0.8869024 1.4378906 -1.201601 -0.05045961 0.45186248 -0.41169292 1.5793823 -1.109288 0.0107044205 -0.0019350754 -1.1658998 0.9946764 -0.98184115 0.25174642 -0.35226092 -0.2895132 0.36981973 -1.0886354 -0.37428465 0.97124916 -0.8967817 0.26358044 -0.79534876 -0.95326036 0.9671618 0.4597397 -1.3806669 -0.4473887 -1.7801653 2.2977927 -0.87526923 -0.45728248 -2.4154575 0.92664576 0.20602521 -0.50106734 1.2787384 -0.31087786 -0.9360812 1.0456512
BIK -0.10341912 0.11074732 -0.014678155 -0.10132308 -0.113793746 -0.05000611 -0.05036207 -0.106760755 0.050696384 -0.110498756 0.25134876 0.12623495 0.0033856619 0.011196323 -0.007853342 0.033164714 0.0872157 -0.068417974 0.19710764 0.17075822 -0.00017719259 0.07998348 -0.0039846855 0.13649291 0.18981959 0.11829516 -0.0011302372 0.117718 -0.12599625 0.022315774 0.15593374 -0.055124708 -0.112260446 -0.08147217 0.015525051 0.03214104 -0.035553176 -0.16182238 -0.087255985 0.19390486 -0.13027748 -0.14912759 0.094994366 0.13002282 -0.057214625 0.06479105 -0.001061101 0.09892048 -0.031310383 -0.21557741 -0.069752544 -0.15541524 0.21498369 0.095661916 0.11769189 -0.061562773 0.026178945 0.06062988 0.099670224 0.0021371138 -0.015411188 0.088837855 0.022502955 -0.1597946 0.20398104 -0.030659232 0.16225848 -0.054358277 0.017649533 0.1745129 -0.25012422 -0.106029004 -0.06286991 -0.06044629 -0.08387941 0.3571455 0.043729935 -0.032824658 0.006287055 -0.0022080343 -0.0511573 0.06805812 0.029877925 -0.08513857 -0.10428594 0.13028249 0.06797423 -0.21383144 -0.14788324 -0.09346345 0.07438752 0.049372327 0.09109828 0.14374536 0.074814424 0.08582131 -0.06771611 -0.088648565 -0.083703235 0.118004404
BIRC3 1.5799823 -0.6848068 -1.4412645 0.8507145 -0.044941198 -0.83543116 -1.5911168 -0.94052464 -1.7182776 -1.3159074 -1.5199379 -0.67489153 -1.1435308 0.77540576 0.5855953 1.1552656 -2.2342353 0.2759774 -2.3651257 -0.33615875 1.0808947 0.8457874 0.94597167 0.69564706 0.037128776 -0.8315787 1.6752523 -0.58381546 -1.4285508 0.55109596 1.3019167 -1.1660477 -2.25117 0.2168851 0.88629854 -0.72282624 -0.71062744 2.2459235 -0.16032903 2.556455 1.4346884 -2.5926285 -1.3274552 1.4065111 0.053810414 1.175537 -1.7281548 -1.6259004 -0.4919611 -0.6578498 1.1456766 -0.91575 -2.4024167 0.523687 1.2012156 -0.15988036 0.9671641 -0.45464468 -0.4701076 -1.7735178 -1.5979463 -0.45444924 -1.4162838 -2.9712458 2.2551222 1.0594648 0.8464102 0.6010405 1.047448 -0.15582739 -1.9085695 0.8298205 0.7785404 0.12214256 -0.16875124 -0.049309656 -1.7066983 -1.7046251 -1.0223494 2.218717 -2.031433 0.46455282 1.0672939 -1.9816898 0.04163306 1.1567297 -0.59726614 0.40694857 0.57673466 -1.0811852 -0.21473911 -0.14708303 -1.0167798 2.0887995 -0.5438864 -1.7172229 1.3679076 -0.35449085 -0.16431676 1.4286855
BIRC5 0.080760166 0.34236217 -0.05052177 0.3476301 0.39648795 0.17733145 -0.35358956 0.13450421 -0.076176666 -0.0070112008 -0.0821361 0.045777395 -0.24930298 -0.10607856 0.24707234 -0.025152788 0.15011255 -0.2288835 0.4460647 -0.21814391 0.06363412 -0.11832047 -0.097173095 0.015625244 0.10167808 -0.26435724 0.11191459 0.19409017 0.3114489 -0.052027766 -0.018227387 -0.0017121164 0.011107295 -0.19765545 -0.2726115 -0.28059733 0.16431372 -0.18152991 -0.058473725 0.18533786 -0.29545614 -0.28724712 0.14943328 0.13528726 -0.43248832 -0.19858721 -0.14351913 0.121412106 -0.13754225 -0.23993689 -0.012121732 -0.29962006 -0.28356266 -0.1907731 0.3275274 -0.23266937 -0.12018542 0.27348545 0.032275274 -0.34557942 0.2629141 -0.061907426 -0.28498214 -0.080296606 -0.016505644 0.24348736 0.08034389 0.16244239 0.25048685 -0.1243724 -0.3475883 -0.14879316 -0.13705252 0.22083195 0.35134056 -0.11402053 -0.4759195 -0.21005645 -0.042927187 -0.011671127 -0.20972721 0.09645183 -0.3632501 -0.0544821 -0.10955597 0.16289945 -0.16187586 -0.07711462 0.23121914 -0.04520018 -0.23790872 -0.118285075 -0.2133271 -0.19137003 0.2975038 -0.4014243 0.25256944 -0.04134686 0.046335414 -0.117096655
BLK -0.065482825 0.028198479 0.0678293 -0.20540315 -0.10414512 -0.05045614 -0.0057454184 -0.0011038376 -0.008893843 0.021315483 -0.023786334 0.051565 0.008352088 -0.08410477 -0.041900538 -0.0371197 0.08117938 -0.043491524 0.16865061 0.17567849 -0.025958316 -0.00028238312 -0.04328335 0.10458458 0.104408205 0.09896012 -0.04537434 0.01754054 -0.08854144 0.15199926 0.15669566 -0.099538505 -0.1282368 -0.08950452 0.10752792 0.00368737 0.034234475 -0.10163388 -0.1500263 0.13940875 -0.049306195 -0.06775298 -0.0018145548 0.12223181 -0.044363577 0.026277702 0.032915447 0.018119343 -0.015689878 -0.15918481 0.005464658 -0.056694902 0.07524053 -0.012808824 0.08824777 -0.12083696 -0.09869069 0.089125544 0.06477284 0.06410165 -0.042392734 0.08209309 -0.042557985 -0.20031996 0.135013 -0.06996602 0.02937076 -0.062853985 -0.007076238 0.11594816 -0.11821262 -0.10705573 0.0045505213 -0.024577 -0.06489722 0.20483969 0.021998042 0.054085854 -0.013340616 -0.01838302 -0.06212157 0.04815804 0.0056256494 0.035564665 -0.06556939 0.04708777 0.05834677 -0.13776398 -0.049180813 -0.07171857 -0.013056157 0.10182225 0.058038156 0.13787577 0.031824835 0.16490266 -0.06092925 0.097577654 -0.11294459 0.090147585
BRCA1 -0.07227358 -0.016351467 -0.025369873 -0.1020286 -0.10718375 -0.070875116 -0.016599959 0.02172607 0.010970753 -0.025420219 0.026898239 0.060016267 0.06996725 -0.0037958766 -0.05878824 0.00014039048 0.03895972 -0.035226554 0.0784762 0.018376872 -0.01061312 0.06137276 0.023286002 0.060159467 0.06356696 -0.010900797 -0.018018957 -0.0027153865 -0.036662415 0.06293864 0.114356324 -0.043596253 -0.091225386 -0.016576663 0.06863317 0.031791143 -0.0005239089 -0.10369046 -0.071158886 0.058584873 -0.013226318 0.013923168 -0.05117662 0.12721562 0.0021006989 0.101290695 -0.003611412 0.013375723 -0.006272808 0.02296017 -0.055244155 -0.041544173 0.13650687 -0.050744735 0.024287999 -0.060921665 -0.033094767 0.056406874 -0.021440195 0.09595424 -0.0051821577 0.07412349 0.013370935 -0.13529378 0.0877024 -0.0017915195 -0.03283708 0.0069023967 -0.05408378 -0.015390046 -0.06400488 -0.09838473 -0.02357453 0.011708871 0.02034652 0.06551079 -0.01308152 0.042839125 -0.0034093456 -0.043413267 -0.0786168 0.055571772 -0.01339825 -0.08769604 -0.027971307 -0.005212592 0.07931245 -0.036153216 0.008059766 -0.08306691 -0.029450996 0.0045713633 0.08485052 0.039975185 0.028796531 0.0931352 0.07816731 0.117589496 -0.010254194 -0.01919321
BRCA2 -0.11146237 0.13495931 0.16299678 -0.15013035 -0.25059018 -0.12357568 -0.0027470598 0.01332506 -0.01390103 -0.004473996 0.053002138 0.10356459 0.050404325 -0.154041 0.0013471821 -0.113726966 0.141445 -0.18337552 0.13576862 0.26106644 0.03890968 0.099652715 -0.11108216 0.032310147 0.09825327 0.11833252 -0.00804077 0.034233853 -0.2563796 0.07618856 0.18820082 -0.07794913 -0.12566765 -0.11698868 0.046759743 -0.104388595 0.042973176 -0.016087422 -0.08123281 0.14074795 -0.026227878 -0.016952675 0.08257091 0.10762451 -0.032024603 0.17174253 0.07883272 0.002180589 -0.102274 -0.16363402 -0.16566908 -0.12388655 0.2087899 -0.07955405 0.08807694 -0.18861923 -0.118708834 0.13997398 0.0707122 0.01756535 -0.053413067 0.20903966 -0.0912156 -0.32333907 0.24991746 -0.15629354 0.09616219 -0.026074007 -0.011640863 -0.037044495 -0.15540266 -0.15192574 -0.20978135 0.027952233 -0.03173109 0.24258325 0.01163689 0.037935436 0.23553523 -0.0076913494 -0.24229996 0.10186961 -0.013381264 -0.14480048 -0.1434062 0.022124648 0.0572425 -0.18286176 -0.15054129 -0.019610249 -0.1891921 0.043697592 0.16698407 0.2086656 0.055525273 0.3178064 -0.006881667 0.13884582 -0.058872115 0.023999026
BRE-AS1 -2.2178748 -0.065372355 -0.026190793 0.22367191 0.4855105 -1.1941167 -0.2303664 0.40195078 -0.4605054 -0.5452483 2.767291 -0.9252476 -0.05745144 1.1088989 0.38113227 0.8183874 0.22296275 -0.44409195 -1.3118889 -0.36960956 -0.46793407 1.70522 -0.91397375 -0.28991356 1.2623777 0.5638306 -0.15664423 -0.97596693 -0.43223995 -0.3696029 0.8302958 0.43569627 -0.19952632 -1.7904234 -1.2194227 0.23548386 0.00063462637 -0.89082474 0.698359 -0.20577376 -0.043981645 -0.47249985 0.22533476 -0.17708668 -1.6179906 -0.94967633 1.4415519 -0.41562942 -1.950008 -0.35932064 2.4489717 0.6600822 0.3885949 1.1581129 0.7086806 0.2404851 0.37859604 -0.36062738 -1.1352363 -0.34291598 0.113117404 1.0607691 -0.047343288 -1.3232168 -0.099450134 1.0489032 0.31320065 0.24121828 -0.27939793 -0.45921677 -0.63918084 0.12295797 0.6458402 -1.409032 -1.8807908 1.7216246 -0.34151185 -1.2702593 -0.7284855 -0.1182559 3.1537905 1.0625893 -0.23213711 -0.4890978 0.46650568 1.0784329 -0.75854695 -0.056175947 -0.75173527 1.861414 -0.46391973 1.1957147 -0.731579 0.90754074 1.3983121 -0.13240919 -0.53933704 -0.23463906 -1.2015033 0.94974303
BTG2 -0.69776565 0.80046165 -0.38253388 0.17948227 -1.970614 -0.35515466 0.53035676 0.38516328 -0.9972213 -2.4987717 -0.56166995 -3.0601556 -1.2786341 -1.0531739 1.7331115 -0.07470008 -1.9124908 -1.4583474 -1.7662923 0.5280502 -2.2219737 1.1028985 -2.2117734 1.2506247 1.0775595 -2.3581617 -2.3835907 0.16342288 -1.009495 0.47695646 0.89720136 0.002034735 0.94866794 -0.94975764 0.7963659 0.93874216 -0.69459444 0.8910229 2.9750237 1.1108856 -1.5227201 -1.938697 -0.81108207 -0.11803254 -1.972198 -1.078521 -1.9773829 1.2101421 -1.1297356 0.01658247 -0.88927543 0.7096879 -1.362726 -0.6041787 2.1488335 1.9888393 1.5593688 -0.7106705 -1.3743434 -3.3786068 -0.60957366 1.590491 -0.14550874 -0.45346546 0.0023304771 -0.24833763 1.7125568 1.2183229 -2.5587602 -0.89751625 0.81637305 1.4043524 1.3595834 -2.0604973 4.213332 -0.36490014 -0.84480923 -2.219974 3.4570315 0.29472756 1.7901837 0.15290335 -0.29283336 -0.22008504 3.0538054 2.5021632 -2.5604026 2.564195 0.94765747 -0.4198658 1.1320804 0.36768636 -0.8765406 -1.4391876 -1.6073017 -1.9943295 3.0119998 -1.2125554 -2.1552284 1.378211
C15ORF48 -0.0068454104 -0.009517844 -0.017780945 -0.02543554 -0.018602327 -0.012378097 0.0012738918 0.002244639 0.0005109871 -0.005001375 0.011324584 0.015830925 0.006850283 -0.01620943 -0.018505557 0.010901837 0.012172803 -0.0011775907 0.016653381 0.016169544 -0.0100244675 0.0012686776 0.025108762 0.029732158 0.028479515 0.012313639 -0.019070724 0.003730598 0.012463281 0.021266162 0.012889926 -0.030976502 -0.014776451 -0.011414014 0.010158662 0.010020709 -0.0031953293 -0.03819786 -0.03696 0.025715616 -0.01205216 -0.0019446793 -0.012772906 0.019842196 -0.011724731 -0.0058107823 0.009513237 0.023126284 0.0143746175 -0.022458017 -0.007202947 -0.0007452549 -0.005122468 -0.0048925537 0.013066002 -0.02951552 -0.009989124 0.012313967 -0.00088442623 0.01789038 0.015993284 0.02455142 0.002974263 -0.027554795 0.012526015 0.008304937 -0.0051014004 -0.011443229 -0.007370702 0.01721035 -0.035527363 -0.011796092 -0.0068436307 -0.005519629 -0.016948728 0.037807986 -0.015242632 0.020801838 -0.014340132 0.0028007606 0.0016116111 -0.005820643 0.007552327 -0.005390301 0.0022172763 0.0069003724 0.02879175 -0.006781746 0.013223268 -0.01469559 0.012843263 0.0141436625 0.014747948 0.015741343 0.014304232 0.02174563 0.006265943 0.016141618 -0.016672876 0.014840899
C19ORF10 -0.22917111 1.1149395 -0.017998502 0.70997936 0.9681764 -0.29702708 0.5706277 0.94926333 -0.93420726 0.88630253 0.3892559 -0.74118483 -0.8282263 1.2380458 0.796304 -0.470921 -0.64929986 -0.37791806 -1.0869828 1.1515049 -0.41932753 0.64092755 -2.2724936 -0.6467623 -0.54708344 0.63229173 0.8640902 0.78790796 -1.5652755 0.27666202 -0.20140798 -1.0867034 -1.4883599 -0.7998958 -0.5992012 2.1659415 -1.5930921 2.2003617 0.56744653 0.69734627 -1.135137 -0.9045039 -1.492315 2.016447 -0.44155842 0.831539 0.4020151 1.5569372 1.0687838 -0.5161032 0.619496 1.5169128 -1.4167994 1.042176 0.049720213 -0.191 -0.19282006 1.2882032 -2.0899804 -1.4028323 -0.16723675 0.3065769 -0.23444284 -0.13681774 0.69101024 -0.32676923 -1.6338847 0.63164383 -1.3539317 -0.75545466 -1.9118834 1.6518761 0.3844774 -0.24671544 0.33174932 0.9141116 -0.29222044 -0.04584343 -1.280701 1.6950179 0.908874 0.46126625 -1.3415369 0.24337995 -0.5777167 0.74761236 -0.16092968 -0.28062668 0.72359914 -0.40936902 -0.17212647 -0.27604902 -0.8401711 0.13244165 -1.193259 0.14624795 0.40422595 0.27314594 0.2939921 0.92202795
C1ORF112 -0.17714714 0.10205726 0.04257414 -0.110086344 -0.15867448 0.008029374 -0.05538626 0.027476652 -0.025553769 0.09679401 -0.02032647 0.04305702 0.062208164 -0.07984712 -0.039523043 -0.07977151 0.08310298 -0.120726556 0.11643831 0.12304142 0.032404028 0.03864426 0.037087474 0.119413435 0.08034046 0.06022816 -0.010672893 0.0005355717 -0.094611146 0.11434055 0.18248002 -0.14828582 -0.029103315 -0.05514329 0.14065173 -0.049972065 0.076561704 -0.0797003 -0.04246311 0.11262636 -0.07546378 -0.054333374 0.026118595 0.11821687 -0.022104679 0.1890245 -0.009631139 -0.02784047 -0.034069702 -0.093146905 -0.022180686 -0.030604288 0.14580646 -0.069136366 0.037952773 -0.12424015 -0.03842916 0.15011625 -0.04735495 -0.005543831 0.026735965 0.12862034 -0.06539211 -0.11129235 0.266689 -0.12157745 0.05506769 -0.051430963 -0.0578835 -0.0014614869 -0.11992502 -0.1590646 -0.15653838 0.06468706 0.08789806 0.056686398 -0.08237848 0.0063962014 0.067148544 -0.07460535 -0.18574625 0.039837636 -0.041013397 -0.07645344 -0.12730591 -0.009831738 0.16120014 -0.15049641 -0.11184821 -0.046684735 -0.06712802 0.013738652 0.103778936 0.13760519 0.061100278 0.16588657 0.033721104 0.10049082 -0.01969073 -0.0014808574
C1ORF162 -1.5222687 0.9885009 0.061501916 0.20153432 0.2055373 -1.5787433 -0.6710938 0.43137908 -0.061818633 -1.1553215 1.4170325 -0.2899735 -0.7241276 0.4636205 0.0123632 -0.030600838 -0.41159648 -0.30688265 -0.223077 0.50747824 -0.4294843 1.3595226 -1.0680574 0.72187597 2.4142656 1.189879 0.05850232 -0.13703516 0.19033352 -0.07357068 0.9532019 0.31031433 -0.48998728 -0.73094416 -0.9742992 -0.049354475 -0.83667177 -0.90919304 -0.093815945 1.1275799 -0.15903756 0.69010097 0.11798293 -0.13333282 -1.1821153 -0.869955 0.585066 0.026230542 -1.8063389 -0.9723991 1.3251588 -0.48072982 0.10684736 1.1268454 -0.26145518 -0.9763716 0.25026008 -0.6431128 -0.45865628 0.55307496 -0.113193475 -0.8443177 0.16815028 -1.1400508 -0.043495853 0.0105848685 0.3739821 0.27846435 -0.28928977 0.63575447 -0.62441033 -0.16006602 0.7905615 -1.0539385 -1.08624 1.6422329 0.08823473 -0.5441891 -0.5823259 -0.21918009 1.2209523 -0.061739143 0.31772643 0.4001179 0.28831932 0.8118766 -0.8584943 -1.2577933 -0.618247 -0.25360182 0.21816438 0.6429896 0.06750374 1.1217911 1.1921109 -0.21477322 -0.7055658 0.19631018 -0.6089904 1.2061077
C1ORF228 -0.48780876 0.026388414 0.11882427 -0.38373077 -0.84719646 -0.36814702 -0.010054902 0.38155094 0.20792007 -0.5669074 0.3303727 0.51600105 -0.30287677 -0.060731117 -0.6227283 -0.20272723 0.3478308 -0.21995048 0.10145561 0.9840066 -0.14152108 0.6991063 -0.17014782 0.4543134 1.222658 0.06453193 -0.095387325 0.24735716 -0.12637393 0.28604454 0.60473895 0.16912155 -0.9321927 -0.17596206 0.28972587 0.2928635 -0.22698006 -0.98599774 -0.8418558 0.19344342 -0.2836272 0.2983026 0.18819356 1.0710112 -0.7646842 -0.3366631 0.54941124 0.5408821 -0.6170177 -0.28645682 -0.6660884 -0.44045475 1.0851598 -0.14309978 0.1442965 -0.7341306 -0.24502137 0.32819217 0.18035696 0.40855983 -0.49860966 0.41013914 0.42279834 -1.0067555 0.67351395 0.52722704 0.07555281 -0.38410982 0.039985213 0.5311813 -0.63155097 -0.5637941 -0.016748585 0.03083641 -0.1493841 1.112864 -0.22041959 0.1957929 -0.4131075 0.25198367 -0.025552562 0.32971385 -0.02071349 -0.15547353 0.1270158 0.7366198 0.004826025 -1.0686252 -0.4234279 -0.30462456 -0.4871022 0.4081139 0.3696115 0.905364 0.18397684 0.6877852 -0.26014912 0.655463 -0.60944074 0.2832001
C1QC -0.13989878 -0.024902383 -4.3434557e-05 -0.010769476 0.012638137 -0.13511728 0.04728446 0.109830335 0.03040663 0.014871503 0.052438438 -0.007773453 -0.00609619 0.0884604 0.037172556 0.07824856 -0.10492017 -0.025197899 0.045436397 0.02153987 -0.04062088 0.09227117 -0.05071125 0.003104685 0.15844996 0.0015580178 -0.058365703 -0.041739427 -0.009646058 -0.032865122 0.19343528 0.064547606 -0.0072183325 -0.037227266 0.0083738975 -0.081883095 0.006512983 0.033855505 -0.032942723 -0.055016052 -0.03428418 0.11850598 0.022129629 0.04788623 -0.03613445 0.14007413 -0.008116195 -0.122605965 -0.059067544 -0.02599052 0.09068656 -0.07511954 -0.03368921 -0.010238207 -0.09122186 0.061661508 0.009149319 -0.10786424 -0.051298413 0.11330534 -0.043953855 0.06937364 -0.08609227 -0.07199035 0.075748466 0.11605276 0.040881902 0.032442745 0.026983414 -0.06052299 0.00079911045 -0.0037657777 0.1001574 -0.012069177 -0.037138455 0.031185566 -0.008574724 -0.038108014 -0.04728031 -0.04352111 0.01904122 0.042542588 0.011319653 0.048910346 0.031086763 0.051155 -0.11344977 -0.03821399 -0.014494667 -0.022357062 -0.05240204 0.04056837 -0.04730334 0.090008035 0.042460356 -0.04985917 -0.0018569783 0.07743815 0.05236329 0.15827274
C9ORF40 -0.041854743 -0.0112898825 -0.020591356 -0.061479323 -0.067869425 -0.040340226 -0.0062952414 0.016805673 0.0018435422 -0.020227326 0.019263629 0.033475082 0.040340997 -0.002800677 -0.039644323 0.004973846 0.023220364 -0.021309294 0.046213165 0.0151465135 -0.015636867 0.040754106 0.011962603 0.041668598 0.043636095 -0.0018052261 -0.015363827 -0.004739296 -0.017720753 0.032833982 0.06796691 -0.02289851 -0.059120435 -0.012905367 0.04339587 0.026162993 -0.0060004173 -0.073322184 -0.046925846 0.037293814 -0.0149061885 0.0009814824 -0.028462745 0.084642366 -0.008472422 0.046526045 0.007699295 0.013974269 -0.004978642 0.010221026 -0.03914599 -0.019622361 0.08084335 -0.028603053 0.018923458 -0.030745551 -0.019266197 0.032297418 -0.008846048 0.05972351 -0.006687126 0.044400755 0.017454118 -0.08062475 0.052708194 0.0070649637 -0.020921579 -0.0035540338 -0.032569904 -0.0034646387 -0.044863928 -0.06044414 -0.0033633295 0.004644462 0.013457638 0.05248602 -0.007627691 0.025698561 -0.009315146 -0.018741515 -0.041582108 0.029890392 -0.0070659784 -0.053235747 -0.01030207 -0.0016849842 0.049093507 -0.025953846 0.0012103467 -0.058092263 -0.0077130655 0.0049830875 0.047605626 0.024428235 0.013657062 0.052176327 0.045648135 0.06545539 -0.009317369 -0.010069324
CA10 -0.049979813 0.060479023 0.056545153 -0.079478435 -0.02865264 -0.026415693 0.0077619525 0.0023014636 -0.028173765 -0.046413887 -0.023930617 -0.01065214 -0.0003058278 -0.007862158 -0.026183452 -0.023651678 0.017404517 -0.00424599 0.056063533 0.077619396 -0.0453173 0.0016772496 -0.06346891 0.016358936 0.035946358 -0.0002098576 -0.0033905986 -0.007342075 -0.023793992 0.05475739 0.045257356 -0.0025884423 -0.052955378 -0.021676112 0.047853626 0.0022073232 -0.0007878746 -0.05546508 -0.06987191 0.02570903 -0.027426653 -0.024399495 0.0036464161 0.03577334 -0.0014307185 -0.04535441 0.02294334 0.019130038 -0.059930734 -0.026004467 0.0145541085 -0.0038342448 0.063894495 0.006677848 0.03294554 -0.01027995 -0.027879814 0.04490316 0.044859856 0.020361554 -0.056250624 -0.038482644 0.029723557 -0.056201417 0.011294148 0.02412294 -0.0053584124 -0.042446934 -0.008868674 0.048944566 -0.06443109 -0.014494664 0.05513496 -0.0038169972 0.017360551 0.052565638 0.040008515 0.007750131 -0.019029157 0.011205698 -0.0027869921 0.04590799 0.0018746656 -0.021658123 -0.027472401 0.020916851 -0.016948622 -0.04891917 -0.043537766 -0.06629268 0.023517948 0.054049324 0.010709247 0.06205336 0.019759806 0.0351944 -0.0023536207 0.022389466 -0.08710149 0.004922322
CACYBP -0.068531655 1.2408413 -2.28106 2.2344646 -1.019978 0.031502407 -1.4156505 1.4272505 -1.5561014 1.6332536 -0.8689331 -1.5221392 -0.1766495 2.6703644 1.7318189 -1.4730567 -0.7710459 -1.771252 -1.0849252 1.011622 -1.0538514 1.085575 -1.469166 1.0007968 0.42143378 1.215046 1.0655017 -2.1194592 -1.0310285 1.7459034 1.2096263 -0.9157561 -2.581701 -1.0848111 -2.051409 1.014681 -1.735839 0.9881574 -0.5592198 1.5310404 -0.8302864 0.34740126 0.24710327 1.676357 -0.5304657 -2.3061502 -1.7605941 -1.3906395 -2.6861188 -1.5365989 0.20105636 -1.5122886 -1.3227257 -0.060243934 1.3414259 1.3997581 0.70170844 1.1705048 -0.06279907 0.3976406 -2.1527605 1.5488449 -1.7569516 -2.6754572 0.22896345 3.2354858 1.0326495 0.86103517 -0.3867185 -1.2451947 -0.87469804 0.74613154 -0.3101299 -0.2479525 0.63245064 0.25302282 -1.6480922 -0.9654124 1.1864725 1.3231689 0.06441037 1.0070041 -0.37002322 -2.3296368 0.82364297 2.0589159 0.3801461 1.2677915 -0.5793532 2.1693108 -2.992942 0.7850115 -0.18564768 -1.0472902 -0.07240739 0.41009867 0.18216994 -1.7052917 0.7838433 0.17750244
CADM1 -0.10856815 0.02247804 0.00059655006 -0.053569533 -0.14050885 -0.089961104 0.0034930436 0.0888639 0.007581636 -0.159772 0.10823678 0.12543285 -0.031206477 -0.05196155 -0.07741754 -0.03172872 0.06256692 -0.101591386 0.056230184 0.14189719 -0.10114145 0.13223825 -0.15741481 0.017881457 0.056706153 0.09841172 -0.073777206 0.06918713 -0.14793083 0.013737999 0.15250285 -0.03691858 -0.16397528 -0.018274529 -0.012240708 -0.040344194 -0.0069578383 -0.14172488 -0.1615391 0.1420409 -0.06939315 0.09120508 0.01584723 0.1428227 -0.087689094 0.036442626 0.11211245 0.071515664 -0.14596994 -0.09059726 -0.19483879 -0.09135366 0.25754434 -0.045094002 0.08530293 -0.120180786 -0.12569217 0.02570274 0.08493065 -0.0061351117 -0.08349697 0.12993635 0.104883485 -0.27022085 0.22040065 -0.024508802 0.10105079 -0.10647568 -0.021953437 0.00017110058 -0.19946194 -0.05649299 -0.11163854 0.015200683 0.033095244 0.2830044 0.017274322 0.0033613765 0.067014165 -0.01819925 -0.046645597 0.09131577 0.001347942 -0.1474555 -0.12458752 0.07082675 -0.019660058 -0.19788662 -0.12857145 -0.09919488 -0.08073078 0.08987741 0.1648288 0.12138508 0.08220239 0.16738169 0.06483301 0.024293851 -0.0023628406 0.008128962
CALM2 0.68545294 -0.93055415 -1.7588302 -0.04411836 0.34892425 0.6436513 1.1635863 2.7223766 3.067868 -0.22705624 -0.38602215 -0.71506286 -2.658864 -2.3531225 1.5043654 -0.4704348 -3.077167 -0.7530787 -2.8330884 3.3602092 2.5736477 2.2393003 -0.43543348 0.10684091 2.2191858 -0.58825564 -0.025217552 -0.13782886 -2.6989202 0.005261699 0.33105093 -2.9602334 -2.75903 -1.0850328 3.650444 0.15938984 0.7856077 -0.2935863 1.013356 -0.032245886 -2.6581962 1.6926806 -2.1414788 2.4210155 1.2995746 -2.486034 -0.081134215 -0.8832148 -0.24304616 -0.6317781 -2.4179235 -0.9386851 -1.8037565 1.4934862 -0.31763867 3.694108 2.2011814 1.299305 -1.5336978 -0.8999431 -2.1697195 -1.2876627 1.1252761 -0.1837815 0.07768701 1.4386228 3.5185857 3.3079727 -0.36508164 0.12873487 -1.2842773 2.1015842 1.2494961 -0.3485617 0.038609006 -0.36079192 -0.0067821834 -2.9704087 1.080739 -0.8007264 2.1329846 3.0761533 -3.399882 -0.75038475 1.0296079 -1.5585055 -1.2060106 0.7073595 3.7982883 -0.6295845 -1.5212965 1.2444836 0.05383388 -2.3659744 -2.5789359 -1.6594691 1.1809989 0.02650697 -1.0718778 -0.09444414
CALM3 1.5936741 2.831581 -0.32968295 1.058245 -0.41682327 -0.37970418 -1.3558311 1.6346304 -1.8921678 1.5634224 -0.32549042 -1.784414 -1.5644842 0.94922894 0.689895 -1.168976 -0.8932588 -1.0581131 -0.7172789 0.5806575 -1.4867407 0.5267677 -1.8806324 2.2689831 0.34456906 0.4979206 1.8348398 -0.8151237 -1.4067912 0.12455625 1.1015856 -2.4113395 -1.9566834 -0.3135602 -0.8080492 1.6301985 -1.9307743 0.9885331 1.2071133 2.0579474 -2.3507109 0.014150741 -0.88323003 2.8688638 -1.5715852 -0.4049863 -2.6197748 -0.5442452 -0.42748675 -1.43691 0.83727884 -1.0839807 -1.336487 1.6622989 0.8029461 -0.23094673 1.7105162 1.2463752 -0.70509887 -0.7714361 -1.2936711 0.6497067 -1.0989217 -1.053167 1.9417497 2.0625625 0.69994277 -0.025391614 -0.53245735 -1.9921023 -1.3969486 0.16466418 -2.6375256 -1.6366856 -0.3568646 -0.3186845 -1.9618157 -2.4478624 1.5359453 1.1894124 0.117633194 0.7900491 -0.29739892 -1.5609442 1.2560585 1.2234619 0.44300017 1.263257 1.4559351 0.17376077 -1.1353892 0.6608148 -1.4491153 -1.0807394 -1.8480818 -0.30105183 1.1952116 -1.4846194 0.19315577 0.024650926
CAMK1 -0.3476835 0.14960533 0.38609728 -0.57417357 -0.49524045 -0.028111864 -0.09757936 0.15804482 0.03441809 -0.13598563 0.23201603 0.10637496 0.05656198 0.09984389 -0.15617605 -0.22587724 0.089964956 -0.13430163 0.21457013 0.62135595 -0.1564513 0.17221187 -0.022010118 0.32753685 0.4940069 -0.03604152 0.004300687 0.14798343 -0.44546184 0.15956742 0.36824262 -0.26328403 -0.43489692 -0.059585802 0.17219953 0.0019321336 0.00087489694 -0.34902403 -0.3607402 0.09583464 -0.10899051 -0.07801232 0.013616645 0.50171673 -0.21591872 0.19854909 -0.026037026 0.060500503 -0.24369861 -0.17449774 -0.19789925 -0.23816954 0.7388761 -0.19469549 0.24062361 -0.31419736 -0.3126112 0.15026043 0.027929612 0.103259094 -0.16495696 0.41631913 -0.096090995 -0.607267 0.70207757 -0.092601776 0.19888766 -0.14886533 0.14707057 0.074048996 -0.2491272 -0.52444154 -0.17487031 -0.0756411 0.13669321 0.33708295 -0.047736075 0.13303496 -0.0064742444 -0.2232248 -0.18368278 0.3134748 0.08920993 -0.2646168 -0.23841512 0.12996036 0.17780918 -0.47119883 -0.27581412 -0.30970627 -0.2259874 0.24409546 0.268656 0.59046274 0.284471 0.6056972 -0.0024714738 0.5648985 -0.31917906 0.20848899
CAPG -0.27628437 -0.5487692 -0.13453233 -0.20252344 0.20809431 1.0933946 -1.2957594 2.4578462 0.44200003 -0.36427823 -1.014476 -0.6109628 -1.1355605 2.7096832 0.38552248 0.007872727 -0.86530656 -0.8091517 0.78776073 -0.77163404 -1.3358537 1.7563525 0.023796111 1.0123532 1.7468266 -0.3639997 1.0018517 0.7153993 -0.4240337 -0.097563125 0.1512336 -0.8196473 -0.41761136 -1.6274929 -1.7997084 1.0326383 -0.95311046 -0.11079973 1.1718729 -1.1380509 -1.1944942 -0.57123625 1.1277063 -0.07797913 -2.2124214 0.89125335 -0.77926534 -0.36262536 0.7180764 -1.5685997 1.4605343 -0.62452424 -1.3785532 -0.25463712 0.63201547 -0.31940588 2.4111242 -0.079640396 -0.52336174 -0.31053692 0.36480233 0.8286803 -1.6285298 -0.8686281 -0.4257959 2.0972385 1.2579272 0.55558234 0.9354354 -0.6949187 -1.3215725 1.0960774 -0.0442163 -0.21143304 0.67685306 -0.13999332 -0.17100276 -0.40118515 0.89949274 1.2635508 0.3081776 0.7687627 -0.2481719 0.7033517 0.0567994 -0.5458624 0.008799011 -0.6829777 -0.09252285 0.8629889 0.07762453 0.59034884 -1.7399832 0.4951847 1.865137 -0.90255564 -0.46525922 -0.20011774 -0.37492028 0.8518358
CARD16 1.319054 1.8426893 -0.39429364 1.6918641 -1.256604 -1.6177124 -0.80695266 0.65356773 -1.194056 2.3815353 -1.567525 -1.8511009 -0.5057965 1.3251762 -0.012030378 -1.9012499 -0.2566176 -1.2589786 -1.1899192 0.23035184 -0.8918333 1.7977966 1.5434924 1.5349827 1.2081689 2.6003687 0.68404794 -0.32696128 -1.5434557 1.6245589 1.631684 -2.4882624 -1.7987813 -1.0060426 0.13934748 1.2296709 -1.9037899 1.327539 -0.32145447 3.0046818 -0.23448394 -0.27446526 -1.430912 0.7032388 -1.2510996 -2.4638076 -0.7516974 0.68137467 -0.04507978 -1.3462106 0.046595663 1.3002063 -1.1025375 1.3500878 -0.029461425 -0.74447316 2.051425 0.86062944 -1.2849914 -0.8954443 1.8463113 2.376368 -1.4281646 -1.2237741 0.1682899 2.6431072 1.1684093 0.30916613 -0.9324813 -1.2241796 -1.2546698 0.58945584 -0.5359467 -0.632396 0.752711 0.9197826 -0.22285342 0.24809614 -0.36146957 1.8216727 0.9369949 2.1046362 -0.38567844 -2.0301003 0.86822 0.17259122 0.2681019 -0.23179416 0.50220895 1.1396797 -0.73292166 0.8938461 -0.84607583 -0.49793255 0.2914769 -0.8660155 0.18264608 -2.3948143 0.25104144 -0.32147646
CARHSP1 -0.40340185 0.0886946 -0.17211156 1.6149323 1.1934214 -0.4670687 -0.82084596 0.56213397 -0.4874245 -0.18842542 -0.5797354 -0.4079346 -0.91360307 -0.27586928 0.599684 -0.7312223 -0.16346237 -0.35217997 0.6330546 0.2644593 -0.8868882 0.25683123 -0.67231154 -0.018011345 0.044574622 0.29364052 1.6241845 -0.6354947 1.1309481 0.8049927 0.1596088 -0.32994944 0.21644416 0.21448998 -1.5608264 -0.3870932 -0.052204218 0.041085742 -0.40719178 0.85529953 -1.7485297 -1.2421383 -0.16654487 0.9631248 -0.85471123 -0.97092927 0.023699047 -1.24822 -1.4184694 -0.6611527 0.086840786 -0.77576286 -0.23781534 0.9282229 1.2607826 0.61857873 0.20870566 1.0705135 -0.98461145 -0.6510381 0.67891884 -0.16846068 -1.7955616 -0.42641 1.3499918 0.5430959 1.0410955 1.1060313 0.068358384 -0.29210803 -1.1315774 0.2556705 -1.0949655 0.08517479 1.1307342 0.017954273 -1.1374701 -0.23655963 -0.29739815 1.1308554 -0.6657274 0.25263634 -0.19056259 -0.49773207 0.029532315 0.83271354 -0.8364699 0.24387318 -0.4909144 0.31847897 -1.3942354 0.036210433 -0.39997908 0.7360875 0.64645815 -0.3795529 0.7126687 0.01247905 -1.2446718 -0.052224275
CASC5 -0.086029395 0.23219681 0.024015207 0.34529087 0.1988724 0.09650635 -0.10359713 0.010416498 0.0018939311 -0.06689171 -0.26140893 0.09198455 0.08008189 -0.18447864 0.16853715 -0.08095362 0.07938476 -0.09998668 0.36295727 -0.15507618 0.006783093 -0.07373 -0.11660774 0.32124427 0.15010837 -0.15267621 0.12048486 0.22615536 0.14522716 0.18642087 0.18067284 -0.2802332 0.10371868 -0.22420026 -0.21256575 -0.14003071 -0.018673405 0.037540708 -0.19285989 0.09184895 -0.17176065 -0.2364969 0.16123913 0.105176315 -0.25645456 0.05941044 -0.17203239 0.06351754 -0.17851543 -0.18252677 0.009836661 -0.08636971 -0.15831396 -0.062148564 0.19154923 -0.19314758 -0.07860502 0.25450462 -0.07653629 -0.13039888 0.13777255 0.048469115 -0.11711223 -0.043685425 0.17795835 0.10584738 0.14557365 0.18352383 -0.008305363 -0.09646444 -0.26152828 -0.09776168 -0.06957691 0.008620939 0.3201286 -0.19581668 -0.034405805 -0.08519294 0.16512677 -0.047230724 -0.4029031 -0.15012027 -0.12366428 -0.11855704 -0.15724142 0.02420894 -0.07830787 -0.04844985 0.019431293 0.028014487 -0.02960936 -0.10641368 -0.15990281 0.14080398 0.28159913 -0.17547162 0.11732734 -0.018602697 -0.08397074 -0.13194896
CCDC34 -0.21961819 0.09879355 0.010065425 -0.15560813 -0.2603881 -0.10156355 -0.03540712 -0.009470175 -0.063629106 0.1402341 0.044611633 0.099122085 0.05981597 -0.12779185 -0.0059710518 -0.09474046 0.17143238 -0.23670745 0.1472269 0.25079083 0.11819831 0.076332435 0.0518397 0.18481916 0.06359543 0.0909099 -0.036421817 0.04161076 -0.33118346 0.14232597 0.26038176 -0.19834578 -0.19075856 -0.088734925 0.15178165 -0.12952594 0.070784144 -0.10119841 0.0058408864 0.15070914 -0.029229173 -0.02746542 0.15325357 0.16445497 0.030808866 0.28790295 -0.08901339 -0.008135984 -0.08871088 -0.13616364 -0.1303612 -0.10608785 0.33615595 -0.15705344 0.086325236 -0.17172174 -0.066877194 0.27192438 0.022784615 0.05029732 0.031007413 0.2589478 -0.06464718 -0.13753355 0.39912426 -0.17601661 0.116942436 -0.0912481 0.022529202 -0.04929304 -0.11898166 -0.24099846 -0.29252014 0.06427861 0.17494136 0.14213671 -0.015039505 0.020874506 0.091518246 -0.05661074 -0.36534056 0.08664723 0.01918546 -0.108514726 -0.16793521 0.11714538 0.09069844 -0.06739944 -0.10184234 0.013148823 -0.1640741 -0.01497801 0.21177332 0.19911425 0.117695674 0.28583327 -0.02560284 0.1895337 -0.088415526 -0.00080268434
