1000 100
A2M-AS1 0.025572043 0.12084133 -0.022321949 -0.030224683 0.032585528 -0.1022659 -0.05492962 0.11852345 -0.030952593 -0.0101935975 -0.060476102 0.010191526 -0.06326339 0.09540945 0.08365382 -0.030225866 -0.08534657 0.11400053 -0.009743798 -0.030688222 -0.014331704 -0.03437819 0.1724817 -0.13995832 0.018879628 0.016945535 -0.07255751 0.07464148 -0.08039631 -0.025860516 -0.066200726 -0.070988305 -0.00740489 -0.028629754 0.006921571 -0.015539312 0.09745754 -0.018130317 -0.07906909 -0.017642766 0.029632095 0.011332495 0.095367864 0.045743972 0.060454544 -0.046711054 0.015869753 -0.0028987622 -0.039683055 0.061803997 0.008463893 -0.040988892 -0.0069725574 0.02075368 0.04595754 0.0020545467 -0.061026238 -0.009424096 -0.09948305 0.049485482 -0.12824672 0.1545909 0.052544042 0.02171175 0.031757846 -0.012968996 -0.11382024 0.0546721 -0.06495938 0.01440061 0.05260773 -0.0028873915 -0.041103937 -0.10666297 -0.06104817 0.039993446 0.06803653 0.048274495 0.016056344 -0.056887228 -0.058978107 -0.2211637 -0.026610687 -0.025027838 -0.07071271 0.046488557 -0.011133283 -0.01213952 -0.050641224 0.055922654 0.002618626 -0.05675831 -0.011794462 -0.06746774 -0.017844986 -0.034638632 0.09770239 -0.040339246 -0.11835191 0.09828535
ABCB1 -0.0151012875 0.3945768 -0.29238528 -0.55217177 -0.2781123 -0.4165464 -0.064490445 0.117289506 0.14525312 -0.10442786 -0.32706687 -0.0912822 -0.38062602 0.37078542 0.21213095 -0.06480328 0.31414893 0.107503965 0.06939782 0.011419997 0.20621945 -0.011517932 0.4430033 -0.22911364 0.20413122 -0.08832949 -0.21840328 0.0048528723 -0.3092249 -0.7345155 0.20581613 -0.081833445 0.5208937 0.12282525 -0.15292722 0.25035474 0.7111802 0.6073663 -0.24901363 0.32544664 -0.3797775 -0.2710307 0.22168893 0.15230651 -0.07607659 -0.43442878 0.2616403 -0.28118825 0.11192798 0.78190637 0.19437063 -0.30640325 0.040279143 -0.23740412 0.5007696 -0.09169749 0.1649787 -0.056614224 -0.55675447 0.3410527 -0.2681667 0.17857768 -0.26945508 -0.32083336 -0.04405476 -0.39936027 -0.43618527 -0.4057069 -0.00873558 -0.33954155 -0.48813498 0.22525229 0.02749219 -0.20567015 0.16684014 -0.118775845 0.09300129 0.387415 0.104288355 -0.46305484 0.064971924 -0.20631956 -0.18235496 0.26319677 0.080023624 0.17949764 0.041169714 0.06707799 0.18013062 0.18437536 -0.061661113 -0.01247886 0.4968815 0.30070394 -0.5709235 -0.21200076 -0.31634125 -0.3217744 -0.3249121 -0.19264963
ACOT7 0.21676503 0.27662957 0.09717193 -0.17141792 0.1570317 -0.2125689 -0.028738318 0.31361026 -0.59316283 0.048316613 -0.26296487 0.53369415 -0.1586693 0.5709518 0.058230996 0.3195476 0.025026554 -0.6852359 -0.2885394 0.087387085 0.8371439 -0.04511781 0.58860326 0.25052026 -0.020139858 0.21075727 0.14089625 -0.12413517 -0.028265053 -0.5027616 0.04871938 -0.077131815 0.87463355 -0.062906876 0.08550986 -0.0030947328 0.4395409 0.12932374 -0.21597469 -0.44920087 -0.34833825 -0.067162044 -0.27231124 0.5426552 -1.1317811 0.049497604 0.039665747 0.4361886 -0.27971947 0.69119936 -0.28917363 -0.06663302 -0.47823718 0.06728487 0.27630064 0.33768582 0.18115096 0.33959356 0.3293959 0.09747191 -0.1313939 0.20056286 -0.2257032 -0.12475454 0.047589745 -0.35379633 -0.12525932 -0.47360912 -0.34501657 0.22061795 0.26775807 0.15890566 0.040647436 -0.24367946 0.1203487 -0.38262838 0.9686545 -0.163214 -0.2139521 -0.12806319 0.3626755 -0.29826346 0.0069401683 -0.15416765 -0.052946173 0.078434914 0.303066 0.08044345 -0.5161274 0.083847694 -0.400943 0.27962312 0.5497115 -0.34000894 -0.068192944 -0.29202348 0.12090734 -0.0056943563 -0.35319254 0.25242618
ACP5 -0.8227401 0.6033685 -0.1229856 -1.0121101 0.9342339 -1.3381695 1.0483887 -1.1022837 0.9474241 -1.4163828 -1.6887643 0.18949383 -0.8305181 0.6183275 1.1951848 0.017481012 -0.48232514 -0.93326133 0.013828492 1.2915215 1.4285734 0.38952667 0.16552958 1.2921699 1.0960047 0.66211534 -0.7069245 0.051995087 -0.4921538 -1.2804406 -0.0014209163 -0.34181136 1.2124825 -0.390163 0.08943438 1.7729982 0.5600461 0.404063 -0.17257507 0.95397013 -1.0683935 -0.2769058 -0.4078302 -0.17740104 0.13348863 -0.6587868 1.0913014 0.6108654 0.81526136 1.285909 -1.5359212 -0.60810435 -0.35905826 -0.96763253 1.2111876 0.9294745 1.226615 -0.22642961 -1.4353082 -0.15537713 -0.64062667 0.21283184 -0.23787649 -0.021119965 0.6781959 -1.6316018 0.6629498 0.20958763 -0.37619546 1.1471654 -0.39760044 1.7904648 0.03038666 0.45391372 0.9207593 -0.005411874 -0.32249987 -0.35166812 0.27903578 -1.8050733 0.44494927 -0.6750749 -0.041221246 -0.6808822 1.7053038 -0.6070966 -1.4520074 1.5172178 0.2944067 -0.76131856 -1.4637839 0.7523187 1.1866978 -0.6763165 -0.1247556 -0.669048 -0.6515238 0.24521069 0.89794105 0.22562797
ACSL1 0.12788755 0.26698947 -0.22086425 -0.23018698 -0.12595357 -0.17461848 -0.01872377 -0.13871938 0.08408895 -0.20629759 -0.10484163 0.26847562 -0.23163985 0.2559575 -0.12947777 -0.036520373 -0.06488021 -0.048992552 -0.093961634 0.066928655 0.13082288 0.15637055 0.04471676 0.022705877 -0.060184143 -0.14597656 0.030748442 -0.088939466 -0.2495742 -0.28429395 0.038200196 9.804347e-05 0.47840884 0.061236348 -0.04449553 -0.060023453 0.244194 0.19021644 -0.018632451 -0.06470107 -0.20740728 -0.2267212 0.03284797 -0.023768976 -0.025146838 -0.2371627 -0.025049565 0.06931296 0.02698663 0.10723075 0.07382332 -0.22683792 -0.12962621 -0.060362946 0.12801199 -0.031227503 -0.05032957 0.12506871 -0.04878729 0.47146192 0.004417909 0.015057603 -0.1954348 -0.19899534 0.15234959 -0.18622853 -0.24885662 -0.27860653 -0.12225596 0.056833833 -0.033529174 0.22767518 0.020675296 0.0056487294 0.18167621 -0.19264404 0.17335297 -0.03344661 -0.0036140908 -0.070871696 0.115086235 -0.08397274 0.004814835 -0.09180724 -0.07444275 -0.007845042 0.10905039 -0.08326734 0.1284668 0.24316922 0.03330644 0.21361542 0.19888818 -0.016401378 -0.04471694 -0.20507094 -0.1308066 -0.0054562176 -0.18068993 0.0023556415
ACTB -0.95324993 0.5703814 -0.30805218 -0.15097879 -0.7922333 -0.7733691 -0.62759 0.3445125 -0.30822933 -0.20020479 1.3816516 0.02695685 -0.12272209 0.9086734 -0.24555247 -0.8883507 -0.014357772 -0.4923978 0.3887732 0.6603664 -0.39467043 1.2305559 -0.584412 1.181351 1.2071407 0.6348585 0.27372357 0.06999542 -0.4233504 0.20457822 1.1447054 -0.23223776 -0.67560065 -0.4591259 -0.3216699 0.62142885 -0.44445363 -0.88675666 -0.70148504 1.2042943 -0.5998895 -0.49313402 -0.2295563 1.0206524 -0.91254205 0.37795925 0.09373174 -0.36751643 -0.5800228 -0.93799603 0.551226 -0.4997059 1.0332485 0.70115983 0.24436034 -0.97280324 0.13265345 0.42035636 -0.771866 0.6256047 -0.4974538 0.2408595 -0.4997388 -1.511471 0.78477323 0.6865167 0.65521544 0.095206656 -0.45800856 0.472112 -1.1280365 -0.55154186 -0.6024302 -0.3277269 -0.7771513 1.6780572 -0.25449467 0.115508206 0.18284756 0.25201917 -0.26187626 0.74873364 -0.4642129 -0.33652687 -0.30264246 0.6880145 0.5058146 -0.9427492 -0.9618313 0.55794996 -0.26878583 0.4656458 0.34049985 1.021368 0.7336015 -0.016684577 0.36147118 0.5827394 -0.43863973 0.50002164
ACTG1 -1.0227823 1.7832967 -1.3006536 0.23756778 -1.7913809 -1.0399014 -1.372584 0.51313394 -1.6638869 0.71185297 2.0501864 0.56988853 -0.97205985 2.1253796 0.70904684 -1.7785012 0.6698083 -0.7994252 0.31145158 1.7720276 -0.53516877 1.7093759 -0.40215316 1.1166208 0.19527946 2.256912 1.3666793 -1.5611987 -1.2647077 0.7623027 1.6221944 -1.314413 -0.8021507 -1.4048963 -1.3995334 0.1033752 -0.9186519 0.57983214 0.040695954 2.3835785 -1.8126655 -0.99229693 0.56376797 1.6691117 -0.8305741 2.3164601 0.009746055 -1.2884651 -1.1408775 -2.2180643 1.1280018 -1.1620815 -0.4893847 1.9702256 0.20289554 -1.6871103 1.2144958 0.7949362 -1.291125 0.28632563 0.12031408 1.3456558 -1.9195195 -2.1774411 1.7374384 0.9638503 1.9623133 -0.05188131 -0.13235722 -0.35044593 -1.2445533 -1.0092576 -2.2657185 -1.1611356 -1.5616534 3.425548 -1.0201478 -0.6675102 1.0571276 0.7679792 -0.63158125 0.62241995 -0.37029406 -1.2635727 -0.11741028 1.0123172 0.48368502 -1.6032453 -1.8027296 1.3900713 -1.5041132 1.3855262 -0.19826983 1.2564029 1.2966952 -0.13658562 0.6428774 -0.1314501 -0.75824493 1.5513395
ACTG2 0.12884074 -0.008038556 -0.00039568893 -0.0504951 -0.0014253281 -0.13746735 0.0386996 0.013852963 -0.019004581 -0.043645136 -0.14764157 0.092666514 -0.09155582 0.15099217 0.013015247 0.22161958 -0.13115513 -0.13174024 -0.07224577 0.024454076 0.005944913 0.0457248 -0.023424532 0.069820285 -0.060202498 0.10408938 -0.03186863 -0.09809969 -0.012356388 0.04974481 0.13687935 0.007550059 0.07029481 0.0018016981 -0.118734434 0.10000717 0.19645584 0.04958595 0.06831961 0.025010847 -0.017247826 -0.05943368 -0.040983446 0.0031989524 -0.039360393 -0.037713133 -0.08651698 0.0013664516 0.045887113 0.0017952053 -0.16263294 -0.1584403 0.059588272 0.06446064 0.24193978 -0.05233717 0.056000043 -0.029282326 -0.12723859 -0.0062104966 0.03161938 0.04664528 0.1406557 -0.17930545 0.014459183 0.025931923 -0.04706566 -0.0441649 0.091015026 0.0070207044 0.121722355 -0.10095209 -0.18987785 0.16871402 -0.070276104 -0.11513191 0.13436894 0.15572734 -0.03573766 -0.0764978 0.12262704 -0.117297746 -0.042975333 0.033803582 -0.080774784 -0.15269895 -0.010398176 -0.009726961 0.11783508 -0.063886985 0.039814558 0.076155774 0.095855184 0.093593314 0.046165895 -0.07622018 -0.16852659 -0.18115434 0.012727138 0.027677583
ADAM12 -0.0011807643 0.011804369 -0.008281119 0.013268925 0.018127851 -0.040544003 -0.020938696 0.019419808 -0.034823596 0.0072175306 -0.024647193 -0.012267586 -0.019527612 0.027613355 0.031215135 0.009449547 -0.007555566 -0.007701232 -0.03528186 0.015401906 -0.018308157 -0.0035666283 0.04460004 -0.034555785 0.011966853 0.0046680016 -0.022216864 0.05384988 -0.008221842 -0.027172748 -0.024054613 -0.026537959 0.00543407 -0.026685301 -0.00464099 -0.016242685 0.040616523 -0.034634877 -0.015685234 0.00020777853 -0.02025599 -0.008560082 0.012053808 -0.014435325 -0.025446558 0.013291389 0.015642826 0.008102952 -0.025648497 -0.0029313643 -0.0019667724 -0.0059669116 -0.010398731 -0.028711284 0.0029726392 0.0020802657 0.0036919054 -0.0169448 -0.0034252799 0.02161764 -0.032813814 -0.0050694984 0.0141862035 -0.013908342 -0.013619995 0.015622086 -0.034418974 0.0030289642 -0.044104356 -0.0028027436 0.02682905 -0.008301893 -0.042786412 0.014430562 -0.015000916 -0.0031243842 0.046694115 0.04291083 0.0030805762 0.026203677 -0.008892216 -0.029440127 -0.012770074 -0.0060670963 -0.044411164 -0.010605839 0.032787237 0.0033961097 -0.00010192243 -0.025045134 -0.018213125 -0.013726295 0.0050259973 -0.029926384 -0.014814903 -0.014710983 0.009840183 0.0047759446 -0.032768093 0.041080073
ADAM19 0.3353244 0.30693844 -0.41476774 -0.12905692 0.03803437 -0.59756655 0.020314591 -0.16187572 -0.039853584 -0.072896 -0.27980363 0.59883344 -0.06283153 0.61376214 -0.388677 -0.12497163 -0.13701722 -0.27051443 -0.36145192 0.033569384 0.4229629 0.21834646 0.31551966 -0.092885375 0.24827944 -0.19158193 -0.0127386935 -0.08111862 -0.26334292 -0.7664734 -0.039386567 -0.23372793 1.0714754 0.46429494 -0.18542446 0.03291383 1.1433692 0.25686896 0.19734506 0.14621815 -0.7451225 -0.5450688 0.027376452 0.40483743 -0.44979775 -0.16828029 -0.61346865 0.15570423 0.14621772 0.6975017 -0.070296004 -0.352391 -0.05658628 0.06909285 0.4022175 -0.22655874 -0.011314818 0.1256057 -0.16613524 0.88593435 -0.15350343 0.26893178 -0.4438209 -0.6596557 0.14796922 -0.7630561 -0.11482034 -0.7401235 -0.06336856 0.0351686 -0.3432711 0.4866906 0.2248716 0.0057645296 0.34654775 -0.116524495 0.4891301 0.2903354 -0.07587321 -0.3712538 0.41415215 -0.21765769 0.29691845 0.14784503 0.086269036 0.10653403 0.120804295 0.0063598515 -0.036368847 0.41537893 -0.23982027 0.6894482 0.62816685 -0.30163047 -0.15775014 -0.49754432 -0.15020815 -0.21819717 -0.279375 -0.08157143
ADAMTS6 -0.004648622 0.013736402 -0.0095494455 0.023082614 0.021797748 -0.06416881 -0.010785109 0.008184237 -0.029690832 0.007843117 -0.030462315 -0.0014209901 -0.015764123 0.025193425 0.026800599 0.016433865 -0.006392746 -0.010626072 -0.041860577 0.012125853 -0.032935742 -0.004033782 0.089535415 -0.0591845 0.001065934 -0.0012652926 -0.0018165286 0.05208624 -0.034873713 -0.019786088 -0.037671376 -0.05064922 0.0013639178 -0.046629656 0.009353163 0.010035744 0.055989202 -0.04202417 -0.011300357 0.015129399 -0.017566008 -0.0109483525 0.014778744 -0.016378216 -0.035864603 0.011733969 0.029874643 0.016427191 -0.039284132 -0.0064673405 0.0210569 -0.027327029 -0.03291038 -0.04246216 0.013907453 0.011797736 -0.020775292 -0.050948728 -0.009865893 0.023958744 -0.042829636 -0.008676262 0.0084634125 0.0069536064 -0.0016619362 0.02079753 -0.029499149 0.016873203 -0.07046133 -0.0022982464 0.03120001 -0.018746344 -0.061853483 0.01929363 -0.021673758 0.020384382 0.05787811 0.059382387 -0.004657368 0.025025887 -0.020153288 -0.030398961 -0.023409048 0.005903606 -0.060981408 0.00494747 0.027802587 0.009811203 -0.0010654413 -0.04407396 -0.03705261 -0.029486606 0.002202272 -0.050236624 -0.0179985 -0.0073592924 0.008184988 0.0056698048 -0.040791456 0.038319856
ADTRP 0.122308105 0.35663623 -0.08911157 -0.10352218 0.21725376 -0.11606203 0.12761322 0.087430395 -0.20307684 -0.061989978 -0.30657053 0.45272788 0.12449703 0.5185128 -0.12551536 0.06740835 0.1653582 -0.37268436 -0.022891961 0.21525972 0.3656969 0.11373521 0.051603895 0.21704873 0.43706107 0.024787735 0.008477429 0.052263316 -0.098037034 -0.4141328 -0.1046402 0.09899403 0.49498647 0.15075095 0.022026818 0.12449539 0.7941357 0.34428746 -0.075722866 0.19768952 -0.327151 -0.23974761 -0.13401105 0.1481832 -0.5963652 -0.077056974 -0.039583683 0.0011437886 -0.29644218 0.81864005 0.014793514 0.08308393 -0.024251454 -0.43930086 0.5220842 0.09567793 0.3923788 0.12279791 -0.21328342 0.24447821 0.049322683 0.17613499 0.06882404 -0.08522928 0.1813005 -0.3288363 -0.17723362 -0.533627 -0.04675127 -0.04556957 0.0425772 0.2825422 0.35458454 -0.2707565 0.39269543 0.10684758 0.3851157 0.12962592 0.021641625 -0.060396284 0.25283733 -0.19948792 0.120919175 -0.10251484 0.4617075 -0.06517476 0.008954632 0.25355685 0.022743795 0.07081316 0.058880992 0.23293121 0.49055076 -0.08563303 -0.2029623 -0.2733804 0.36086044 -0.0020446274 -0.47247216 -0.02574367
AFAP1L2 0.006606221 -0.018328838 0.040366594 0.12455724 0.3006854 -0.34987935 -0.066377275 0.22782616 -0.24619377 -0.016603762 -0.21183527 0.0028993925 -0.08038509 0.22485995 -0.020185057 0.06672098 0.013904297 -0.21039288 -0.20868021 0.08318799 0.042836104 -0.16968597 0.37958825 -0.34389892 0.002776293 0.03065975 0.078667864 0.33715275 -0.042209286 -0.0656985 -0.22497222 -0.2945269 0.08632228 -0.32830212 -0.06987981 -0.050719056 0.41514227 -0.29684263 -0.087538235 0.13745919 -0.08118961 -0.07266194 0.18128574 0.052280013 -0.26592454 0.13067336 0.06194009 0.12733972 -0.15854464 0.08815916 -0.02446311 -0.086202666 -0.16684812 -0.0668022 -0.114899494 0.17999615 -0.0215103 -0.077160716 -0.15670308 0.2439601 -0.3095647 0.068676956 0.099915974 -0.023336433 0.09836984 -0.09602749 -0.14767173 -0.21031234 -0.18794908 -0.018955942 0.33659133 -0.17477162 -0.17006117 -0.10700422 0.11753647 -0.01723183 0.36373684 0.20863463 0.066561095 0.17542502 0.083030164 0.018355584 -0.036548175 -0.04913327 -0.22347221 -0.058716547 0.27599856 0.024575997 -0.17190988 -0.18300477 -0.2149531 -0.10278863 0.07048588 -0.26105002 -0.22143422 -0.24096473 -0.010456186 -0.0067332736 -0.35167387 0.4442544
AHI1 -0.27485332 0.18786304 -0.68151706 -0.3129594 -0.45008644 0.055146907 0.004900387 0.007732913 0.23013815 -0.8120448 -0.42851016 0.2342185 -0.26429316 0.30952084 0.045545686 0.023370104 -0.12095859 -0.008841773 0.12750265 0.26223415 0.41456887 0.05963801 -0.2578237 -0.17710511 -0.23764046 0.50061 -0.35312238 -0.40576938 -0.31293055 -0.27853468 -0.09844302 0.6145548 0.5069543 -0.7706479 0.2127522 0.7679497 0.55025595 0.50494653 0.41470534 0.44042906 0.006612303 0.053966243 -0.20015313 0.14888932 -0.11205435 -0.6975156 -0.09501714 0.35199004 0.3772077 0.38639253 -0.27904165 -0.24056862 -0.3976675 0.1810813 0.738193 -0.0102212 0.1452906 -0.06769408 -0.39354587 0.29840398 0.21382068 -0.038249295 -0.35996374 0.19884835 0.2572051 -0.17355956 0.38606372 -0.53155303 0.045200013 -0.17638262 -0.61978495 0.24549037 -0.16208613 -0.056113604 0.34574527 -0.5510324 0.045493174 -0.25340146 0.3392422 -1.094547 0.2703454 -0.45287582 -0.5487112 0.057021257 0.26574415 -0.028226653 -0.40422925 0.43986058 0.20706443 -0.68993574 0.01764197 -0.17012693 0.74939626 0.26876217 0.28883156 -0.061648056 -0.48749238 0.10608332 -0.31318492 0.33220586
AHR 0.61153746 -0.058530126 -1.1358799 -0.4772483 -0.5121526 -1.2151573 0.13199452 0.40394324 0.67957246 -0.077702045 -0.25953707 -0.18481953 0.2137056 0.8905515 -0.36631802 0.14294384 0.22027972 -0.3656123 -0.2100355 0.03294323 0.30893648 0.77258295 -0.5304332 0.49930888 0.2101306 -0.5337324 -0.57856315 -0.86777395 -0.058245953 -0.5143508 0.29275236 -0.3024047 1.1489139 -0.16567829 1.5404191 0.2682456 0.99327344 0.3611636 0.677864 -0.83448964 0.10685942 -0.06558858 0.6767268 -0.33500522 -0.23841096 -0.89166176 -0.38587406 0.865076 0.6194931 -0.29590294 -1.0586679 -1.2691563 -0.21739098 1.4547544 0.28220618 -0.027579995 -0.81185347 0.28303295 -0.5500603 -0.10955508 -0.3151409 0.2951209 -0.20451699 -0.5401794 0.45584553 -0.9407104 -0.53208995 0.05056338 -0.024423279 0.13736191 0.3817034 -0.043888118 -0.33138546 -0.18846096 0.57764626 -0.7757726 -0.013056372 -0.441492 0.59016055 -0.326286 0.7120764 -0.24240898 -0.880483 -0.027872318 0.7514511 -0.62509143 -0.95333487 0.41414672 0.17896293 -1.6967103 -0.03465487 0.43253446 0.13709337 -0.4166246 0.88160884 -0.5515173 -0.055097356 -0.90416735 -1.5901935 0.83796203
AIF1 -0.0009883633 0.31638354 -0.46983153 -0.25368303 0.30952927 -0.02380195 0.37691098 0.06407897 0.15057787 -0.25645372 -0.25887692 0.03340377 -0.095152855 -0.16052538 0.062325705 -0.11628372 -0.09955291 -0.13431798 -0.3500642 0.08285702 -0.060030583 0.1792661 -0.17487594 0.08537202 0.52130294 0.25922483 -0.4123173 -0.2501018 -0.044944797 -0.21620385 0.19252077 0.2331346 0.34742132 0.39475116 0.30607542 0.185579 0.31423858 0.11332071 -0.06951897 -0.27084014 -0.23091894 -0.26788837 0.066219084 -0.38123554 0.03958372 -0.14787795 -0.060005203 0.26816955 0.5404716 -0.20499691 0.09118987 -0.43094805 0.16077416 -0.13798942 0.18833172 0.2716686 0.16730615 -0.16838843 0.015011027 0.368006 -0.33324942 0.106017224 -0.3620851 -0.17025551 0.09861258 -0.21035236 -0.09395191 0.13729523 -0.07810644 -0.13496035 -0.04455691 -0.090884335 0.027586887 0.17448255 0.29660174 -0.06411703 0.02589655 -0.2720068 0.2827138 -0.12247893 0.11566506 0.21229385 0.0058150003 0.09722521 -0.08036672 0.27801996 -0.09863068 0.098927446 0.16976108 -0.13287121 0.06701144 0.38707918 -0.043928944 -0.02182231 0.09476354 -0.43201765 0.15326719 0.027119055 -0.076378375 -0.15156098
ALG13 -0.276178 -0.9970072 0.35018182 -0.91477716 -0.76174337 -1.1012064 -0.5993552 -0.23646715 1.4678893 -0.47309604 -0.7110548 -0.34667775 -0.4350881 0.28951883 -1.1705018 0.12317512 -0.6047984 -1.4063119 -1.2817562 0.086781815 0.35111597 0.28084266 0.13819848 -1.5023465 1.045178 -1.1234853 -0.42845896 -0.29068497 0.34140754 1.3133694 0.39830738 -0.4648794 1.2035682 -0.23930222 1.2316229 0.77659667 0.47199857 1.0439804 -0.2975579 1.1963154 -1.9232723 -0.19996902 -0.41451418 -1.151105 -2.60634 -0.834132 -1.555396 -0.49536043 -0.59445834 -0.6710422 -2.0384426 0.39762655 0.5018434 0.13765666 0.948991 0.2724499 -0.058912516 0.36480013 -0.74396193 -0.32472822 -0.21414544 -0.84465003 -0.26599944 0.41207945 -0.95238405 -1.1562198 -1.1380658 -0.011699721 -0.5123225 -0.2943913 -1.2934073 -0.71597326 0.55103636 -0.21939915 0.2842753 -0.92005277 0.041689787 -1.6018088 1.3250763 -0.73440766 1.138414 -0.095628515 -0.2761023 1.4330378 -0.13043459 0.51993287 0.6689328 1.6568573 -0.1280554 0.2908673 0.45391536 1.8933705 2.3498924 -1.0792283 -0.69581276 -0.6903206 1.3625525 1.5299349 -0.30027652 0.6663618
ALOX5AP 0.73517686 -0.011401825 -0.5895554 -0.37242463 -0.62914705 0.7887493 1.258993 2.3522224 -0.5680137 0.7698303 -1.2244515 -0.5602251 -0.13483243 1.5984604 2.0640373 -1.4827901 -1.6037232 -1.5684124 -1.5333709 1.367525 0.716504 1.80174 -0.47352394 -0.24751711 1.0348119 -1.8561908 0.2378938 -2.1768847 -1.3787435 2.301198 0.6743257 -0.12540212 -1.2880135 1.1399286 0.23657446 -0.008911286 -1.3911781 0.5852829 0.004249092 0.17182474 -1.3470231 -1.0467438 -1.2596916 2.4232388 -2.3058937 -0.69639176 -0.7248541 -2.3208945 1.6644974 -0.075194776 -2.0281892 -2.0382268 -1.2708156 1.2950343 1.0037771 0.32701302 2.229688 1.1815395 -1.0634146 -0.94117755 -1.1383832 0.79256696 -2.6127362 0.12625854 0.6085723 2.3876667 -0.093416475 0.91908205 -0.75079507 0.7906492 -1.2811387 2.755232 -2.9289253 -1.50176 0.2865476 -0.55879366 -0.3036006 -1.0477008 -0.13448954 1.6405678 1.5575271 0.15958455 -2.9177487 -0.8061963 0.40772763 0.52062035 -2.1973314 1.3404562 -0.17001066 0.084834896 0.2500112 2.8698742 -1.0610545 -2.0960853 -0.6850203 -0.94046354 1.5900787 -1.3798943 -2.2732086 1.5540844
ANKRD28 -1.309088 0.5862328 -0.87180525 -1.6918081 0.71963334 0.28266287 1.8595467 -0.18558584 -0.18102762 -0.33758655 -0.97218955 0.10357776 -0.4797982 -0.332385 0.55885714 -0.54044837 -1.5081235 -0.9477563 -0.954494 -0.16549183 0.08044232 1.6846578 -0.42707846 0.71240985 0.85639393 0.73044664 -1.6623662 0.7558754 -1.2941477 -0.5641947 0.6197566 -0.04494012 1.3098605 0.11258041 0.5360094 1.651491 0.5577852 0.50669414 0.76101744 0.12809637 -0.34022132 -0.29549047 0.42504087 0.8429018 0.7041695 -0.5285455 0.5542319 0.965156 1.5763929 0.07819238 -1.8549416 -1.5243306 -0.8600615 -0.17560172 1.5535243 0.64402115 -1.3548192 0.39974153 -1.4315057 -0.23032373 -0.9136486 -0.12677927 -1.5485972 0.015858687 1.4704926 -1.2328464 -0.659196 -0.2167163 -0.052887265 0.030050341 0.7762615 0.9334267 1.208861 0.5362513 1.0083526 -0.25517344 -0.31278232 0.822737 0.5472707 -1.41618 1.6330961 -1.4066482 0.0035734498 0.23809773 1.1964915 -0.064404495 -0.40725228 1.1425123 -0.44183072 -0.8630684 -0.99374455 0.17119129 0.12278631 -0.5532726 0.09338467 -1.3927075 -0.54712725 -0.382275 -1.8333347 0.16060692
ANKRD37 0.10393946 0.14402027 -0.08130404 -0.14974967 0.5208402 -0.17902431 -0.15714258 0.13556443 -0.023640895 -0.5139047 -0.28944197 -0.1812079 -0.26294863 0.31218907 0.067177564 -0.24765359 0.004556306 -0.2743461 0.03232987 0.13032463 0.16061118 0.30540094 0.41465047 -0.31207013 0.3483545 -0.18562213 -0.079477094 0.11167299 -0.3201695 -0.3769289 -0.16797356 0.07905766 0.3672469 -0.10068576 -0.30604282 0.06102431 0.4897764 -0.026563587 -0.15406032 0.57450783 -0.3291112 -0.38623124 0.14644018 0.074961096 -0.26569593 -0.021999016 -0.25080037 0.08831362 0.06029628 0.64684916 -0.08746344 -0.051433578 -0.1516989 -0.12542376 0.15981175 -0.11582398 -0.06572415 0.08697879 -0.1481265 0.2917238 -0.20698136 0.68178654 -0.1635587 -0.0013299722 0.35642803 -0.5377522 -0.1527325 -0.47414142 -0.38732883 0.2093213 0.34094957 0.23320791 0.50078285 -0.36545947 0.42653796 0.09675929 0.5712706 -0.03198964 0.2472424 -0.2398988 0.05490697 -0.094627425 0.32601872 -0.07415333 0.299366 -0.15296091 0.017099276 0.15207331 -0.2786449 0.21169814 0.023510383 0.06448651 0.61769855 -0.4740302 -0.41226444 -0.28773484 0.57770294 -0.2047442 -0.3897775 0.15987284
ANKRD55 0.08994776 0.15994148 -0.09539929 -0.048705053 -0.07507534 -0.11778661 0.32097238 0.1541417 -0.20986252 -0.12874313 -0.17541455 0.38668472 -0.0022582456 0.1677241 0.0051977863 -0.03930274 -0.011188858 0.06885642 0.01972576 -0.0054127504 0.15875514 0.030326735 -0.06279063 0.124031655 0.07426918 0.31118727 0.024833515 0.013453564 -0.0073030735 -0.33265385 -0.10310002 -0.0067179147 0.18944001 0.1620557 0.25880903 0.18137918 0.2813104 0.17792441 0.1247543 -0.12441656 -0.045808632 -0.1502467 -0.06441931 -0.051621895 -0.22237153 -0.13807806 -0.19198522 0.06062429 0.04603473 0.31906113 0.025097178 0.049255684 -0.0068962155 0.031721704 0.31011352 -0.1287182 0.13852124 -0.067497246 -0.079577 0.1705516 -0.083358586 0.06337479 -0.13381363 -0.08135802 0.17489822 -0.0371549 0.041280072 -0.14559132 -0.003666569 -0.11691318 0.038688056 0.06624476 0.064535856 -0.05990482 0.103223145 0.005152332 0.23245311 0.04282324 0.101648815 -0.2054987 0.13963084 -0.31258327 -0.090831876 -0.06499406 0.10788062 0.32293195 -0.1321247 0.22436666 -0.10774541 -0.25357994 0.086887635 -0.012771539 0.15689152 -0.11882283 0.17986414 -0.25803387 0.0082858475 -0.07696162 -0.356935 -0.053733204
ANP32E -0.03250695 0.11065299 -1.8269281 -1.7591954 0.042045463 -0.6942252 0.55488986 -0.019718705 0.3297323 -1.1073365 -0.23429213 0.57021934 0.3629627 -0.15211788 -0.15671383 -0.8526995 -0.7368495 -0.23537281 -0.7815315 0.96851575 0.59986585 -0.55846477 -0.41424903 0.42663747 0.22488551 0.3886628 -1.0342145 -0.95550793 -1.2853248 -1.9809654 0.9035001 0.20749573 0.28333253 -0.7806118 0.9260348 0.80234665 1.5064874 0.9260407 0.43189064 0.2787586 -0.053347223 -0.99062836 0.70477045 0.011264135 -1.3515946 -1.0973798 0.1928551 0.7084376 -0.023296943 1.2935234 -1.6086842 -1.3492187 0.10035593 -0.027141035 0.8655491 -0.0065585608 0.6945128 0.20571572 -0.37353414 -0.9538567 -0.8567231 0.87867016 -0.49236518 1.1401407 0.884792 -0.026942829 -0.056593288 2.1577394 0.68341637 -0.33008718 -1.8722568 1.477174 0.38085482 -1.0548428 0.65177745 -0.7909493 0.049754154 0.19020225 0.20611572 -2.3406553 0.7127613 -1.168246 -1.160512 1.6432033 0.5853171 -1.5833858 -0.21289873 0.4954703 0.72936356 -0.60425055 -1.0451897 1.7012382 0.8136443 -1.1776172 0.42088237 -0.94967794 -0.030870166 0.3254511 -0.37265277 -0.063125655
ANXA1 0.87154144 0.0585779 0.120978154 -0.60398155 -1.2913742 -1.1669806 0.30514508 2.0741518 0.95511115 -0.3436202 -0.29555005 -0.084798254 -3.3398035 1.4316434 -0.16350235 1.1357156 -3.2906916 -1.2802022 -0.33046594 0.7689858 0.091249034 2.9190607 -2.16092 0.5685088 0.9793332 0.5036195 -0.022178398 0.17775783 -1.8360057 1.2776145 1.7991362 -2.5182765 -2.6600919 -0.01650765 1.0412016 1.6779971 0.69556147 -1.4724178 1.9649245 -0.020344127 -1.8232617 -0.784349 -3.1726859 1.548049 1.0949888 0.7881604 -0.12650026 -3.239786 2.2659013 0.913716 1.0108956 0.90854704 -0.71812046 2.9976392 1.1637528 3.4910908 1.4655473 1.9531394 -2.0399566 0.5667029 -0.55641353 1.0774512 -2.508248 -0.51425964 -0.39590672 0.66046596 2.427639 2.8126872 0.031065075 0.28172147 -1.1263878 1.7816987 -1.3573219 -0.569751 0.09264731 1.0674458 1.8581506 -2.189819 0.119505055 0.6347449 0.8026551 0.7980223 -1.9264716 -1.6272075 0.97930294 0.0297753 -0.2867001 3.1993868 1.9921441 3.2661753 -2.1457164 0.8414801 -0.5034093 -0.43415102 -1.0649902 -1.0875156 2.0708559 -0.77687246 -1.7616094 0.031047978
ANXA2 1.8315729 3.0104735 -0.85640085 -1.5253716 0.63095945 -1.5495687 1.1800374 2.255756 -1.0491561 0.80933934 -2.0553267 -0.19394192 -0.048391547 0.791341 0.8863184 -0.54274285 -0.85437906 -0.9615982 0.38775182 -0.43762746 0.53253925 0.5886019 -1.954961 2.0732982 2.19278 -0.4831228 -0.5517609 -1.4951918 -2.221375 0.33917093 0.9965324 -0.7554125 0.50603104 0.50175655 0.3072272 0.7079825 0.320514 -0.09465357 3.4524062 0.7437718 -1.9621716 -1.9251877 -2.1643164 0.75261533 -1.5891695 -1.2447275 -0.47043663 3.0790882 1.3292812 -0.6894115 -1.8626482 -1.2204622 -2.263301 1.3538587 0.2717152 1.3823308 -0.39797142 1.3234438 -1.3686452 -0.31858966 0.8141396 0.99916065 1.8285334 -1.9509562 -0.13383153 0.93288094 -1.1514091 1.4371394 -0.08148935 -1.9844579 -1.273339 0.42068887 -1.8761641 0.111373134 1.3089083 -0.122441 -1.5485985 -0.84214693 0.73896414 -1.4182518 1.4401336 1.7913071 -1.6309022 1.327085 -0.3220721 0.4940564 -1.3454548 0.33520323 0.6499968 -1.7563848 -0.53293514 -0.50656253 1.1012933 -1.7241619 -2.9857686 -0.6811548 0.9204186 0.53047466 0.32268214 0.79357225
ANXA2P2 -0.38401866 0.52010936 -0.89336514 -0.5209935 -0.68055135 0.34704578 0.45072025 0.90405893 -0.71966726 -0.9018104 -0.6994426 0.80974406 -0.48202333 0.050806172 0.5866027 -0.4083721 0.14584541 -0.18120301 -0.020393608 0.26101622 1.1347735 0.3624751 0.8309493 -0.13306081 0.115088716 0.7832098 -0.35279924 -0.5762493 -0.20380847 -1.2950191 -0.009696839 0.30991608 0.8114589 -0.6492493 1.0567478 0.5482073 -0.057916872 0.5970801 0.12170297 -0.040497247 0.13684778 -0.10780361 -0.27024567 0.46198502 -0.9075791 -0.642876 0.19445704 0.59697247 0.53585017 1.4577225 -0.6029639 -0.614081 -0.70505756 0.6630352 0.7649361 0.3344172 0.14607829 -0.020444836 -0.1525815 0.08869273 -0.18729483 0.12695289 -1.2067038 -0.6942562 0.30738553 -0.41329688 0.45181108 -0.26960063 -0.16758975 -0.3023054 -0.42941725 0.29105258 0.2840662 -0.09237916 0.32365736 -0.9215044 1.0525981 0.23553 0.3521335 -1.4324144 0.4972755 -0.7959622 -0.7235196 0.75644577 -0.14083329 -0.22357783 -0.6191608 0.23409139 -0.51359415 -0.24241218 -0.6444006 0.041890685 0.70596594 0.05272554 0.14554425 -0.3125316 -0.17441775 -0.41204476 -0.6806486 0.09475972
ANXA5 2.6293697 2.5462317 -2.0866773 0.020094855 -1.37025 -1.7802625 -0.7497673 0.69589525 -0.18414572 1.0064381 -0.6531972 -0.11153979 -2.3531413 -0.6172815 1.502418 -1.6090844 -0.84236354 -0.9846131 -0.9519 0.8456756 0.062321946 0.554409 -1.3232454 0.45684847 0.64164317 -1.0717895 -0.7938091 -1.2663465 -0.74046886 -0.3623462 1.1445593 -0.54152405 -0.8428332 0.52324045 0.05611484 0.52346325 0.21580657 0.5154066 1.7026128 1.3704267 0.5451338 -0.93911135 -0.69672436 1.5547637 -0.19482206 -0.37630662 -1.479461 1.5537452 1.6119995 -1.2498213 -0.16921082 -0.3299191 -0.687159 -0.13249287 0.7557146 1.3608445 0.7117341 0.3085269 -0.90721077 -1.2087485 -1.645767 0.91797966 -0.92433584 -0.5228892 -0.9576948 -0.021340638 -1.1966041 0.6355481 1.1782101 -0.38694313 -0.9472231 0.03854082 -0.6816706 -0.5674503 1.5911089 0.21151385 -1.4059329 -0.7191554 0.21056227 -1.2665536 1.4986221 0.21494356 -1.2523925 0.9434066 0.93077433 -0.101552434 -2.3015504 0.47774136 0.64450926 -2.3467069 -0.9210851 0.62095326 0.74729437 -0.6965919 -2.459363 -0.69586307 0.72911566 -0.8296637 -0.8408036 0.32835358
AOAH -1.0993527 1.295435 0.21556452 -2.3832438 0.80699915 -1.811618 -0.34913203 -0.038579755 1.2090596 -1.8133979 -1.5678546 0.126695 -2.1037111 2.0594194 0.5381451 -0.7342733 0.00652626 -0.3467426 0.3289344 -0.7208206 1.506367 1.5531545 0.58020717 -1.1544412 -0.10337227 -0.33401176 -0.91554165 -0.009646577 -0.44572562 -0.9679961 0.9620951 0.20820591 0.9554548 -1.575411 -0.049135696 0.54541945 0.31257114 0.044074677 -0.6846461 0.67876714 -0.45983368 -0.44701698 -0.3434495 0.36221617 -0.16624142 -1.8867998 1.0687137 -0.2483133 1.0550331 1.0457828 -0.073350795 -1.1264718 -0.6659487 -0.85216796 1.5251977 -0.08955343 0.10148134 -0.15760092 -0.76044196 0.7238171 0.43479648 0.6752272 -0.9365347 0.5826285 1.7246218 -0.06608418 -2.0787253 -2.0154562 -0.99317473 -0.27536884 -0.07357591 1.3244318 -0.2664152 -1.8925272 0.64621663 -1.8273541 0.51295924 -0.5360751 0.88340765 -0.57097137 -1.1980379 -2.4326231 -0.38498107 0.6086355 0.20786564 0.27050853 -0.46687692 0.5398105 0.1200407 0.9432051 0.4884852 0.563796 3.017525 -0.21026736 -1.0417628 -0.39307776 -0.5927169 -1.3409681 0.31030387 0.8203972
APLP2 0.16723022 0.8081636 -0.49306184 -0.8620276 -0.056931313 -0.40821832 -0.14144751 -0.13930112 -0.08776128 -0.60916394 -0.48836377 0.57200384 -0.46944365 0.48362714 0.025466258 0.2037382 -0.37042263 -0.9504132 -0.094320424 0.26130927 1.0752692 0.4752882 0.5379932 0.04797699 -0.35505277 0.40458986 0.41153854 -0.55963385 -0.4455086 -0.9805271 0.07506468 0.32723266 1.4158226 -0.801521 0.0824125 -0.14396513 -0.02870645 0.3819275 -0.64400303 -0.302882 -0.26128352 0.015459737 -0.50876147 0.2198473 -0.84738135 -0.57497895 0.5198567 0.78240937 0.33331826 0.691641 -0.19528756 -0.6657803 -0.7423842 0.3888587 0.5856593 0.4562239 0.078943916 0.7983967 0.32164893 0.5885808 -0.19875844 0.35100222 -0.5238022 0.10703574 0.84132177 -0.36376697 -0.41067067 -0.44550538 -0.24366358 0.12811364 0.14766476 0.40159103 0.08032662 -0.15985535 0.5093468 -1.1905507 1.1268356 -0.58685637 -0.3919127 -0.35767958 0.24579608 -0.6392508 -0.094163865 -0.28977233 0.056085113 -0.04777691 0.019447718 -0.10640796 0.12057745 0.11360048 -0.2995952 0.18791935 1.1330044 -0.05161807 0.4909295 -0.06000272 -0.42821452 -0.23362528 -0.18396178 0.1614195
APOBEC3B 0.033263918 0.0002991033 -0.035381384 0.0073352885 -0.074494496 -0.04830454 0.03635022 0.10773043 -0.09822769 0.0149515495 -0.0453191 0.05715563 0.02726407 -0.00176689 0.007516546 0.0075671584 -0.01866933 0.04641128 0.010566988 0.05062573 0.11719896 -0.053529 0.027480438 -0.03182771 0.01518548 0.16482836 0.09678407 -0.021467272 -0.048597258 -0.15941755 -0.010694832 0.015030876 0.070742674 -0.065217026 0.1043402 0.029398534 0.06595749 0.050418746 0.022637261 -0.09745576 -0.018746594 0.017572802 0.039635986 0.010778086 -0.11398681 0.009813101 -0.022970734 0.09195742 -0.026344806 0.053672507 -0.033934508 0.008404243 -0.075006455 0.05876795 0.12473205 -0.038867127 0.04232354 0.022509314 -0.001482887 0.09999683 -0.080466226 -0.009693395 0.009275481 -0.020955244 0.056951042 0.06978214 0.047195405 0.041190162 0.032027144 0.03121693 -0.011028349 0.026582783 -0.048599903 0.032554723 0.0155574 -0.017644025 0.1093902 0.023409309 -0.0575115 -0.13668317 0.074529886 -0.102314614 -0.08357285 0.0050378153 -0.0034539835 0.015792882 -0.02533862 0.060457792 -0.0294598 -0.13688488 -0.059208214 -0.009780767 -0.040620275 -0.062896624 0.054771714 -0.09252004 0.0075137373 0.00080031337 -0.09968732 -0.057937916
APOBEC3C 0.015047965 1.1147656 -0.087716535 -0.19875161 0.8541345 -0.97348034 -0.3223266 1.2465895 -0.11560167 -0.4773676 -1.0971004 0.74236405 -0.8431932 0.62534386 -0.03784586 1.0079442 -0.355389 -0.6945791 0.07611923 0.95056665 2.3286254 -0.27998763 1.487146 0.04551309 -0.19716552 0.86309344 1.3287807 -0.68457735 -0.68710196 -1.6333348 -0.08719911 -0.17181604 1.9350264 -0.45799538 0.59326345 0.15119578 1.8459674 0.10289421 -1.059224 -0.026623432 -0.38831693 -0.09936047 -0.092910536 1.6417645 -1.7901795 0.065104336 0.4745546 1.3637066 -0.22405873 1.7054801 -0.18416682 -0.30931878 -1.405254 0.66312003 0.26578462 0.7583667 0.5646163 0.43570954 -0.12533395 1.0257878 -0.81514364 1.3415945 0.32280973 -1.036457 -0.19932234 -1.0680475 0.9162389 -0.76387584 0.2318866 0.8168572 0.0071224784 0.97125435 0.22724302 -0.54570156 0.42293236 -1.0551032 2.0666344 -0.5371388 -0.3137355 -0.55176526 0.8228027 -0.7681382 -0.7752236 -0.9454634 0.5491898 -0.09412555 0.08341532 0.042683437 -0.5123704 -0.03406809 -0.8083639 0.17193875 1.3084381 -0.733134 -0.34367654 -0.34540206 0.0607349 -0.0072563915 -0.47072524 -0.008649758
APOBEC3G 1.1384399 3.360356 -2.6936126 -1.666428 -0.85178375 -2.426657 2.9153183 0.85032916 0.12859367 -0.5463852 1.0475825 -0.048430793 -1.4195377 -0.38716197 2.5703502 -0.8440507 -0.41326883 1.7943532 -0.22020306 -1.1998042 0.48624274 -0.1025124 -0.8157365 0.19706367 0.35771656 -1.7562842 0.07266643 0.39169538 -1.5027567 -0.9285178 1.4667116 0.0016675695 0.8818203 -1.7541785 2.3954391 2.0858378 -0.38736746 0.6874974 2.856877 -0.17299885 -0.5538586 -2.131969 -1.6236414 0.98859817 -1.0628033 -1.1084613 -0.04714537 0.20166743 1.5207881 -0.88614595 -1.2261736 -2.1768072 -0.002672931 2.2239418 0.22396336 0.5415457 -0.15839078 1.2691785 -1.618829 -0.42267027 -1.8573326 0.7081277 2.413537 -1.4538705 0.48555002 -2.1809897 -0.06539215 0.8250754 -1.7606325 -0.07949663 -1.4193075 1.1542213 -1.3815506 0.33944857 2.4386723 -1.1483188 -0.81981355 0.256209 0.25816783 -1.6616035 0.52673614 -0.05879729 -0.81724745 2.952006 1.965033 -0.6854508 -2.3563237 1.3783479 -0.0838496 -1.3973336 0.012441685 0.0118062105 0.9830018 -2.062498 -0.528985 0.74105704 0.16453134 0.84328693 -1.55479 0.5777926
APOBEC3H -0.046685785 0.7099502 -0.1650797 -0.5073557 -0.030257775 -0.57021534 -0.078503 1.3790139 -0.57106614 -0.61172473 -0.72340226 0.65507525 -1.0225328 0.74246013 0.35352674 0.01593919 0.30733785 -0.7715202 0.2206311 0.541511 1.0073723 -0.16670479 1.2327471 -0.021978797 -0.08364297 0.6529979 0.43720886 -0.28164968 -0.086018175 -1.2745233 -0.14239053 0.022917494 1.5167053 -0.6219113 0.05863444 0.087133236 0.27789885 0.5024773 -0.9455784 0.22058327 -0.020881988 -0.13886431 -0.3396808 0.666508 -1.0055519 -0.20994133 0.18737006 0.3990713 0.26858592 1.4912393 0.29379627 0.17668675 -0.7227559 0.2448442 0.55348355 -0.21819921 0.11399375 0.77774 0.20817602 0.65122783 -0.63082606 0.80627686 -0.2371568 -0.42649978 0.32046562 -0.69771844 0.02391507 -0.72094023 0.33260548 0.35950646 0.10209043 0.11203311 0.42469573 -0.3000352 -0.0032164622 -1.041774 1.7329043 -0.1636474 0.020892443 -0.50335896 0.40547904 -0.690505 -0.3216327 -0.16096884 0.20118923 0.053101793 -0.41891035 0.5176604 -0.47674283 -0.20499885 -0.37287632 0.1088976 0.97632 -0.17728314 -0.11442413 -0.15037218 0.24029051 -0.5656316 -0.3119359 -0.09226747
AQP3 -0.2695466 -1.1938008 -1.3470881 -1.2727616 0.017579682 -0.03171862 1.6502649 0.631328 0.66993093 -0.38149554 0.10374027 0.29816452 -0.20142955 -0.8228386 0.004189219 -1.3119401 -0.37218016 -1.0692289 -1.0578449 0.9938564 0.114204876 0.25199282 -0.69317335 0.9301554 1.2371578 -1.0883374 -1.9971275 -0.87894017 -0.67923075 -2.0874474 0.16278203 -0.7394085 0.38802144 0.7831959 1.7195266 0.32467982 0.6315292 1.9293181 1.2420617 -0.39435577 -1.9091004 -0.6727988 0.35840774 -0.12377877 -1.8417838 -0.78683674 -0.31986544 0.5925038 -0.12998728 -0.81318355 -0.7589883 -0.75265616 -1.2747588 0.22495683 0.27305362 -0.11425587 0.39543116 -0.0043549803 -1.0754567 -0.16747524 -0.07103538 0.67973864 -0.21435332 -0.26943284 0.72476643 -1.571984 -1.3709302 1.7287308 -1.6756483 0.763589 -0.47970998 -0.24169672 0.6105877 -2.0598035 0.4774696 0.4571198 -0.8224874 0.18799646 1.2384303 -2.116326 -0.7585453 -0.60664797 -1.0250784 0.49659392 0.9167962 0.4383149 -0.29148623 1.0931166 0.39741024 -1.1257828 -0.27380645 0.7761562 1.0285527 -1.6977365 -0.9353113 -1.9748335 0.7564423 -0.13090771 -1.8479832 -0.4232888
ARC 0.07413511 -0.013657196 0.027738625 0.017964851 -0.004032575 -0.040106703 -0.06014956 0.07002799 -0.014985785 -0.08582264 -0.07023622 0.041453045 -0.09876117 0.0008770248 0.103031516 -0.0129084075 0.06305057 0.013966891 -0.041758284 0.051383626 0.016649524 0.055051778 0.12477223 -0.0023585039 0.09868964 -0.025534267 -0.07836418 -0.0018350144 -0.06312121 -0.05955383 -0.0052615306 0.025888918 0.05269293 -0.029288106 -0.08069573 0.103111036 0.02184362 0.05683134 0.03337881 0.050176833 -0.04477826 -0.029018242 0.04442228 0.073070586 0.004282504 -0.06007439 -0.025718875 -0.07407277 0.0016449704 0.13844648 0.01398821 0.027178606 0.06538754 -0.08380354 0.09657987 -0.044275995 -0.029614715 -0.057429764 -0.05577553 0.012583198 -0.009976426 0.015487583 -0.038484816 -0.021724146 -0.01828082 -0.12011843 -0.024155729 -0.08614644 -0.063126236 -0.01753188 -0.03653245 -0.07614332 0.06870037 -0.0029505203 0.012648744 -0.007406018 0.06892488 -0.03845322 0.08783751 0.015679084 0.04014455 -0.015780833 -0.01036628 0.09631105 -0.008354609 0.08327982 0.037953902 0.050961845 -0.021852788 0.025033256 0.043599013 -0.03657128 0.11837062 -0.003767701 -0.10260449 -0.07777567 0.09902413 -0.09935138 -0.05023108 -0.017179793
AREG 0.46128598 0.43338647 -0.31573918 -1.4799585 0.22662143 -0.32579952 0.7849801 -0.63925326 0.5398528 0.8844015 -0.30169958 0.96695536 0.24956721 -0.68719125 1.6328721 0.20808639 -1.7037908 -0.3715487 -0.798816 2.4347303 0.7057636 0.34343055 0.7386464 1.3212225 0.5939205 -0.87747216 -0.1421876 -1.394073 -0.77155125 1.2291178 0.4091122 0.8017846 -0.614777 0.28505254 0.010091967 -0.07075772 -0.6895189 0.4288525 0.06981212 0.2844428 -0.75974673 0.07491315 -0.72870725 -0.17165348 -0.88488173 0.89571625 1.0784901 -0.06922052 0.56809115 -1.1183453 -0.13168542 -1.5139313 -0.19116141 0.8627637 -0.034222737 1.4560113 -0.060535535 -0.22850654 -0.15209518 -0.8850945 -0.70459306 0.01086295 -0.7594057 -0.3597828 0.32538074 -0.05164883 0.41528994 0.44866332 -2.1504002 0.4261731 0.38880348 0.50016344 -0.027776213 -0.91212755 -0.21225283 -0.5564691 0.61175805 -0.10246237 -0.048382293 0.29917783 -0.0833984 1.2357947 -1.3647916 -0.8393321 0.43406337 1.1440624 -0.78121555 1.9210162 0.4392315 -0.10415656 0.2240108 1.3313 -0.23715201 0.28541273 -0.67903966 -0.74639046 1.195975 -1.7266285 0.1776732 -0.1387185
ARHGAP11A 0.2173193 0.21558802 -0.19155833 -0.16922975 0.014398872 -0.15145789 -0.018704645 0.19032641 -0.3385419 -0.12763716 -0.18652485 0.14072032 -0.31850728 0.24685577 0.032959834 0.009328023 0.085607104 0.13305414 0.035638947 0.4623419 0.41447428 -0.093398444 0.21481454 0.086987466 0.21730477 0.18174274 0.10412574 0.15053299 -0.21106088 -0.34028992 0.08080096 0.065089375 0.43002364 -0.07006947 -0.093706705 -0.09243448 0.054073844 0.0657516 -0.009938961 -0.25775114 -0.20702359 0.051321644 -0.0627111 -0.00956074 -0.401771 -0.035292294 0.099531665 -0.19403923 -0.086789355 0.2053779 0.073503174 0.08542163 -0.10130808 -0.10974833 0.37816545 -0.14214773 -0.13002624 0.16978878 0.07688974 0.16153651 -0.21604371 -0.07326969 0.033578075 -0.17375742 0.03482215 -0.13769178 -0.16784331 -0.22877775 -0.041787036 0.20773071 -0.009758704 0.30760866 -0.10123791 0.14581642 -0.030430952 -0.22627488 0.4646049 0.030741494 -0.075195394 -0.04649752 0.23655006 -0.061943796 -0.04726261 -0.0754664 0.16253011 0.0042277067 0.25551173 0.15530252 -0.21984345 -0.07454679 -0.03829613 -0.02930816 0.099350646 -0.1845239 -0.03157851 -0.1367725 0.21782804 -0.13339537 -0.17263816 -0.20215046
ARHGAP24 0.039862752 0.06699629 -0.044176616 0.0022788055 0.08976099 -0.03549932 0.010342836 -0.010754841 0.0765852 -0.04425415 0.012631056 0.0710517 -0.040220834 0.083227776 -0.004616381 0.058586232 -0.06541784 -0.054545876 -0.03018925 0.05642902 0.064881876 -0.0017499676 0.056223433 0.006401183 0.064401604 0.053807955 -0.008991299 0.016870549 -0.023089664 -0.05035127 0.017069586 -0.0017637426 0.06228984 0.01639209 0.021798044 0.024656579 0.1350988 0.043887556 -0.04165016 -0.04874526 -0.04197694 -0.055333614 -0.09043686 -0.019321255 -0.06514632 -0.039069984 0.00040333753 -0.00644068 -0.0661342 0.032890506 -0.0045989496 -0.07402774 -0.033062275 -0.031584963 0.02950631 0.013437816 0.036515743 0.03472598 -0.008338424 0.15081303 -0.030674959 0.07925594 0.019941311 -0.012349931 0.0070903962 -0.042495675 -0.03558525 -0.04958055 -0.019754104 0.0374881 0.03198666 0.038133774 -0.057804875 0.0021711693 0.019586813 -0.0055360603 0.014529693 -0.048170194 -0.022594687 -0.028916173 0.019562645 -0.011339606 -0.054662123 -0.059270903 -0.07162171 -0.011975683 -0.017243171 0.016705388 0.037554957 0.040934432 -0.0021107793 0.0154530555 0.0762758 -0.03502099 -0.023736306 -0.036878616 0.055845965 -0.0075155105 -0.0011082154 -0.017309835
ARL4A -0.30774632 0.1196236 -0.5335232 -0.06534502 -0.262489 -0.5544644 1.0737528 0.6680942 0.09668503 -1.264068 -0.82865906 -0.15364155 -0.7570711 0.052340493 -0.15030764 -1.0628031 -0.57657796 -1.1723447 -1.2902402 -0.25831294 0.4229984 2.243534 1.4037007 0.30371553 0.37914857 -0.845293 -1.2435702 0.05901651 0.13081023 -1.1403848 0.9652675 0.5067977 0.29404652 0.57759196 0.5988308 0.39798206 -0.15468915 0.24165115 -0.15986331 -0.7552904 -2.1867704 -0.6922313 0.7503855 1.1100386 0.6303423 -0.45619944 0.10226298 2.0002885 0.06979662 0.57084227 -0.17471348 -0.58747864 -1.1175499 1.2217324 0.7374381 0.10535348 -1.2808444 0.08099967 0.28142512 -0.05469828 0.36223713 0.3272759 -1.3109801 -0.6091155 0.2280686 -1.1166594 0.045236055 -0.25131622 -0.9053106 0.3807868 0.6480779 0.93656546 0.44290903 0.54665613 0.5439829 -0.36895615 0.42327273 -0.38200656 1.0915033 -1.2821081 -0.16384105 -0.7525427 0.313556 -0.24421294 0.33180407 0.2638194 -0.14370993 0.53913414 -0.7648887 0.014691339 0.09318024 0.5555418 1.2144623 -1.7410381 -0.6502412 -1.6884155 -0.5461594 -0.06615459 -1.3307785 -0.027292443
ARL4D 0.41698477 0.34621245 -0.18966731 -0.054164734 0.39428625 -0.6799669 -0.074865386 0.42680937 -0.2743426 -0.16461442 -0.35863408 0.3797651 -0.54511666 0.4620526 -0.01312289 0.23018907 -0.23975915 -0.04842767 -0.09850505 0.41404188 0.33851567 -0.23630668 0.8127736 -0.34716842 0.00661351 0.20203878 0.20097308 0.2921851 -0.34879172 -0.41760287 -0.17300555 -0.37568113 0.86672384 -0.23957008 -0.044724982 -0.12902862 0.40756777 0.045123793 -0.046041213 -0.113828115 -0.3342138 -0.377523 -0.13825247 0.18629871 -0.74379426 -0.05586326 -0.22091034 0.08293417 -0.23231855 0.640178 0.24671905 0.013037831 -0.312769 -0.2544434 0.06443646 -0.08829989 -0.10799613 0.2637236 -0.028230319 0.67838925 -0.70378673 0.50439674 -0.15385705 -0.20197901 0.2419442 -0.35048965 -0.13321403 -0.74587697 -0.14237218 0.3296998 0.1430212 0.02995196 -0.0973186 -0.13126554 0.086860135 -0.22029068 1.2570087 0.007915783 -0.09611019 -0.1753091 0.43464315 -0.30514342 -0.112061255 -0.3796851 -0.2179469 0.25506613 0.34111854 0.05826594 -0.2543641 -0.1155644 -0.21285792 -0.12935203 0.3946764 -0.500199 -0.11233348 -0.35932255 0.2289954 -0.085361086 -0.3892906 0.15404512
ARL5B 0.3881727 0.01737753 -0.13127476 -0.35464254 0.2988627 0.08918146 -0.3516022 0.04241662 0.3655442 -0.8275127 -0.337547 0.2595775 -0.6262633 0.09775505 -0.17578743 -0.33711928 -0.07886316 -0.43358415 0.038930092 0.36553666 0.44425076 -0.01528131 0.166823 -0.13280924 0.46951318 -0.32134372 -0.09219124 -0.29235753 -0.5858399 -0.83938783 -0.30646363 -0.041187618 0.7403847 0.023630107 0.204315 -0.24718137 0.8401087 0.4468219 -0.069626436 0.40613723 -0.5652889 -0.16516227 -0.09113892 0.2682273 -0.24556312 -0.6759353 -0.71677005 0.14452164 0.12297211 0.6742291 -0.3744288 0.050606735 -0.2836697 0.19454396 -0.16714363 -0.08572993 -0.060375158 0.2790073 -0.5038116 0.5681545 -0.16989306 0.910752 -0.432543 -0.14553037 0.23964715 -0.9879489 0.39967635 -0.11261688 -0.42460105 0.2697612 0.079243146 0.6886683 1.026554 -0.34096095 0.5431647 0.28261575 0.5435081 -0.7990356 0.32019103 -0.4783145 0.32927874 -0.13153131 0.1570408 -0.33242622 0.15671726 -0.12341678 -0.25861 0.061291315 -0.3034949 0.52636003 0.21115245 0.48142862 0.6154999 -0.97151023 -0.016852884 0.010705726 0.9826148 0.027925942 -0.30361223 0.2870249
ARL6IP1 0.09160987 2.196164 -1.4937454 0.07802329 0.21921921 0.34747574 -0.42341423 -0.5447163 -1.4997343 0.7296041 -2.325505 -0.23894435 -0.44754 0.6540822 -0.5986111 0.20697391 -1.3973398 -1.3815763 -1.4668822 0.03047343 -0.41136736 1.2657104 -2.2515442 2.8642538 1.8752488 -2.117025 2.095602 0.1553469 0.39023253 1.0203255 2.0394132 -1.2522761 -0.38314062 1.2973874 0.24346548 0.84696746 -0.68441886 0.72732794 0.26676634 1.4224917 -2.5903766 -1.38519 -1.6221806 1.7315316 -0.075619616 -2.4738646 0.90536785 -1.2382607 0.8316668 -0.75537324 0.26072818 0.006517707 -1.1464179 1.0244735 0.54523027 0.3796835 1.6306115 0.3169708 -0.34840614 -0.72819465 -0.6021062 1.617639 0.8465505 -0.8175772 0.27151465 0.81455517 -0.867586 -1.1162431 0.87232804 -1.668888 -1.7298937 0.36054316 -0.081794105 -1.7806882 1.138512 -1.4757636 -0.028589051 -1.6860665 1.1667951 -0.9486576 -2.0906932 -0.805423 -2.7765362 0.9967484 -1.6305407 0.25194648 -0.33400694 0.1271162 -0.23006588 -0.722283 -3.0941114 -1.0923096 -1.6251869 -2.9954646 0.20435828 -1.197258 1.0030313 -1.6768833 -1.0585862 0.6751675
ARPC1B 1.9202795 -1.1389495 -2.406478 1.2664921 -1.6984198 -3.3066595 1.9951657 2.4892092 -3.591947 -0.06667568 -2.485667 -0.40033254 -1.5829496 0.16030607 -0.023502313 -2.782369 -0.3060903 -0.018259844 -0.577118 0.54485 -1.5365893 0.2532861 -1.3777151 2.4407566 1.3522388 -2.7129512 1.7130251 0.8607523 -0.9126878 1.8871413 -0.7835133 -2.7217026 -2.4864779 -2.5082397 -2.3187912 1.8749422 -2.1564326 1.1602423 2.257973 2.946086 -1.9217784 -1.5883306 1.0329614 1.3063447 0.28639126 -2.1755855 -1.7340834 -1.8504628 1.5607563 -2.1870234 -1.3477328 -1.9772097 -0.7183638 2.6586065 0.59881216 1.2218512 1.365745 0.66033775 -1.9513121 -0.9439685 -1.082384 1.483957 -2.2142322 -1.3093555 2.291524 1.0100553 1.389892 1.7477361 -2.8641698 -1.8426454 -1.124864 0.6412439 0.08201421 -0.039755505 1.1337019 -2.5605602 -1.9350076 -0.04803582 0.5973361 1.8840864 0.28808555 3.786558 -0.07517634 -0.18268247 1.0453541 1.0417097 -1.0314218 0.799188 1.6005883 -3.9514623 -1.7229141 1.2772075 -2.789236 -3.5482125 -0.26660544 -0.78622526 1.479781 -2.8408928 1.0919546 1.2322037
ASB2 -0.083604105 0.2531811 -0.37913424 -0.06925817 -0.02815064 -0.31421152 0.040652163 0.41380692 -0.015645506 -0.437298 -0.7354306 0.89123666 -0.33693245 0.12358996 0.066261716 0.017306708 0.30844417 0.07447008 0.0063658818 0.639547 0.88620126 0.14752838 0.31323937 0.25158048 0.037108935 0.502875 -0.13368812 -0.38251773 -0.47162628 -0.5695876 -0.26382244 0.11994975 0.89359874 -0.4931819 0.38090032 0.6027837 0.5759349 0.60156924 0.006201041 -0.08372124 -0.10117495 0.18325374 -0.3669951 0.5612368 -0.20290257 -0.5737258 0.1093556 0.18760428 0.32094952 0.9320061 0.09218354 -0.27193195 -0.3746732 0.0938685 0.48190802 0.0411228 0.34415287 0.01770362 -0.3433777 0.3260636 -0.023125665 0.036533486 -0.31614256 -0.24812679 0.089634396 -0.4479275 0.50235707 -0.484784 0.2540429 0.1470219 -0.459606 0.20945564 0.18772581 -0.2444335 0.18551446 -0.41382435 0.47865674 -0.30707097 0.04980691 -0.5279812 0.21319419 -0.35668594 -0.37861383 -0.07470687 0.24097838 0.17017576 -0.2997437 0.1164696 0.2696713 -0.17107213 -0.44112635 0.11240679 0.70609295 0.14747821 0.05005316 -0.16660112 -0.30120507 0.120642 -0.029989632 -0.19828889
ASF1B 0.0023566925 0.15857391 -0.3034665 -0.08545969 -0.26164755 0.02177259 0.17729177 0.19937417 -0.1515802 -0.0046509784 -0.25629967 0.16880344 0.06844304 -0.17900366 -0.00022128677 -0.023453387 -0.019800188 0.006437105 -0.06522477 0.23427308 0.33058277 -0.09684939 -0.052325163 0.114704356 0.056250095 0.40502277 0.20085818 -0.07737711 -0.09305141 -0.32993975 -0.19869624 0.1943596 0.23544562 -0.21640679 0.2508967 0.18408108 0.09646802 -0.09757591 0.004111728 -0.19795492 0.1746705 0.15621178 -0.03505105 0.09397365 -0.26931432 -0.008395615 0.052324507 0.19421054 0.027845943 0.19951838 -0.037072543 -0.20512424 -0.35950303 0.15934467 0.29457965 -0.13474834 0.09272446 0.16874723 0.0032091094 -0.056082387 -0.08507609 -0.10669371 -0.14515448 0.053841777 0.19845825 0.052399334 0.16084172 0.06591859 0.011913977 0.1520509 -0.12286306 0.03841191 -0.08776576 0.014499109 -0.05805191 -0.27255854 0.28336683 -0.07195172 -0.069320984 -0.4158345 0.20137894 -0.14128238 -0.22742277 0.016241206 0.07613295 -0.044929385 -0.122532785 0.050269563 0.11952305 -0.23436475 -0.20033026 0.093652554 0.046257414 -0.09752789 0.26357657 -0.03313024 -0.055424433 0.02229844 -0.09821398 -0.0666096
ASPM 0.06893478 0.37520477 -0.19701837 -0.13549873 -0.0032238334 -0.008289356 -0.0005795042 0.095503286 -0.10997966 -0.17313868 -0.18989928 -0.061623197 0.06603793 -0.4634134 0.15526764 -0.34361747 -0.02783821 -0.08478385 0.069619514 -0.12131626 0.23162171 -0.08267903 -0.3758758 0.10032631 0.049147222 0.1938709 0.101986974 -0.12269914 0.0058459 -0.41156185 -0.18925564 0.230341 -0.10000213 -0.09403679 -0.035566956 0.20297293 -0.05045391 -0.31404072 -0.15490104 0.13344978 -0.076291144 -0.05258697 0.10331732 -0.12626122 -0.35979983 0.101102695 -0.14652333 0.30014935 0.016209096 0.12120175 -0.20471731 -0.3260903 -0.25129637 -0.012895283 0.30404085 0.02886934 -0.28446496 -0.013213914 -0.08102832 -0.15061383 -0.20971681 -0.03278763 -0.38205016 -0.022783402 0.11658883 0.41577208 -0.04094561 -0.05018379 0.2925086 -0.09766291 -0.27647534 -0.28744096 -0.15536988 0.2087003 -0.036362574 -0.32160392 0.14235836 -0.26164892 0.23795152 -0.37068722 0.06174006 0.13533227 -0.22864738 0.19380447 -0.030962652 -0.057487488 -0.13659726 0.36710587 0.368215 0.033521507 -0.18858308 0.32572308 -0.1124621 0.051075894 0.003053044 -0.53514814 -0.20340797 0.17722176 0.031653736 -0.06605189
ATAD2 0.048839744 0.4055835 -0.6625647 -0.60251576 -0.3656475 0.0035433788 -0.0008844655 0.2857207 0.016544627 -0.34791932 -0.63971967 0.7421795 -0.40800112 0.11367809 -0.08319063 0.09693678 -0.045209832 -0.2394446 0.06659062 0.7830997 1.0316013 -0.14283508 0.4448879 0.2958635 0.06916798 0.4987471 0.121594235 -0.34834513 -0.42418796 -0.76051664 -0.09515712 0.15787435 1.0325847 -0.5748566 0.37844595 0.1979585 0.25363162 0.76430887 -0.27127782 -0.22859989 0.010687408 0.12586905 -0.29170096 0.4012739 -0.5717739 -0.5761329 0.47703406 0.42353705 0.08742495 0.69610053 -0.04613301 -0.2908291 -0.7611886 0.020384304 0.41459942 0.24291241 0.35887024 0.5105358 -0.15910411 0.40013677 -0.1489942 -0.01491955 -0.48273623 -0.0064809145 0.44732922 -0.37717813 0.36236113 -0.31510356 0.16386543 0.31705362 -0.493206 0.58080405 0.28037804 -0.2116719 -0.008361688 -0.6282342 0.6572898 -0.6187506 -0.24993281 -0.87656766 0.48797533 -0.32881936 -0.47405326 -0.06576755 0.17603049 -0.12799485 -0.28690812 0.21532953 0.22153053 0.014579639 -0.6832759 0.30565935 0.58944666 -0.2168841 0.4256186 -0.0012674145 -0.33645362 0.19988172 -0.099266745 -0.17293179
ATF3 -0.5212083 0.39499414 -0.703145 -0.47364637 -1.1533803 -0.26120675 -0.55417687 0.8659842 1.1871413 0.9346619 -1.8591586 0.36059597 -0.6314209 0.22099808 1.275244 -1.3383261 -1.4527986 0.030676156 0.34408262 0.055888426 -0.10653163 0.45849964 -0.19225329 0.38177934 1.5113388 -1.2082162 -0.71352416 -2.250391 -0.4177209 -0.6370019 -0.15041026 0.52873886 -0.12807941 0.24409087 -0.092829995 1.0018554 0.29868278 0.43494216 0.560997 0.53305507 0.112498365 -0.90415037 -1.1264418 0.12243169 -0.58753085 0.504994 -0.7946709 0.6252517 1.0691042 -1.0321395 -0.4615293 -0.36805934 0.030135307 0.87691057 0.6545034 0.73827785 -0.1964357 0.13447277 -0.56831807 0.0068709394 -0.23126352 0.885739 0.4524923 -0.9434142 1.2788262 -0.36301556 -0.30303845 -0.39857745 -0.18324515 -0.94734615 -0.9150814 0.68189347 -1.199823 -0.5305852 0.49826878 -0.4084517 -0.036881182 -1.4155954 0.46141583 0.27843115 0.99052435 0.5295993 -1.1399895 -0.05214145 1.9276508 0.6543208 0.22772196 1.4251343 0.9711431 -0.94154423 -0.055867244 0.40754858 -0.38863057 -0.30076626 -0.8046277 -0.80346566 -0.56743085 -1.0839199 -0.34036368 1.0004909
ATP2B1 -0.542557 0.14736995 -0.30136675 -1.1796843 0.44924593 -0.53334016 1.153674 -0.14922239 0.9282511 -1.0811862 -0.07631478 0.13409024 0.44407675 0.24533631 -0.7836532 -0.6967048 -0.9752191 -0.41923088 -0.7568471 0.47860605 0.8933381 1.0036001 0.4109078 0.48720858 1.0010769 -0.39794704 -1.5081303 -0.56099015 0.36028334 -1.7491521 0.3024554 -1.4687653 0.34739536 0.36675283 1.2874805 -0.67285216 1.2010661 -0.033620242 1.159273 -0.14478633 -0.3940713 -1.0523154 0.2264146 1.0241194 -0.7013039 -1.3937002 0.72926277 0.982963 -0.07618934 0.9902691 -1.085101 -1.2521695 -0.53673226 0.051041353 1.5356412 0.8353066 0.14664878 0.72382665 -0.44778344 -0.6439108 -0.33712152 0.08554787 -0.9663506 -0.638774 0.20743439 -0.69726205 0.4976964 0.8977826 -1.1059092 0.4339652 -0.128144 2.3891425 -0.45441884 -0.87191176 1.961924 -0.34552845 0.12547353 0.14212523 -0.11555908 -1.6913359 -0.3653716 -1.3683568 0.49045953 0.52142674 0.81322867 -0.50311494 0.046344824 -0.26305288 0.31308934 0.43696335 -0.60359895 1.1155528 0.5603449 -2.3271472 -0.2767535 -1.0184937 -0.55595124 -0.48529515 -0.011487985 1.3033822
AURKA 0.04133895 0.37775195 -0.120658845 -0.079767875 0.0052218293 -0.008758067 0.12745997 0.06540033 -0.06923713 -0.0027457464 -0.12600806 -0.011028624 0.087664165 -0.24163951 0.03677744 -0.058177024 -0.13282219 -0.05429162 -0.014515351 0.024224818 0.07623205 -0.028497422 -0.07797565 0.030468889 0.06370206 0.13795078 0.17780115 -0.039196428 -0.026137393 -0.2625542 -0.16177228 0.0683797 0.036209635 0.070235275 0.046968088 0.031238424 0.055624526 -0.105657354 0.10457456 -0.0562386 0.040567666 -0.106963105 0.064918876 0.01879756 -0.29702967 0.0672343 -0.20776808 0.12613887 0.060692824 0.16771251 -0.23624647 -0.17603442 -0.05557984 -0.03145683 0.24942917 -0.1133535 -0.05026742 -0.058934078 0.091670446 -0.05907339 -0.1142079 -0.04388159 -0.19600883 0.020551033 0.0897734 0.12501559 -0.007987071 0.3178115 -0.025699465 0.07280051 -0.17558621 -0.081879854 0.0767189 0.20074035 -0.12934035 -0.10954504 0.2726232 -0.03415648 0.08683459 -0.24387711 0.18247207 -0.03570775 -0.28374913 0.0085287 -0.10589813 -0.010335825 -0.093851164 0.055524945 0.1715192 0.042179145 -0.084954105 0.21047428 -0.035571456 -0.04935036 0.145728 -0.18081963 0.036790162 0.06217853 0.012396732 -0.074446596
AURKB 0.04406844 0.28276065 -0.20768629 -0.11138885 -0.03669265 0.035272703 -0.17817599 0.076715104 -0.068731286 -0.09671778 -0.21520099 -0.0012797161 0.13893989 -0.32062432 0.07306028 -0.31917897 0.039436247 0.002178751 -0.08246937 -0.08608027 0.076645486 -0.060572747 -0.3292836 0.149313 -0.006979744 -0.04535235 0.06403307 -0.12211672 -0.06943022 -0.2630909 -0.06285078 0.09028444 0.07339986 0.1457525 -0.032511782 0.026680127 -0.0015218506 -0.16369055 -0.11235865 -0.06944825 -0.016492672 -0.13185178 0.30871236 -0.052038405 -0.257509 0.06556978 -0.19445357 0.13266909 -0.032476023 -0.00031343466 -0.041734993 -0.1501908 -0.012894874 0.0452925 0.11201812 0.06549776 -0.15064946 0.038365036 -0.0027738193 -0.04933496 -0.18032745 -0.10865126 -0.20556337 0.010299104 0.025169723 0.21549462 -0.15041572 0.034761544 0.19710883 0.08480606 -0.30548352 -0.029343976 0.105903335 0.18139848 -0.05884967 -0.09980912 -0.08386656 -0.26733837 0.17980053 -0.18427661 0.09612686 0.11057123 -0.21975037 0.131948 0.111256026 -0.036400992 -0.073723234 0.2521656 0.17993937 0.02807283 -0.083990835 0.30528414 -0.049190477 -0.015367538 0.05619919 -0.28975958 -0.09197585 0.16936162 0.07966401 -0.0891595
B3GNT5 0.041587174 0.014118105 -0.002276037 0.002649184 0.015367669 -0.07886654 -0.018318107 0.0010884427 -0.0043871882 -0.046897855 -0.051939696 0.04228344 0.008823689 0.054431736 0.020277912 -0.015964346 0.026280597 0.025502853 -0.01115269 -0.0059223245 -0.009506721 -0.005534293 0.10017333 -0.10757096 0.0041693216 -0.014617862 0.0021092326 0.07460506 -0.058377504 -0.0060479008 -0.041238073 -0.05038724 0.016637828 -0.029205838 -0.017374825 -0.0032355336 0.03045249 0.024307124 0.014286044 0.017878044 -0.050545108 -0.03622452 0.018621096 -0.042806264 -0.0031073992 -0.024299236 -0.022897186 -0.004660015 -0.056029007 0.07703656 0.04156058 -0.055604212 -0.049590286 -0.03866464 -0.013495462 0.0067305625 -0.042730205 -0.005856035 -0.04795866 0.100039296 -0.07579245 0.017245786 0.009001606 0.0371266 0.12201226 -0.019582493 -0.039041065 -0.034032155 -0.044426776 0.02658172 0.04710384 -0.0505183 -0.0122374315 -0.022367124 0.021868719 0.040909875 0.051522683 0.0146939 0.011805011 -0.012083129 0.0321631 -0.042615417 -0.03966541 -0.0145502 -0.037167147 0.033447236 0.017714502 -0.021081883 -0.004153782 0.0045060986 -0.051255774 0.00083405036 0.005608988 -0.037457976 -0.031923957 -0.10057664 -0.040512986 -0.017606055 -0.08051585 0.06328222
BACH2 0.53325725 0.5240877 -0.31726438 -0.14499855 0.9093976 -1.0355208 -0.3450022 0.20759599 -0.19101268 -0.14662966 -0.6232686 0.66475224 -0.4772264 0.5395452 0.16138658 0.3238122 -0.20649108 -0.5189451 -0.51452315 0.56621635 0.33726016 0.33826753 1.1610347 -0.4000911 0.26316822 0.12317949 0.32896468 0.20402956 -0.6218432 -0.7401747 -0.36287284 -0.3548725 1.2316033 -0.32925487 -0.4364667 -0.078233846 0.8005802 0.25440124 -0.10867912 -0.008247249 -0.5436471 -0.93340915 -0.37783298 0.22868443 -0.8372286 0.10299969 -0.6315166 0.11287923 -0.49047765 0.7267633 0.3169419 -0.57722545 -0.2087694 -0.364438 0.25971782 -0.0335015 -0.27811286 0.24600965 -0.21254723 1.080108 -0.86753947 0.6726572 -0.23717627 -0.04658313 0.5438876 -0.47613668 -0.082808174 -1.3223083 -0.40971008 0.47468862 0.6861657 -0.14798263 0.10268934 -0.40869114 0.1585385 -0.21433009 1.5380074 0.38180202 -0.21851532 -0.03976322 0.6263023 -0.7022409 -0.1911584 -0.27347353 -0.7031565 -0.05271653 0.21179378 0.1712201 0.1968044 -0.017849915 -0.32087997 0.120938994 0.7303729 -0.7442417 -0.12535499 -0.43433648 0.40087938 -0.06771268 -0.34973204 0.07159388
BAG3 0.28818247 0.06717543 -0.6918954 -0.65636224 -0.031657312 -0.5418821 0.21926129 -0.66248345 0.43515384 -0.60083747 -0.40951854 -0.060075626 0.23921809 0.74516654 0.14560647 -0.15910034 0.61058074 -0.30464688 0.120651096 0.21964483 0.84535515 0.41759795 -0.07976998 -0.31078193 0.64107895 0.21906804 -1.2035146 -0.40123612 0.10086195 -0.6373614 -0.24312972 -0.024764836 1.5279188 0.23140968 0.32943872 0.67830855 0.40002137 0.62138516 0.595669 0.3021645 -0.44499102 -0.82466584 0.18426226 0.7108307 -0.5245527 -0.22699217 -0.57817715 0.25698826 -0.2791747 0.9667334 -0.8123141 -0.38050893 -0.39232644 -0.19857916 0.20091027 -0.03847147 0.42069697 -0.024570929 -0.6341759 -0.06827987 -0.29239002 0.3066731 -0.87209773 -1.0464613 -0.18908243 -0.8712888 0.13905108 -0.844163 -0.616132 -0.6455636 0.021079332 0.6713317 0.4315572 -0.33281934 1.2346355 -0.19961743 0.35517988 0.2778273 0.8598709 -1.2022324 0.4091987 -0.6140483 0.16685244 0.51701033 0.666363 0.48937497 -0.05854342 0.30525228 -0.31190932 -0.47295547 -0.50326836 0.47278133 0.42951402 -0.05737362 -0.091553524 -0.9429398 -0.47145635 -0.23149873 -1.2586652 0.31736892
BAMBI -0.0023836116 0.049379148 0.045832768 -0.01220032 0.019623237 -0.1002448 -0.040418286 0.14753263 -0.07834309 -0.035653517 -0.041977745 0.028308045 -0.06919145 0.09289807 0.033290476 0.033738464 -0.073376305 0.016920673 -0.033048976 -0.0046406896 -0.014638928 -0.04885013 0.21057725 -0.13935591 0.042380773 0.032907102 -0.013924243 0.12769417 -0.07532526 -0.027860317 -0.102147326 -0.11495117 0.07464975 -0.03819755 0.007874032 0.010566817 0.096451096 -0.038189385 -0.06915855 0.08132847 -0.0012602662 0.011846688 0.038452793 -0.00028154382 -0.040976316 -0.015540476 -0.011594347 -0.021968823 -0.08991303 0.090973064 0.046678007 -0.054390553 -0.06636497 -0.026284147 0.013329601 0.047144845 -0.017523417 -0.015110474 -0.03495288 0.13005921 -0.15445626 0.022189626 0.036845237 0.016528994 0.09081226 -0.038190186 -0.112592004 -0.013539845 -0.06574823 -0.00052656734 0.061240982 -0.03008601 -0.0844741 -0.009803729 -0.04719975 0.023591973 0.10260004 0.114141025 0.020517861 -0.05100783 -0.014342732 -0.12723671 -0.06262417 0.004070328 -0.11151796 0.03702877 0.04529776 -0.027468732 -0.061283026 0.017873984 -0.10211471 -0.047620453 0.039878245 -0.14153291 -0.03761583 -0.0687115 0.10335172 -0.08096676 -0.1672614 0.10064695
BANK1 0.027330678 0.1296273 -0.12991674 -0.0069010872 -0.008634596 -0.0009317002 0.09269987 -0.013190097 0.09036853 -0.0008939607 -0.13063526 0.009641381 -0.07733895 -0.055086643 -0.080510914 -0.039140116 -0.07380514 0.027381158 -0.0012010445 0.108248204 0.008680045 -0.040096678 -0.05914281 0.01716484 0.08896635 0.0063130315 0.03396449 0.05968851 0.013968744 -0.025766551 0.060588475 -0.059310813 0.08770084 0.072521254 0.0041175326 0.072672255 0.0463364 0.07672683 -0.10625861 -0.13416198 0.02444011 -0.12996787 0.030877769 -0.057904042 -0.15558651 0.07259866 -0.104794964 0.009933272 0.089028984 0.017791234 0.029764699 -0.08018935 0.05971244 -0.081994906 -0.04398314 -0.022291176 0.011860041 -0.06695246 0.028237976 0.09739182 -0.08933431 0.06876019 -0.15979207 0.0030550952 -0.07814367 -0.044333704 -0.045453556 0.045468282 -0.008096026 0.030962033 -0.16220604 -0.024563743 0.059774 0.00075612834 -0.09763924 -0.010735118 0.052524406 -0.118706934 0.07502577 -0.11957839 0.092699006 0.04882447 -0.06338276 0.11382229 -0.008974144 0.03401797 -0.050901983 0.04943915 0.07008853 0.058232162 -0.092062205 0.16950195 0.09200307 -0.02711655 0.056762047 -0.0916444 0.13542107 0.07208725 0.035512995 -0.10382493
BATF 1.5041032 2.0146773 -0.934155 1.9316422 -0.9705828 -0.6021898 -0.27930567 -1.2213254 0.24048837 -0.7229494 -1.8581102 -0.71795183 -0.9193003 -0.1449012 2.603823 -0.0760356 -1.5930334 -2.278751 -0.84538215 2.5550826 0.7037618 1.4407517 0.45020103 -0.164865 -0.48730746 -0.7845386 -0.90443397 -1.0319599 -1.7026953 0.303455 0.96208876 -1.079518 -1.3236781 0.77542436 1.3822247 1.5772389 0.39304033 2.0543714 0.69841367 1.4379864 -0.43789992 0.7509431 -1.8221123 1.1035622 0.10260904 -2.0242963 -1.8576282 1.059806 0.22189255 -0.903072 -0.31992555 -1.0012931 -0.34967884 1.522652 1.3194805 -0.30691236 1.1851468 0.74828833 -0.74878526 -0.61484516 -1.0389147 1.6254187 0.28129968 -1.4357389 0.8130191 0.85629034 -0.69855976 -0.3430004 -0.96545285 0.3892807 -0.6236961 1.0722111 -0.44052514 -2.3268042 -1.0211263 -1.2677516 -1.9405429 -0.9190048 -0.53958243 -0.8175106 0.9351102 2.656097 -1.1017661 -1.114521 0.21462989 -0.39201277 0.1543156 1.4685402 0.5168835 -1.6964452 -0.58537126 1.2515684 -0.33496672 -1.3916485 -0.68292487 -2.535491 0.8648395 -1.8139116 -1.1311808 0.63644177
BCAT1 0.10594302 0.04319498 -0.059965175 -0.06837812 -0.025301794 -0.018559098 -0.014610977 0.11723326 -0.12594911 -0.0034020015 -0.12971528 0.14689782 -0.060302116 0.1797621 0.04064243 0.045312773 0.06825842 -0.097958565 0.009125835 0.087175444 0.091178395 -0.07054164 0.07354406 -0.017086083 0.07652057 0.12115091 0.0658445 0.033792663 -0.038478214 -0.21884744 -0.039174844 0.0048739654 0.28432724 -0.059597496 0.0075839437 -0.098848835 0.11157823 0.18451506 -0.0389231 -0.07063926 -0.07484819 -0.045418184 -0.099329084 -0.022662027 -0.14245735 -0.026952622 -0.11806471 0.06959533 -0.035047546 0.22499274 0.013022317 0.0132080205 -0.10516098 0.07045237 0.018442154 -0.07064873 0.05235895 0.19080469 0.07099483 0.123444274 -0.15750256 0.11972209 -0.06975261 -0.07628807 0.119330876 -0.09698613 -0.0004744015 -0.05009365 -0.015709441 0.03635346 0.16828154 0.021004396 -0.0073648966 0.02573036 -0.015637876 -0.030669745 0.24525703 -0.023174398 -0.12415409 -0.16052514 0.18158421 -0.1074507 -0.0740828 -0.06382383 -0.02386553 0.009111598 0.008651777 0.048464715 -0.09727531 -0.10854996 -0.12529248 0.050401002 0.039601967 -0.10092995 0.13585395 -0.070833266 0.03595851 -0.00044040062 -0.14193769 0.057211753
BCL2A1 0.0010451355 0.7443446 -0.57743645 -1.204484 -0.9410324 -0.5272994 0.9251538 0.43909228 1.3094717 -1.1187961 -0.7120653 0.17817731 -0.93286604 -0.39448798 -0.24280012 -1.0756513 -0.29336938 -0.21894747 -0.9928328 0.3460187 0.21652578 0.70592344 -0.47839662 -0.21200512 0.97961664 0.084787 -0.29548725 -0.83671963 -0.14198408 0.13320911 0.7161954 1.0620856 1.1186888 0.8509341 1.2840209 0.30814576 -0.19390945 0.06754838 -0.15221585 -0.80739045 -0.6133082 -0.46503752 1.2023232 -0.94189703 -0.00044804663 -0.25879037 -0.62225837 0.69962144 1.3268677 -0.83236456 -0.8299694 -0.72251356 -0.146818 0.32160997 0.9009635 0.18580098 -0.22769113 -0.5454031 -0.2521549 0.27902076 -0.20961559 0.17400847 -0.23801634 -0.5154089 0.16974519 -0.831038 -0.4702791 1.1771339 -0.322298 -0.8053154 -0.97694886 -0.080215104 0.071223505 0.47165424 0.43010315 -1.0266578 0.50346756 -0.28194052 0.75672793 -0.61428386 0.8093112 0.18799576 -0.9298394 0.56424695 -0.3130393 1.0181323 -0.43446454 0.87048465 0.70860755 -0.1884647 -0.019348733 0.48778257 -0.068019345 -0.07769794 0.17071128 -1.2506639 0.9722986 0.08403801 0.0954749 0.15851429
BCL2L11 -0.13088277 0.15659963 0.07887691 0.2798053 0.8118849 -0.67736423 -0.48658696 0.3651862 -0.25113022 -0.5034508 -0.764567 0.24243355 -0.59076214 0.26452497 0.4315625 0.24303773 -0.29557523 -0.4497254 -0.36986378 0.45912403 0.9907496 0.14668909 1.1308262 -0.38473624 0.070848376 0.28720585 -0.16548061 0.46045563 -0.40586948 -0.19072852 -0.25879866 -0.22794487 0.70872647 -0.84365183 0.15944843 0.46707615 1.187043 -0.40681285 -0.33799514 0.38138303 -0.53516096 0.16219074 0.1661469 0.5081536 -0.7318375 0.226449 0.39807433 0.39755648 -0.40636247 0.5677476 0.035131443 -0.14826433 -0.5151496 -0.2923783 0.25902504 0.44973028 0.043715045 -0.39398026 -0.21344838 0.97005653 -0.53254867 0.12437216 0.21240725 -0.20382465 -0.043012396 -0.38584894 0.029601488 -0.6179045 0.0077521484 0.45807415 -0.077831134 0.02960705 -0.30467832 -0.2029269 0.48086208 -0.28343236 0.7490064 0.2936738 0.50916415 0.1482207 0.15401047 0.0775756 -0.24865021 -0.29804653 0.11451163 0.0024499856 0.5201709 -0.02481777 -0.1660492 0.04100352 -0.33496162 -0.19487292 0.9096067 -0.3523326 -0.9496095 -1.0862703 0.2905967 -0.04003906 -0.61096686 0.3367683
BCL3 0.5281165 0.6368487 -1.0443853 -0.54873264 -0.49827117 -0.8174905 -0.54671144 0.008615638 -0.038040545 -1.9036025 -1.3672123 1.8085027 -1.4362042 0.8021628 -0.015991379 0.057157587 0.99049973 -0.36654744 -0.119880855 0.6797472 0.9525949 0.19417572 1.2806193 0.107321955 -0.6029239 -0.28008816 -0.15049085 -0.8767719 -1.1340201 -1.5239674 -0.1884124 0.79960525 1.4986421 -0.6801909 -0.123310156 0.34452465 0.24118258 1.5729392 0.36947748 -0.07632444 -1.0652326 -0.3280179 -0.16194314 0.45722696 -0.42607334 -1.5052304 0.26859897 0.5228089 0.2349558 1.820801 0.32493404 0.3390342 -0.80504686 0.07422104 1.1892985 -0.3456091 -0.38994843 0.4769911 -0.62027884 1.1636405 -0.06304508 1.1510881 -0.6337104 -0.68446076 0.48057008 -1.2798033 0.20229654 -1.2498664 -0.0830267 -0.067262255 -0.5191432 0.59719837 0.59898686 -0.20543985 0.5652053 -1.0212686 1.1467323 -0.76943964 0.58255106 -1.2905085 0.49450752 -0.7787633 -0.2361814 -0.38188308 0.5433843 0.9879769 0.041826915 0.11339606 -0.67685235 -0.19311966 -0.014926408 0.23281863 1.0994081 -0.30060327 0.054272417 -0.21116889 -0.34141633 -0.3391415 -0.72365916 0.16032253
BHLHE40 -0.41514686 0.32740474 -0.32021922 -1.2080327 -0.022666821 -1.158404 0.920854 0.26699114 1.1405957 -1.2754781 0.18466231 0.15464492 -1.4672836 0.39376453 -0.40695757 -0.532323 0.25081134 0.019549474 -1.5028282 1.3900229 0.7665298 0.40112415 -0.097426556 1.1313976 1.1551532 -2.1422617 -1.9947569 -0.55122375 -1.1785265 -0.29442766 0.18844423 -0.655236 1.3737143 1.5638337 1.2807066 0.3513248 0.5854218 0.80477107 -0.58045775 0.90259486 -1.0491183 -1.0770488 0.6833808 -0.017426541 0.14689454 -1.2923634 0.861982 2.494231 0.4615463 0.85631526 -1.2444704 0.1115554 -1.6453015 -2.074971 0.17607792 0.39906222 1.3740101 -0.6998135 -1.4256252 -1.3742843 -0.9476722 1.6660341 -0.35869884 0.14314143 0.4707057 -2.489116 0.11257666 1.8845645 -1.6082301 1.3556716 -0.52967876 2.486983 0.16192818 -0.57605565 0.28164902 -1.4899645 -0.36363548 -0.6040309 1.0070882 -1.2406781 0.51295567 -0.29623333 -1.6020397 0.7332797 1.3199922 -1.0167881 -1.121364 0.66519654 -0.68324286 -0.59237534 -2.5327694 1.1547056 0.27606323 -0.656849 0.3420991 -0.8913947 0.58685386 0.5445261 -0.93694603 1.375373
BIK 0.021446342 0.1609728 0.10244798 -0.11223162 0.119723335 -0.09629537 -0.21376354 0.26827055 -0.15908776 0.008761902 -0.16139199 0.076236434 -0.19161113 0.13004878 0.18343583 0.0430003 -0.02277401 -0.08055315 -0.08248016 -0.015292001 0.063154735 0.0037866407 0.2122302 -0.07035046 0.1611464 0.13050944 -0.027304241 0.054510858 -0.096125335 -0.1585832 -0.068854354 0.018978145 0.19685982 -0.006022798 0.0188818 -0.021660147 0.16420662 0.057022188 -0.19170111 0.029463027 0.0201069 -0.098955534 0.03964294 0.013555386 -0.18940294 0.043855328 0.013689364 -0.076218754 -0.15388297 0.17082687 -0.026920553 -0.09169679 -0.09444535 -0.010491534 0.017845279 0.039617777 0.0310124 -0.009887714 0.03680416 0.13046607 -0.23051217 0.07083183 0.1292684 0.00035539997 0.12550867 -0.052627623 -0.1262262 -0.03178022 -0.13946615 0.049934685 0.12833351 -0.022558251 -0.086353384 -0.14704037 -0.040257286 -0.07527064 0.31096786 0.20392832 -0.0833598 0.009173553 0.06904326 -0.212565 -0.16441834 -0.03635789 -0.083592825 -0.06361937 0.10632226 0.0076655904 -0.019176431 0.05772075 -0.050545022 -0.070839226 0.17614117 -0.1504014 -0.04734413 -0.1462476 0.17326777 -0.11091344 -0.14872459 0.05972688
BIRC3 -0.10919066 1.0629565 -1.6623684 -1.4721376 -1.9071561 -2.1515586 0.3984424 0.8314249 0.2729858 -0.2787979 -0.73094976 -0.12413554 0.26260427 -0.34218907 2.7372742 1.2212667 -0.7904185 0.24189848 -2.0619671 0.7707123 1.161835 1.1423279 1.188948 -0.53705376 0.072612986 0.5404473 -0.9480614 -0.9139676 1.044516 1.3033617 1.1234083 1.2525136 -0.56492174 1.9555615 1.2356308 0.9134468 1.114092 1.5900682 0.19261992 1.9553776 -0.116497725 -0.45969933 -1.0035344 -0.040027376 -2.1551971 -0.42245048 -0.8527167 2.5881681 1.1964849 -1.6660583 -0.007742082 -2.4707146 -0.35740992 0.36565533 0.2876466 -1.2269083 1.2236959 1.4367857 -1.0202658 -2.5954237 -2.5986702 0.51909727 -0.100808084 1.2754387 1.4783918 0.3215547 -2.4722831 2.4411428 0.08496091 -0.0065079774 0.076611 -0.43008143 1.3007686 0.37795076 1.3263028 -0.5942181 0.99381125 -0.95512325 2.2218256 -1.0894381 0.45692435 1.3458536 1.9362334 -0.142435 0.75281405 -0.6968827 -1.9477255 1.686839 1.7294333 -0.2134759 0.07484673 2.5651844 0.7332404 -1.7615631 0.57615054 -0.7617428 0.2925647 -1.1933259 -0.60173017 1.0007014
BIRC5 0.027258445 0.4639178 -0.3337026 -0.25684953 -0.15671909 0.013028873 -0.0041783154 0.15627623 -0.1071621 0.041013915 -0.23622987 -0.0076299002 0.11454017 -0.5700143 0.1296432 -0.23680528 0.010270301 -0.058910392 0.050561402 -0.078281984 0.26614806 -0.087747574 -0.42226776 0.21044931 -0.04726272 0.3313916 0.088165596 -0.15220436 -0.09906687 -0.47354665 -0.14390258 0.26847407 -0.08886113 -0.040419936 0.1091887 0.16131844 -0.0976207 -0.3620453 -0.12516902 -0.0039682407 0.053470716 -0.18837914 0.27410498 -0.06291258 -0.35039794 0.106295675 -0.19254272 0.11748432 0.09155551 0.1007297 -0.20903365 -0.29510236 -0.42353538 0.007944337 0.3263775 -0.18813178 -0.29035908 0.04638099 -0.0075434353 -0.042051516 -0.18564953 -0.13419063 -0.305842 -0.06840156 0.2231708 0.51807624 -0.15279436 0.23385093 0.28615522 -0.029579077 -0.19324514 -0.15027581 -0.09231193 0.1855297 -0.21445405 -0.3392314 0.14056577 -0.04450691 0.17214908 -0.46803957 0.16115074 0.08015689 -0.3290353 0.10376041 0.07060259 -0.08011057 -0.12177083 0.23386972 0.33466342 -0.050380226 -0.195548 0.27562314 -0.026338365 -0.0022985444 0.13699012 -0.4000689 -0.20491628 0.06278067 -0.08048424 -0.1676212
BLK 0.027975043 0.00061591144 -0.021905439 0.038851533 0.14685878 -0.05017642 -0.08588784 0.07706572 -0.19917956 0.070894495 -0.07799198 0.014864685 -0.085876636 0.094570674 0.1382198 0.08993495 -0.07582072 -0.05195966 -0.13698615 0.052369874 0.107066736 0.01432469 0.17850412 -0.044492465 0.12135258 0.008479423 -0.06848401 0.1732778 -0.094578266 -0.09917579 -0.075272426 -0.03031225 0.18340787 -0.05066481 -0.05765979 -0.032607403 0.20162919 -0.00067604234 -0.048267655 -0.0021371748 -0.16038696 -0.0134504 -0.020859277 0.009137107 -0.13996904 0.036005385 -0.04187932 0.015900737 -0.1489069 0.09127005 -0.005103916 -0.07018929 -0.015217749 -0.02069068 0.022198368 -0.0033570775 0.037031528 0.01055932 0.092433736 0.13809286 -0.16713889 0.08636655 0.058623534 -0.016675139 0.0026891197 0.011387141 -0.06971862 -0.036941573 -0.020967595 0.046391994 0.14306664 -0.006110742 -0.05925032 0.031428955 -0.04216195 0.0058555994 0.21441734 0.19291098 -0.044279795 -0.026718011 0.06660342 -0.024917709 -0.0647273 -0.06718485 -0.1264972 -0.00079250376 0.07474661 -0.00656989 -0.017650457 -0.054671418 -0.11647201 0.04862704 0.0559308 -0.042600546 -0.08150306 -0.10335132 0.19528389 -0.023000881 -0.092998624 -0.014338384
BRCA1 0.041751683 0.048435777 -0.045087498 0.01268521 0.06588194 -0.10156399 -0.008517668 0.024881203 -0.11320068 0.0048331665 -0.04954775 0.046912264 -0.06358861 0.08924019 -0.0019931784 0.05590347 -0.06441172 -0.023578884 -0.09138692 0.059605174 0.0012112713 -0.052251194 0.06800966 -0.09145298 -0.014716658 0.049215123 -0.004460152 0.10688887 -0.0033096755 -0.031558312 -0.047799625 -0.08227083 0.068454444 -0.04211932 -0.020576004 -0.09680885 0.06778697 -0.0737641 0.03683847 -0.04649127 -0.05707966 -0.06733539 -0.010535923 -0.019467127 -0.10766601 0.022998506 -0.0031027773 0.01982067 -0.0967057 -0.029413603 -0.01634663 -0.04799529 -0.008627773 -0.026968198 -0.06768719 0.0022015832 0.032554977 0.027848693 0.025504423 0.056145433 -0.13498327 -0.004571245 0.009811411 -0.11310289 -0.057588033 -0.026941752 -0.047140777 0.0037923746 -0.08579603 -0.029877521 0.083216555 -0.018584963 -0.066577636 0.062962316 -0.025449466 -0.057213955 0.0977107 0.11146319 -0.0040920055 0.028337477 0.013435756 -0.034811486 -0.032175247 -0.02748119 -0.10458383 0.005556931 0.11507504 0.0059490483 -0.017152466 -0.058953054 7.290125e-05 -0.040153384 -0.004519198 -0.04112313 -0.025087684 -0.038620193 -0.026441846 0.013555102 -0.09346895 0.084866665
BRCA2 0.13773413 0.06339739 -0.087553896 -0.054664098 0.26220107 -0.099797726 -0.121676475 0.09745336 -0.09020545 0.14894986 -0.1385224 0.012554392 -0.07859744 0.26774472 0.05295212 0.23777072 -0.15884212 -0.15106001 -0.03813237 0.106407575 0.16886947 -0.051587537 0.1262059 -0.027410442 0.07185368 0.118662596 0.031744495 0.15346436 -0.013781757 -0.2104524 -0.028781304 -0.061828405 0.30443493 -0.03610632 0.06469264 -0.14369845 0.29271245 -0.055678423 -0.06612876 -0.06698565 -0.19357286 -0.10456196 -0.07102788 0.084425375 -0.2829719 0.11042139 -0.11846276 0.07996477 -0.26828146 0.119116 -0.03353098 -0.031981327 -0.0827591 0.037509724 -0.12159578 -0.0023685838 0.11850016 0.1958302 0.11143678 0.15845591 -0.23815913 0.17686543 0.08293358 -0.09517828 -0.05462946 -0.08420388 -0.073728636 -0.1257417 -0.00933096 0.06744861 0.22237393 0.08378181 -0.071483515 -0.002972556 0.04506729 -0.071574904 0.29234713 0.07581165 -0.122426905 -0.03598531 0.2196011 -0.073804185 -0.16770041 -0.20218512 -0.07818233 -0.045526553 0.18432704 -0.04620672 -0.06311824 0.010912704 -0.07189452 0.06014261 0.17755033 -0.11979541 -0.014379773 -0.20305729 0.15370272 0.14609414 -0.16530985 0.10580379
BRE-AS1 -0.5254901 0.59655774 0.23622048 -1.900965 -0.43376774 -1.3696842 -1.1862006 -0.9353906 2.0271761 -0.9609566 -0.97586656 -0.66597307 -1.0439672 0.5263376 0.9796253 -0.61720747 1.3840765 -0.63849074 -0.8597067 -0.60307467 -0.28948385 0.3652713 0.7493321 -0.5591096 0.56335175 -2.433483 -2.8330994 -0.56545365 -1.5450335 -1.5997323 0.24666242 0.4668991 1.523921 0.21040426 -0.5871823 0.6478683 0.7936994 1.0472902 -0.6028738 0.76662844 -1.0216556 -0.67606604 0.5442727 0.5128778 -0.28312293 -1.9431865 -0.27272815 -0.9477585 0.94891244 1.2011255 -0.89522827 0.1754118 -0.535383 -0.74843335 1.8608782 -0.29658702 -1.4273406 -1.0215318 -1.695235 0.07787182 -0.31851748 0.64497447 -0.8925079 -0.70715326 0.27055725 -0.89154667 -0.5628062 -1.5304022 -1.514053 -0.4548416 -0.50501543 0.29202655 0.85087115 -1.6677804 0.8747951 -0.78883046 0.35954627 -0.65729815 0.85400814 0.6089804 0.35689175 -1.4029343 -0.8278687 1.2328053 -0.4589004 0.47699547 0.035113372 0.84942436 -0.743278 0.92395043 -0.7023324 0.23917907 1.1738169 0.49114096 -1.2819518 -0.54479146 -0.19830528 -1.2804097 -1.2779745 0.62097603
BTG2 1.5317489 0.41262695 -0.95354235 0.07664437 -2.6652083 -2.8856983 4.403216 -0.050651655 2.0080001 0.57936233 1.441498 -2.4413168 -0.35776594 1.8612536 0.5727176 -0.36385968 -0.9498332 -0.9133578 -2.532988 -0.91342294 -2.0690417 1.6458614 -1.6656575 1.335733 1.7745612 1.751898 1.6600125 -3.0582824 -0.74321675 0.7573771 1.2715552 -1.6990992 -1.6196123 1.1195364 0.91969323 1.2436225 -1.3845607 1.2217022 -0.7320377 0.82281494 -0.93956554 -1.424975 -1.513494 2.0585759 -2.2913523 0.032037355 -0.12645443 -2.0013466 0.7574517 0.54785746 2.288382 -1.2759336 -2.6963923 0.602384 2.5632832 2.0612564 0.8937896 0.05769966 1.0195042 -0.22482182 0.07105262 -0.650461 -4.1706195 -0.9155013 2.4176404 -0.7364008 -0.53731245 -0.10288872 -1.001599 -1.0218519 -2.4748383 1.1112806 -0.38898662 -1.0947955 0.3129176 -1.5580425 -2.5819676 -2.6746216 1.2118036 2.1211646 1.8814396 2.4718676 -0.37925148 0.60688365 0.9497282 0.9934788 -1.6562752 2.4624236 -0.033259872 1.8438458 -2.8290124 0.7052707 -0.35714152 -1.2790264 1.5519458 -0.7995301 -0.17008676 -1.9650207 -1.3233165 1.0924045
C15ORF48 -0.0011281868 -0.0020224014 0.0025672254 0.0005952015 0.0078074965 -0.013492582 -0.0229525 0.016210647 -0.044134144 0.009709266 -0.01901703 0.004655398 -0.003872939 0.026095532 0.032304343 0.00092973403 -0.0037125081 0.007123597 -0.021699827 -0.00095913076 0.011420341 -0.00083188555 0.03185358 -0.033350814 0.0128114205 0.006068653 -0.004865788 0.039940838 -0.0027106197 -0.024118535 -0.008893209 -0.010027234 0.0099952305 -0.009181945 0.0015576835 -0.004722355 0.012505532 -0.00415324 0.0042651375 0.004639553 -0.027087025 -0.010001605 0.005107183 -0.006708875 -0.01829162 0.007537851 -0.01866046 -0.010557651 -0.026315002 0.01965783 0.0035376365 -0.0019755168 0.010875468 -0.009963101 0.014918011 -0.0029856754 0.006808987 -0.0030375156 0.0072496394 0.011983213 -0.030257361 -0.0020320949 0.018231664 -0.006692192 0.0049553313 0.014730715 -0.013579422 0.0068682646 -0.011070859 -0.005169679 0.012187197 -0.011420827 -0.010168919 0.004627094 -0.028090963 -0.0034303684 0.01784154 0.062105577 0.0005421078 0.0035753981 -0.0072282683 -0.027650721 -0.021989238 0.00716926 -0.026969828 0.00019505457 0.0025294423 0.008215498 -0.0049308203 -0.019879332 -0.023038778 0.008234311 -0.0009471941 0.0022044082 -0.02440036 -0.00768627 0.0028160324 -0.018358741 -0.029980738 0.0004565898
C19ORF10 0.15305093 0.92815024 -0.19909762 1.3382181 -0.47867605 -0.19599986 -0.48680282 -0.9306176 0.22371079 0.6190906 -1.3918123 -0.48487416 1.1503147 1.0727602 0.8201511 -0.5395224 -1.1930999 -0.5102375 -1.1397508 1.0967842 -0.8987466 0.40804774 -1.5137694 -0.16069382 0.28912124 -0.96091026 -1.2156684 -0.9436311 0.42145848 0.115667544 0.057113487 -1.0349172 -0.72568107 1.6831665 -0.29364288 2.328546 -0.40323704 0.77490175 1.6938295 0.95501 -0.73816556 -0.1700847 -0.51011175 0.36580002 0.007549817 -0.74977785 1.9614414 1.9969677 -0.1185781 -0.8977144 -1.256947 -0.1831429 -0.3359136 1.7949564 0.8915054 1.6821527 0.13629551 2.0898333 -1.4308385 0.9745155 0.16796145 0.0028063147 -0.2688892 -0.8004747 2.5872066 0.35452926 0.14990571 -0.2648688 -0.15819643 -0.920854 0.0474564 -0.07601061 -0.57363874 -0.49508727 0.10444742 -1.2777064 0.56653225 -0.04853279 -0.051661633 0.53704935 0.08253226 0.35794693 -0.29363203 0.67381716 0.8651296 0.43409452 0.35413086 0.5457605 1.3544104 0.116542034 -0.5765808 1.608564 1.5136175 -0.75691795 -1.8661796 0.45778462 2.031199 -0.33333275 -0.05642363 1.6775149
C1ORF112 0.10968317 0.15300736 -0.15951933 -0.0034220023 0.046919074 -0.091096595 0.025895152 0.022614755 -0.11814126 0.06573939 -0.09901329 0.07679681 -0.061023444 0.116769746 0.015116245 0.11569659 -0.16694832 -0.007123013 -0.052527905 0.19113524 0.20129654 -0.08429477 0.067409724 -0.025204955 0.039706316 0.11626536 0.040435743 0.1289868 -0.057713814 -0.1623684 -0.084621064 -0.060412887 0.16402386 0.031092359 0.058581747 -0.1620942 0.14481519 -0.041971654 -0.025648525 -0.11498621 -0.14620225 -0.007492439 -0.048744794 -0.026493486 -0.23724037 0.057648696 0.028411914 0.051137313 -0.15036991 0.079158075 0.008074314 -0.059018333 -0.01428818 -0.029389549 -0.007793472 0.022595538 0.09841491 0.113657795 0.03364925 0.06977991 -0.21048938 0.058419008 0.053230226 -0.13072997 -0.072307825 -0.025766252 0.03050211 0.023349524 -0.042474046 0.02749742 0.041620206 0.111850284 -0.08143023 0.042035997 -0.014016666 -0.080682375 0.27690923 0.10378925 -0.09287616 -0.02637923 0.1049554 -0.118901975 -0.096360065 -0.14370532 -0.010239497 -0.010894197 0.13190293 -0.041625287 0.03613766 -0.022567507 -0.076988816 -0.022167424 0.036613513 -0.054822292 0.027457677 -0.039040912 0.074806266 0.07374885 -0.119273335 -0.012558485
C1ORF162 -0.049603622 0.7046644 0.034850754 -0.48916546 0.73008525 -1.4648036 -0.90888906 -0.061187997 0.9388406 -1.4374067 -0.9660818 0.28723717 -1.2131716 0.62974477 0.60219496 -0.37465787 0.30527556 -0.061666857 -0.81861085 -0.1532171 0.09349893 0.87832373 1.2011725 -0.64636827 0.8526431 -0.72679204 -0.7746549 -0.23698993 -1.3841155 -1.0686406 -0.14908843 0.36449978 0.9547004 -0.62355316 -0.5060675 1.0872697 1.6587467 0.54413694 -0.14534716 1.4503834 -0.9275717 -0.6768521 0.35833913 0.09270546 0.3612817 -1.2285727 -0.55152637 -0.7275389 0.44153538 0.91062313 0.18039484 -1.0984464 -0.3037685 -0.86547065 0.8852421 -0.51916975 -0.64710546 -1.2359095 -1.1399806 1.8798392 -0.4073733 0.4101581 -0.67855173 0.29858688 1.1567641 -0.63983035 -1.2482332 -1.165636 -0.973927 0.26123863 0.04594342 0.34125197 -0.18282942 -0.5593756 0.9864146 0.5300197 0.59590304 0.20348619 0.8258866 -0.06514016 -0.18458061 -1.0489389 -0.4961001 0.4816342 -0.5828997 0.30573532 0.3670139 -0.045075815 0.19739059 0.78713524 0.66838646 -0.14138941 1.5626823 -0.5934933 -1.0975021 -1.1561236 0.55333227 -0.61897546 -0.7860303 -0.13480614
C1ORF228 -0.13833728 0.077255785 0.21858023 0.24122363 0.7484442 -1.1082603 -0.38106593 0.50375944 -0.65079445 -0.055234138 -0.82705176 0.14277312 -0.41662407 0.6679365 0.20278698 0.38500983 0.19828834 -0.35571066 -0.52031076 0.29629552 0.60039765 -0.1605571 1.2576327 -0.68835175 0.13622636 0.12194811 0.049804777 0.75338554 -0.309368 -0.45785296 -0.4175811 -0.77558684 0.5612074 -0.9622585 -0.04824378 0.19792718 1.3246492 -0.47067744 0.0032519507 0.09382838 -0.28453404 -0.15920433 0.3948959 0.3451513 -0.69690865 0.051580787 0.011272457 0.22839892 -0.35514343 0.31095946 0.20863496 -0.3337291 -0.56989187 -0.48247385 0.014287533 0.033782966 -0.08739952 -0.48692074 -0.38655457 1.0188149 -0.6278585 0.04269496 0.31368235 0.13923413 0.42539442 0.011090349 -0.52127427 -0.8418255 -0.3401807 0.28512725 0.61448276 -0.1015418 -0.7508589 -0.27425575 0.33125782 0.06263977 1.1000166 0.7352546 0.1679069 0.3908804 0.31333354 -0.30835375 -0.598685 -0.13211274 -0.49650025 0.24815306 0.75526685 0.16479747 -0.5375445 -0.6366788 -0.67245483 -0.18543804 0.29398754 -0.6414574 -0.76520884 -1.0666572 0.11951957 -0.07071891 -0.82968575 0.70474327
C1QC -0.007906353 0.019371167 -0.0359316 -0.024808709 0.028854547 -0.13106455 0.04246656 -0.008161176 0.025695462 -0.078176975 -0.039897144 -0.002186475 -0.052687 0.004758384 0.035624668 -0.06428738 -0.043001875 -0.047020674 -0.053752407 0.023112595 0.008196853 -0.06879195 -0.08227873 -0.05985309 0.108936146 -0.07356222 -0.16140892 0.017103283 -0.011471554 0.0020373478 0.09814526 0.06995882 0.15183437 0.03724775 0.0073732934 -0.012722603 0.12876181 0.054944314 -0.012087756 -0.0259094 -0.0773471 -0.077646896 0.059105933 -0.031264003 0.014528172 -0.09025629 -0.030623144 0.068491995 0.15700795 -0.037997413 0.049733024 -0.050243996 -0.0016731003 -0.02888629 0.004027964 -0.016504671 0.051160216 -0.15693317 -0.028952936 0.15080102 -0.12830192 0.044346076 -0.08293189 -0.09049035 0.061914653 -0.05255669 -0.047863074 -0.02494582 -0.024179079 -0.07931862 0.03378412 0.037252903 -0.015297835 0.08879701 0.089208 0.04048415 -0.0063235248 -0.037344832 0.06711753 0.04597265 0.03443707 -0.011402672 0.07591954 -0.05137813 -0.006903304 0.07001531 0.029600935 -0.01770184 -0.015812464 0.04045642 0.029150829 0.011638424 -0.034563262 -0.042387817 -0.070612125 -0.08986222 -0.025924152 0.036219012 -0.046386227 0.026286203
C9ORF40 0.021540245 0.029302487 -0.01976963 0.010931364 0.040999405 -0.06255058 -0.0072104447 0.020161381 -0.06656463 0.0008716126 -0.030305766 0.028779106 -0.039702352 0.05233608 0.006736728 0.029684182 -0.03178538 -0.019542636 -0.056992475 0.023291504 -0.0042439816 -0.033203818 0.052198213 -0.057098497 -0.0061792796 0.02815517 0.00069360243 0.072238974 -0.0068591093 -0.02047401 -0.0347571 -0.050075002 0.033774473 -0.023813343 -0.011073929 -0.05189612 0.046215136 -0.04603116 0.015379108 -0.02456677 -0.036191665 -0.036822245 0.0014032924 -0.012562985 -0.06399082 0.015676359 0.0031796524 0.010629656 -0.057207942 -0.012964251 -0.007967671 -0.026772311 -0.0071906154 -0.021408956 -0.036835797 0.0062064324 0.017390553 0.0040557976 0.010299351 0.03556042 -0.082519144 -0.010550708 0.010957938 -0.05955431 -0.02095983 -0.012721958 -0.026002223 0.002966523 -0.05685959 -0.020589067 0.04967701 -0.015429504 -0.04382664 0.03240671 -0.01772083 -0.026964618 0.06183646 0.078894205 -0.002212242 0.024270033 0.0056584333 -0.020647656 -0.0242616 -0.011937468 -0.06665861 -0.0014291666 0.06659521 0.0057441397 -0.012670523 -0.03874791 -0.012259844 -0.025809444 -0.0012701688 -0.027503587 -0.021820847 -0.023492463 -0.02022469 0.00038410956 -0.060432307 0.0581785
CA10 0.0038451017 0.013902265 0.0020307903 0.054395646 0.062119864 -0.03835484 -0.00059519714 0.007664008 -0.015334969 -0.009743204 -0.016286973 0.026024345 -0.02470328 -0.0012334792 0.0057014013 0.035119247 0.010048555 -0.059965562 -0.09533362 0.016805802 0.013813833 0.008829728 0.125486 0.0013053123 0.027859375 -0.013815572 0.017061686 0.010562012 -0.060792957 0.004474931 -0.03753202 -0.0031524587 0.056212485 -0.051605474 -0.033934623 0.046398725 0.08909201 -0.020115582 -0.0014873492 0.018175092 -0.00394323 -0.025290228 -0.019864 0.024690196 -0.061810993 0.014918995 -0.0083547225 0.019575303 -0.0112191755 0.01702729 0.014027263 -0.037691887 -0.045382343 -0.059560113 0.024133064 0.020087155 -0.03842269 -0.0272088 0.007017714 0.043247644 -0.027355693 0.0133949295 -0.04231748 0.007897554 0.031490475 0.0033108294 0.0027957452 -0.06456233 -0.07275501 0.026833726 0.06711328 -0.03325938 -0.036842067 -3.525149e-05 0.010290681 0.033443063 0.089227885 0.058880176 -0.0094982665 0.0022994229 0.019128421 0.008888552 -0.016605524 0.008569067 -0.08102753 -0.0131759215 0.013848302 0.005747722 0.0072804894 -0.031621702 -0.046561368 -0.019270454 0.011814205 -0.016548453 -0.021992708 -0.017127974 0.06674943 0.00624979 0.005571804 0.008720182
CACYBP 2.3181713 0.5465689 -0.48876357 -1.397116 -0.24810426 -1.6040566 1.0083543 0.0020921442 2.19467 -0.9356781 -0.15801388 -0.48794362 -1.9193742 -1.0871075 2.605835 -0.49130628 -1.3421199 -1.9112184 -0.5425737 1.258071 1.0833513 1.2418038 -2.3755758 1.8588808 0.91466707 -1.9714658 -0.962854 -1.4799658 -1.6443516 -1.4121326 0.65259486 -1.1385775 1.7585777 -1.0655555 1.5299999 0.9648296 2.1120484 1.1149906 2.499418 0.35775742 -0.43264896 -3.303704 -0.13850182 2.3211944 -1.0090255 -0.22391337 -1.4649881 1.0150968 1.6045437 -0.009463776 -0.7556517 0.606637 -2.2598696 1.3134555 0.33406422 -0.43933833 0.11859817 1.2485648 -1.3336978 -2.0737855 -0.48950946 0.7420862 2.5043833 -0.54108715 0.15199536 -0.6199958 -1.6365381 0.36674362 -1.2159296 -0.845718 -1.6493968 -0.50218976 -1.6334716 -1.1242127 0.4427661 -0.91473246 -0.358928 -0.48324874 1.0727249 -1.9189725 0.930444 1.7100052 -1.0322114 1.7971935 1.6806737 1.1009701 -1.0604205 1.1552732 1.9145797 -2.6629643 -0.44428352 1.9217299 1.3578104 -2.451492 -1.0166118 -1.245246 -0.042718705 0.007839141 -1.1073756 2.057291
CADM1 0.12014034 0.08752648 -0.015468726 -0.0518042 0.21010226 -0.17117041 -0.11641081 0.06992876 -0.0677826 0.05622965 -0.15708701 0.057596643 -0.05508032 0.20396326 0.06688827 0.07985358 0.030220097 -0.16660607 -0.0720534 0.08705852 0.054290228 -0.0048230602 0.15093344 -0.10912195 0.09071021 0.09960767 0.0691277 0.12552825 -0.005897071 -0.12346982 -0.022755964 -0.018284889 0.15033422 -0.10767292 -0.032500207 -0.035595477 0.22314435 -0.023216411 -0.034283776 -0.019108947 -0.116957955 -0.20321894 0.033061508 -0.017737042 -0.222439 0.10291755 -0.043745913 0.0145965535 -0.17259915 0.14513116 -0.009688557 -0.05771179 -0.082772374 -0.07932467 -0.04369354 0.04640091 -0.00032273866 0.04097454 -0.034770634 0.14626575 -0.16478166 0.012702997 0.061925385 -0.004224335 0.13086699 -0.08911699 -0.092177644 -0.15737233 -0.13443442 0.09216521 0.19117992 -0.007973402 -0.09794479 -0.13801406 0.015526451 -0.026312783 0.23056436 0.110704914 -0.08745156 0.09689824 0.107829124 -0.020917559 -0.10074678 -0.08181347 -0.046820555 -0.11184849 0.20935433 0.04594139 -0.025439423 -0.07141673 -0.046248637 -0.038295127 0.0909504 -0.15527071 -0.055622175 -0.191997 -0.042594977 0.08456367 -0.17916606 0.13095699
CALM2 0.24267125 -1.0155438 -0.56717163 2.0067844 -3.0938218 -0.83008295 0.8145156 0.47881523 -0.8367838 4.4727135 -2.575939 -0.55347526 -2.4674995 0.6879785 2.3512778 -1.805507 -2.0329354 -1.5540465 -0.938955 0.23307756 -0.15436444 3.2234511 -1.9001772 1.76165 0.38538912 -0.7331546 -0.29091072 -2.4549532 1.4854381 2.856893 0.3909513 -0.8450677 -1.4425951 -1.5538943 1.202784 4.060905 1.0746689 0.96439177 1.4352058 3.0614338 -2.2280202 -3.7467403 0.45857665 2.2182972 -1.6694032 -3.2587447 0.65176576 -2.4530811 1.0692998 -3.364615 0.54143447 -1.5916988 -2.8561428 -0.07236749 -0.7520162 -0.9359946 1.8992332 1.696232 0.0432849 -0.7664403 0.16330445 -0.15143055 -1.4510084 -0.3068079 2.2120516 -0.42491257 0.77976984 2.1376626 -1.294605 -2.195606 -0.20814483 1.3464639 -1.4627347 -2.1356623 2.5957446 -2.9629679 0.10645636 -0.39644957 1.8315485 2.4642627 -0.40328756 1.4433817 0.8991961 -0.6964992 0.19872823 -0.92275673 -0.34910655 -2.4666932 -3.3682306 -1.1721354 -1.5512997 -0.7676353 -2.2527895 -0.8088424 -1.5019932 -0.08410932 -1.2605376 -0.6052869 0.6478343 -1.6100905
CALM3 2.1284661 3.3519604 -0.38909695 1.7973787 -1.7518485 0.6960711 1.427702 1.1826242 0.1565695 -0.0668192 -0.30989233 0.4170528 -0.5619822 1.3995565 2.061374 -1.1678007 -1.277496 -0.9499848 0.3104176 1.2975061 0.30005708 1.5562948 -2.2554505 2.2300918 0.7717851 -0.43350378 -0.21344516 -0.41393408 -0.35210073 -1.9804577 0.9796435 -1.1148478 -0.42603868 -0.3448326 2.456067 0.8587961 -0.24226607 0.7319407 1.431327 1.3366469 -0.84287244 -0.4285767 -2.342481 0.75886315 -1.71199 -1.7415837 -1.1986477 1.1240512 1.082626 -1.1026578 -1.1528594 -1.1994376 -2.096814 1.2034707 0.93008155 0.89285535 0.6884081 1.7959073 -0.9331018 -1.4153363 -0.87048197 2.1066542 0.63472855 -0.93251336 1.4863173 -1.043267 -2.4253504 1.1364372 -0.39980483 -2.083526 -0.7215718 0.40875095 -1.6172442 -1.5998577 1.1509475 -1.3836353 -0.16966636 -1.0339371 2.1382978 -0.51414084 1.2213141 1.0759006 -1.1713423 2.4005418 1.9975994 0.87710655 -0.7281864 0.8785495 3.116278 -1.5975724 -1.0119157 1.2652255 0.8540317 -2.183202 -1.1817216 -1.4915358 0.6800635 -0.80330896 -1.8882905 1.4794279
CAMK1 0.26495913 0.1591469 -0.18412599 0.09988516 0.39101663 -0.5442542 0.05791382 0.27426434 -0.41623378 0.09473963 -0.3016046 0.21554588 -0.180774 0.3608308 0.045631304 0.2702769 -0.17017256 -0.11060367 -0.21244842 0.3820205 0.25648972 -0.23643377 0.62891746 -0.44167405 0.006431395 0.23728147 0.04806318 0.51241606 -0.16810763 -0.28812847 -0.23570286 -0.35092166 0.70023876 -0.2814257 -0.07370362 -0.21704967 0.45872626 -0.13645801 -0.11235438 -0.085603595 -0.44084364 -0.22473167 -0.10714839 0.10216783 -0.6260817 0.0683586 -0.03863332 0.21071912 -0.35602477 0.33810052 0.14762406 -0.11969691 -0.20956771 -0.118711665 0.05003935 0.0083552655 0.06799418 0.15922712 -0.10046175 0.5238577 -0.7154421 0.33913586 -0.02003378 -0.21807711 0.036863726 -0.18552943 -0.094156064 -0.43249422 -0.09426106 0.07112196 0.5067933 -0.11321495 -0.22341561 -0.043144234 0.08945172 -0.12850082 0.94884145 0.16575396 -0.13943325 -0.10371074 0.35891098 -0.1309593 -0.01155572 -0.32886487 -0.35740525 0.24183996 0.32899487 0.07313422 -0.19054079 -0.23645274 -0.30548227 -0.113742545 0.06950043 -0.35706842 -0.13015838 -0.2434572 0.18787749 0.025880847 -0.4234869 0.237466
CAPG 0.7842084 0.5497492 -1.4389262 -0.72776866 -1.1758541 -0.29534256 0.57333416 2.537964 0.034663275 -0.04498893 -0.96630234 0.31867993 0.11953483 -1.2313523 0.3255217 -1.0839804 -0.8167097 -0.39589536 -0.46389225 0.29476148 -0.0191868 0.97694725 0.111677185 0.5496887 0.9590259 -0.48323986 -2.1806414 0.15901549 0.29270023 -2.315458 0.736265 -0.06476399 1.126727 -0.40995273 1.5249954 -0.33739573 -0.3858147 -0.06802171 -0.1294544 -1.2364895 0.7105731 -0.86546713 1.6398702 0.15937553 1.4746144 -1.527274 0.6016719 1.6626585 1.5329025 1.2474179 -0.6907858 -1.220214 -0.68184465 1.8197353 2.2994258 -0.71413547 0.64169765 0.16519244 -0.72026217 1.1509007 -0.63922656 -0.8051551 -1.2115736 -0.88631964 0.45545658 -0.93657494 -0.29280373 0.16981089 -0.8938352 -0.12039831 -0.8430655 -0.32532465 -0.6532667 -1.1021265 0.56448555 0.1652037 -0.5020632 -1.7477964 1.4645704 -1.0146099 -0.14041989 -0.13174562 -1.0398793 1.0953833 -0.34731987 0.69862056 -2.1120646 1.1638026 0.9231354 -0.2869785 -1.0452709 1.4884754 -0.012459428 -1.1654551 -0.68288594 -1.0427006 0.33420053 -0.38689148 -0.26015326 -0.32033038
CARD16 2.695938 1.3491462 1.0536677 -0.67707396 -0.6260729 -1.8350335 0.6941558 -0.5099149 -0.0012973169 0.51047915 -1.184225 -0.2900994 -1.1648971 1.560763 1.5069742 0.36728284 -2.350077 -1.2409586 -1.5237184 1.2331257 0.73471636 0.84935 -0.6596439 2.0847945 0.3912562 -1.2158933 -0.64480585 0.09491284 -2.0369797 -1.0219212 0.13245408 -1.7228619 -0.018326072 -0.7366223 3.4783988 0.055143334 -0.3543329 0.7584059 2.4503493 0.8370851 -1.0772973 -0.48484072 -0.88311225 -0.13711777 -0.9286195 -1.8487834 -1.5436836 1.7927339 0.19747253 0.34533504 -2.0986547 -0.27587888 -0.13157621 1.0621284 1.2356542 -0.52072364 1.1150473 0.58916634 -2.3196168 -1.8529774 0.0071131736 -0.2262472 1.9543822 -1.1245791 1.2612219 0.49499196 -0.26527074 0.8455917 -0.6587687 0.017375508 -1.5787504 -0.39926267 -0.030334504 -0.9109132 -0.23392831 -1.8153884 -0.2194526 0.8483282 0.075976305 -0.062469788 1.443132 0.07218476 -1.628053 2.1627722 0.72438115 -1.8305751 -2.8278792 0.8565736 0.87904143 -1.0883986 -1.2308303 1.6926641 2.0177085 -0.5221971 -2.709513 -0.0356874 0.7870438 -2.8692782 -0.7717525 0.1449658
CARHSP1 -0.8627083 0.14612707 -1.4547204 -1.3356172 -0.089608334 -0.153008 0.5957814 -0.41466507 0.3939915 -0.6047454 -0.41217354 0.15056346 -0.5334252 -1.1888025 0.49465877 -1.2824048 -0.8179208 -0.31769022 -1.355928 0.70082086 1.094549 -0.3417937 -1.1396103 0.375998 0.4902981 1.0800567 0.17833786 -0.62445223 -1.1105701 -1.6994724 -0.27083573 0.5041118 0.3620821 -0.784129 0.91800207 2.531014 0.23256171 -0.35147905 -0.10546687 0.44675267 -1.0841366 -0.39964733 -0.32441548 -0.44734776 -1.206644 -0.068501405 -0.1621401 1.0840244 0.94698334 0.30666512 -1.2922002 -0.40578583 -1.0945202 -0.31280175 0.5199481 0.7646924 -0.59923935 0.053159334 -0.4954567 -0.7211643 -0.44447488 0.35490158 -0.4600703 0.25917685 0.4250458 -0.29938605 -1.0316924 0.51935595 0.032588806 -0.2771037 -1.1152352 0.0038478535 0.27141726 -0.5701723 0.75048906 -1.0041677 0.04587704 -0.919017 0.7175194 -1.4327468 0.7721981 -0.74550265 -0.7451717 0.33794537 0.2101615 -0.5960551 -1.228304 0.8399619 0.7651118 -1.3456538 -0.467169 1.3431278 0.6631649 -0.88673747 0.38867816 -0.6201693 0.31887767 0.4080555 -0.76660156 0.38676554
CASC5 0.040448308 0.38618597 -0.29377815 -0.14476687 -0.07354981 0.007880152 0.161786 0.04120025 -0.057411496 0.0045117927 -0.08663032 0.01428346 0.03439667 -0.31858873 -0.12713067 -0.08805675 -0.2770051 -0.08527302 0.017871847 0.123486675 0.18154018 -0.17117864 -0.04978116 0.07184484 -0.0050407182 0.23885283 0.21521135 -0.055795886 -0.08316097 -0.50468117 -0.052926376 -0.049267 0.046259157 0.01681276 0.15799037 0.07422873 0.09238178 -0.03757787 0.017845685 -0.10912317 0.049074832 -0.21233132 0.05072368 -0.08103482 -0.40574515 0.005067462 -0.16616191 0.07669053 -0.031411957 0.14724196 -0.11522817 -0.29222167 0.013961236 -0.012723001 0.14853148 -0.08315414 -0.009943658 0.14267537 0.14609142 0.14412408 -0.14947289 -0.097109914 -0.16853414 0.13483654 0.15727067 0.18146364 -0.11695888 0.32832304 0.14696051 0.019155065 -0.2665311 0.018767713 0.07162174 0.17312808 -0.17706779 -0.13572651 0.12397427 -0.0024040937 0.02607453 -0.36018878 0.24328509 -0.10775443 -0.23258135 0.03030426 -0.13399002 -0.0053239157 -0.07510872 0.15438084 0.25838476 0.07139755 -0.14693727 0.40238646 -0.115498625 -0.18830387 0.19144689 -0.16339009 -0.006644838 0.09988772 0.040576812 -0.12178578
CCDC34 0.20416743 0.15519615 -0.10845155 -0.05556669 0.13329525 -0.13099605 -0.003763845 0.10847439 -0.21883462 0.10147819 -0.15833032 0.16497496 -0.16634445 0.28559792 0.016170643 0.16565914 -0.129496 -0.040713456 -0.0626691 0.21554667 0.29742286 -0.17113708 0.0873967 0.045371607 0.06725469 0.16104244 0.09467181 0.18758152 -0.035646904 -0.2200855 -0.06186279 -0.119269736 0.36991018 0.024003593 0.0370664 -0.27943859 0.21501943 -0.041562095 -0.009860869 -0.21149687 -0.1464208 -0.012711143 -0.024059614 0.13956569 -0.4029755 0.047164697 0.015661525 0.027409622 -0.21760997 0.13079245 0.0019982061 -0.017609257 -0.08310582 -0.00063654693 -0.16482888 -0.029787494 0.113838986 0.2788868 0.15581933 0.047547773 -0.27929953 0.0871454 0.09517882 -0.30310836 -0.09165519 -0.15086916 -0.034577478 0.016988521 -0.042790066 0.08580281 0.13306737 0.16897236 -0.029226206 0.079728216 0.010640079 -0.17539003 0.37972158 0.15351553 -0.14520967 -0.11114648 0.19285 -0.06434386 -0.11387593 -0.24861036 0.09561977 0.019776238 0.2974121 -0.011758006 -0.09371404 -0.039851103 -0.054841474 0.06306451 0.08077385 -0.13989456 0.04636468 -0.15737903 0.13074437 0.066136636 -0.17226239 0.0768164
