1000 100
A2M-AS1 -0.004272838499999999 0.054703885 -0.026159352 -0.026137518 -0.069868701 -0.058117492500000006 -0.06414091 0.011552964999999998 -0.01320024285 -0.05890043875 0.029017439000000003 0.015730783999999998 -0.01702923 0.08289058 0.049982131 -0.0107653435 -0.0358322865 0.0432928 0.037911411 -0.0045087700000000005 -0.0148401815 0.003810754999999999 0.11883418999999999 -0.042885321 0.11617013400000001 0.014888211 -0.026118633000000002 0.035618200999999995 -0.060878236 -0.0122453798 -0.007806672000000001 -0.055794049 0.012430582 -0.0278878985 -0.0410435215 0.014189264 0.003124929999999998 -0.0672749355 -0.032218996 -0.0071636798 -0.020297172500000002 -0.024985305 0.044102389 0.064709051 -0.011234371 -0.002071418000000002 0.0066659280500000005 0.016925968899999998 0.0184893075 -0.022441261500000004 0.00778014535 -0.025064259499999998 0.0369987763 0.057738173 0.0239496849 -0.03308693465 0.025686791 0.018184292 -0.07348488 0.068695966 -0.085325412 0.0918303125 0.038497197 -0.009589758500000002 0.053375202999999996 -0.00727914155 -0.0610561865 0.0461258925 0.014784190000000003 0.060306028 -0.032017577500000005 -0.04351719875 -0.0148293055 -0.081554422 -0.09692551999999999 0.07142575300000001 0.0337038321 0.0330140955 -0.020760527 -0.0343966845 -0.014454304500000001 -0.153187075 0.0178383415 0.011425686 -0.0510283475 0.031923362999999996 0.047684473500000005 -0.04573314 -0.061206182 0.029282044150000002 0.006585912 -0.03368190225 -0.016118166 0.012312629999999998 -0.0065473669000000005 -0.044708674500000004 0.027799142 -0.0014465300000000014 -0.0615413665 0.10593578000000001
ABCB1 -0.37704102874999995 0.27397508 -0.256182155 -0.30292544299999996 -0.06863395499999998 -0.3607996 -0.2345207225 0.143545608 -0.03205957999999999 -0.08110361199999999 0.026078624999999994 -0.18698458999999998 -0.26824285999999997 0.31855581 0.15025453500000002 -0.10074497500000001 0.03884614 -0.0496690875 -0.16431681 -0.0644408315 0.09930995635 0.270518099 0.258659945 0.13516502 0.332225325 0.176830995 -0.117461946 -0.06010717385 -0.13212573500000002 -0.41362573999999996 0.239008765 -0.2311760225 0.24175894250000002 -0.124876075 -0.36109611 0.034027840000000004 0.27186783000000003 0.10258897 0.054300134999999985 0.1360876435 -0.310037425 -0.02312581000000001 0.323276165 -0.09875063 -0.292153145 -0.37017496 0.160275119 -0.11238773999999999 -0.127143595 0.11310905499999996 0.39868032999999997 -0.1046399925 0.011633992500000002 -0.01880385999999999 0.30247840000000004 -0.276517245 0.24675528000000002 -0.201424032 -0.43125677 0.104881215 -0.193821635 0.2950333 -0.09100744000000001 -0.33934323 0.112965995 -0.16975037250000002 -0.0034955150000000046 -0.2186003285 -0.14088868000000002 -0.13719129000000002 -0.284044612 -0.100316545 0.18965229500000003 -0.176500145 -0.04158380499999999 0.1159861525 -0.058834585 0.05537050000000002 -0.0696317175 -0.35540949 0.22230771200000002 -0.164618005 -0.18505254 0.11275908350000001 0.246711377 0.33444662000000003 0.092792337 -0.15107660499999997 0.164319575 0.109172335 -0.0800081715 0.11315794 0.31846255 0.533889055 -0.06666958 0.11841677 -0.136148918 -0.058642860000000005 -0.28376615 0.143725665
ACOT7 -0.08984191000000001 0.29812251 0.371865365 -0.25198697999999997 -0.10603512000000001 -0.1739937 -0.041261589 0.21091581499999998 -0.369407765 -0.04056141349999999 0.03197175499999999 0.383461375 -0.29709167999999997 0.25258185 -0.008673385000000002 0.07467763999999999 0.193801952 -0.50952827 -0.074762845 0.33077341250000003 0.49057641500000004 -0.030228918 0.2994018565 0.320795505 -0.076713579 0.26443705500000003 -0.0016610449999999999 0.14280226499999998 -0.3967486565 -0.23134232200000002 0.386069255 -0.2323959225 0.112317475 -0.083554711 0.097917103 0.0053961791000000005 0.281602688 -0.022179085 -0.1091885215 -0.34730161 -0.22996696 -0.162011792 0.06736141500000001 0.29850083 -0.663553215 0.227386592 -0.0363005815 0.2232660605 -0.362205235 0.21254178 -0.265249685 -0.095561615 -0.0015223299999999884 0.077389845 0.35164702000000003 0.150520919 0.0027248849999999963 0.40956396 0.152297958 -0.082702675 -0.06037866 0.27166113000000003 -0.136380133 -0.16651907999999999 0.2737621625 -0.1762540014 0.27203331499999994 -0.30745654 -0.076720695 0.02297093 -0.124833365 -0.09178096 -0.24576148200000003 -0.12913664449999998 0.31538745 0.16148405999999998 0.542713915 -0.16877071 -0.004816250000000008 0.12336137 -0.08347459999999998 -0.016118959999999988 0.02610816315 -0.310392615 -0.0810580165 0.349090557 0.06821022 -0.14360962500000002 -0.45740959999999997 0.240564907 -0.35495665 0.40109633 0.4311636 0.14154591000000002 0.19983734799999997 0.089924695 0.0570296649 0.14409466185 -0.57199182 0.18449668
ACP5 -1.26180085 0.055167964999999985 -0.50282687 -0.37598482499999997 0.550105325 -1.19363345 0.530113539 -0.12218695000000007 0.21017815 -0.45299605000000004 -1.2016886 -0.682284635 -0.7338773000000001 0.67039105 0.66424255 -0.6725159940000001 -1.15896302 -0.790417565 -0.799693654 0.9486236 0.6303408800000001 0.606251385 -0.35885091 1.10545385 0.454854035 1.3470423200000001 0.7498011499999999 -0.3132998415 -0.14690024 -0.3196613 0.41503299185000003 -0.21929265250000002 0.8873629199999999 -0.140835678 -0.40287598999999996 0.856548045 0.15546194 0.5702904 -0.0727938175 0.8516610849999999 -0.98697325 -0.84180775 0.25167955 0.20077569499999998 0.0412111285 -0.88986155 0.67781369 -0.3490734 -0.34049721999999993 0.8388383699999999 -0.57498635 -0.380121425 -0.09724951500000001 -0.6345432550000001 0.31637787999999994 -0.12237509999999996 0.840033915 -0.052492205 -0.9887929149999999 -0.400580545 0.02696446500000005 0.241837255 -0.429294695 -0.0764303125 1.0365594 -0.6050750250000001 0.99512225 0.014813999999999994 -0.33725079999999996 0.582373205 -0.81150632 0.63019987 -0.50698017 0.55359818 0.8074311 0.30639536300000003 -0.1391343115 -0.293815025 0.067788655 -0.21840815000000002 -0.21531006500000002 -0.09670168000000001 -0.246249998 -0.04042879999999999 1.1761224000000001 0.04302499999999998 -1.3439214000000002 -0.0682315 -0.15002618 0.21852352000000003 -0.59966718 0.356915592 0.19599879999999997 0.09068057000000002 0.685557 -0.325317311 0.11453686499999999 0.1102854665 -0.377582125 0.873420935
ACSL1 -0.149528145 0.262486785 -0.079790182 -0.111784214 -0.020050849999999995 -0.21903025999999998 -0.108628475 0.10331186 0.007047439999999995 -0.1388142325 0.044255264999999995 0.09958350500000002 -0.170466535 0.170534595 -0.047225878 -0.05175824650000001 -0.071868015 -0.133734176 -0.0457262985 0.1288771125 0.057207442 0.176003425 -0.03535266249999999 0.0616778285 0.1030251285 -0.018062945000000004 0.0130865685 -0.013729205499999998 -0.17975375999999998 -0.1478084705 0.22357485800000002 -0.060721113265 0.18258016 -0.028594681 -0.158668685 -0.0373355585 0.1283082435 0.06180507 0.1541371245 -0.021921123 -0.038921335 -0.014461235000000003 0.043224305 -0.06567395100000001 -0.09317818900000001 -0.08716209999999999 -0.0433100005 -0.019520085 -0.102138145 -0.036768600000000005 0.139406555 -0.05932601 -0.018240624999999996 0.0006282444999999998 0.050938230999999994 -0.0976527515 -0.07057851999999999 0.12064922 -0.128080835 0.166636295 -0.013784886500000001 -0.0247754435 -0.141546845 -0.18104266 0.093609625 -0.1149397275 -0.04441049 -0.14522731900000002 -0.16959373 -0.015958308499999997 0.004265543 0.07554464 0.013947159 -0.0962657653 0.117362495 0.02201855500000001 0.141749935 -0.09531409499999999 -0.0186613154 -0.144786548 -0.020571502499999998 -0.053577568000000006 -0.00570705 -0.08183123 -0.074050962 0.040800386 -0.039001825000000004 -0.08316318 0.011319696999999997 0.16433013999999999 -0.049321845 0.194942885 0.1193376265 0.17253713599999998 0.18788526 -0.09439649750000001 -0.036477043 0.0259067782 -0.096678547 0.0016278978
ACTB -0.345025285 0.93163205 -0.33133034 -0.402138895 -0.12678627000000003 -1.1765229000000001 -0.569505425 0.37360399 -0.270248675 -0.46183452 0.24438015000000002 0.3172546 -0.533361375 0.862258 0.37256009 -0.58240384 -0.260394136 -0.5980892250000001 -0.16222498 0.77885455 -0.05324599500000002 0.7333792349999999 0.14121039999999996 0.42570305 0.998679615 0.150962535 -0.429343665 0.273983785 -0.5995953700000001 -0.6284204400000001 0.48979371000000005 -0.39202647999999995 0.261621125 -0.67091195 -0.004790700000000009 0.34914000500000003 0.288023885 -0.46425254 -0.24564016 0.926629025 -0.5500577499999999 -0.44253653000000004 -0.13700324 0.6151621199999999 -0.984450125 -0.06546147499999996 0.273756135 0.04372620499999999 -0.32848459999999996 -0.24113268999999998 0.14919724 -0.6379381 0.3187452 0.12184166500000002 0.41711927000000004 -0.257313535 0.131973845 0.18315305799999998 -0.55872846 0.76898003 -0.8509009 0.297672685 -0.038318615 -0.9163164500000001 0.20582061499999998 0.089328825 -0.30101888000000004 -0.202733122 -0.7388053800000001 0.40579286 -0.580293589 -0.227464353 -0.8245231500000001 -0.399474325 -0.377105794 0.63368312 0.44639261500000005 0.195242318 0.30100356 0.062362360000000006 -0.005401795000000015 -0.35606408 -0.53726505 -0.07862370999999999 -0.38249811499999997 0.22947296 0.40119760000000004 -0.39623578 -0.34238424999999995 0.227367555 -0.147515822 0.176593355 0.591658825 0.05843910000000002 0.09722025000000001 -0.2980083135 0.53906264 0.21045621 -0.681314365 0.8081899699999999
ACTG1 0.2940309 1.88362395 -1.119038025 -0.77599751 -0.501042525 -0.87115158 -1.06458535 0.9212819699999999 -0.92387699 -0.37977076499999995 0.18280474999999996 0.9549516149999999 -1.121575475 2.00806145 1.73537052 -1.38262615 -0.68021785 -1.0872891999999998 0.040467765 1.9438142 0.7258823649999999 1.25773912 -0.032906679999999994 0.83255933 1.05322628 0.9103808999999999 -0.5810076500000001 -0.6458232500000001 -1.2192913 -0.58437625 0.91584232 -0.48098090000000004 0.33013785 -0.3467390000000001 -0.17530835 0.21418849 0.37966285 0.6018332850000001 0.390041227 1.228090515 -1.55178405 -0.708564715 -0.26812936499999995 1.11193255 -1.0237742 0.6960518 -0.2295872375 -0.13765655 -0.38011209999999995 -0.58056255 -0.18501879999999993 -0.9974388000000001 -0.56033572 1.36731205 0.81254557 -0.7570490200000001 1.24592555 0.9410298 -1.2295098 0.156681485 -1.11716211 1.444538 -0.40068170000000003 -1.5102232999999998 0.47459765000000004 -0.35946705 -0.25172284999999994 -0.773707305 -0.36447655999999995 -0.20767563 -0.85173185 -0.13655095 -1.9461326 -1.1218476 -0.3306253 1.319359025 0.08918195000000007 -0.385280245 0.795137615 -0.3092537 0.314199425 -1.1818156750000002 -0.90877293 -0.3538920300000001 0.33680811 0.03387017000000003 0.277715398 -0.6723388 -0.7163723 0.6456011075 -0.93006625 1.18925325 1.2615922849999999 0.02546045000000008 0.602346825 -0.71965756 1.1981154 -0.134278155 -1.543780165 1.7217105
ACTG2 0.021426415000000004 0.046966904 -0.016274105465 -0.10537089999999999 -0.01424406505 -0.093189949 0.0171201097 0.0092626867 -0.069459288 -0.043941615 -0.0761909875 0.0602233425 -0.059427814999999995 0.1367331 -0.009877979999999998 0.037504535000000006 -0.0796309515 -0.09452636 -0.029032041 -0.009870119499999998 -0.0011720135000000001 0.038128584 0.062441219000000006 0.005181219499999997 -0.007136237 0.128908575 -0.010845834000000002 0.003943515000000002 0.011748769000000001 0.086030755 0.119103612 -0.0044101155 0.049901109 -0.09019626095 -0.077137127 0.035644787000000004 0.057393725 0.09469792499999999 0.00016539499999999874 0.0390448705 -0.013968495000000001 0.019805514999999996 -0.0266826065 -0.0471452688 0.024356721 -0.061556491500000005 -0.10236566999999999 0.0240214933 -0.05270340849999999 -0.016140904850000002 -0.151795585 -0.109379265 0.0175051975 0.023220534 0.13284421 -0.118514755 0.0664718115 -0.0035391555 -0.12895628 -0.00404635585 0.026522727000000003 0.045350561 0.10681906 -0.1794239 0.01149521375 0.059277306499999995 0.0006942284999999979 -0.004401156999999999 -0.0027986669999999977 -0.0279504578 0.039421491 -0.0683373665 -0.1019606025 0.037914411999999995 -0.07361271999999999 0.0025183800000000006 -0.016196130000000003 0.008716055 -0.11890905 -0.013165472000000001 0.0013018575000000032 0.029833201999999996 -0.048879602999999994 -0.041291744 -0.0336893005 -0.0472265635 0.0213421245 -0.0787468805 0.08876427349999999 -0.09255056449999999 -0.019209398000000003 0.116246452 0.080499512 0.026532215999999997 0.11725783249999999 -0.12992525500000002 -0.047774830000000004 -0.1203830875 0.028722591999999998 -0.0175887935
ADAM12 -0.01161916015 -0.0034383914999999996 -0.009330351 -0.015677916 -0.0131728095 -0.02501789 -0.01361988025 0.0138841715 -0.0187360551 -0.0060823167 -0.007789811000000001 0.0017746684999999998 0.0020917685000000005 0.01657560125 -0.004199917499999999 0.004882611350000001 -0.0024238244 -0.011139043 -0.0013893939999999987 0.00938286885 -0.015135819499999998 0.00972818485 0.01880062665 -0.009142068 0.0230868565 0.0004884587 -0.0127494265 0.02549072885 -0.0007071427999999999 -0.00730595225 0.0020725685 -0.01403678035 -0.007577671500000001 -0.0191063585 0.015479698499999998 0.0003880024999999999 0.016329001500000002 -0.044016015000000006 -0.027434547 0.011146877265 -0.0191890325 -0.013002743 -0.004793526000000001 0.021214102500000002 -0.023492458 0.00966233 0.015646860999999998 0.009775520999999999 -0.0166432417 -0.007798426150000001 -0.0087020437 -0.0055454823 0.013701373499999999 -0.014309168685 0.011808301600000001 -0.0063511431499999995 -0.0056435418000000005 -0.0074315199 -0.010000216950000002 0.027532192 -0.032899636999999995 0.0104625988 0.01661321675 -0.034510702 0.0057594395 0.0094763884 -0.0210549115 -0.0036608074000000004 -0.029306489999999998 0.0122284067 -0.0066931000000000004 -0.0196970885 -0.018760335500000003 0.015658194 -0.019990265 0.024784996400000002 0.013389284000000001 0.035607682 -0.0046662779 0.011490820050000001 -0.012632818 -0.006148193 -0.00662764432 -0.00644478695 -0.0292901635 -0.0065657694 0.0367194525 -0.008455771649999999 -0.004695918215 -0.0232046775 -0.0116893655 0.0004127515 0.012385674650000001 -0.006689734000000001 -0.0123079325 0.006972161499999999 0.010421711 0.0174674823 -0.0157040881 0.0241135775
ADAM19 -0.25528165 0.380663635 -0.011480970000000007 -0.06372966984999999 0.06948906499999999 -0.48323755 -0.1259056695 0.28713882 -0.21278313199999999 -0.19619505 -0.06704267000000001 0.16058418000000002 -0.139952565 0.359918595 -0.002091585000000007 -0.199616315 -0.025775315 -0.18810470499999998 -0.288307365 0.241370122 0.15617407 0.43799653 -0.0018753200000000136 0.056263802499999994 0.3973028 0.21237718499999997 -0.07608852675000001 -0.049432367500000005 -0.39556601 -0.274184475 0.4411610165 -0.43978569 0.31683085 -0.027151600000000026 -0.29602797999999997 -0.169217585 0.447413945 0.01957057999999999 0.260205095 0.04268203649999999 -0.41764339 -0.19361978500000002 0.228845426 7.675000000012533e-06 -0.33230924500000003 0.050405969999999994 -0.353675085 0.0649872395 -0.390478215 0.106182415 0.128188513 -0.25885143 0.015807799999999997 -0.06754247499999999 0.108514185 -0.35366987 -0.10647179400000001 0.09050088499999999 -0.203211095 0.36436700499999997 -0.026040755 0.34293087 -0.18416685 -0.693124 0.190592255 -0.40884523 0.10446901 -0.43626445 -0.1455659 -0.08883342500000001 -0.38769915 0.10445379999999999 0.126429773 -0.2167314352 0.359713975 0.27531922750000004 0.392795975 -0.06568109999999999 -0.215196275 -0.369101365 0.157156395 -0.213634465 0.234293265 -0.11798958500000001 0.087933585 0.14474853 -0.1376853375 0.02752071725 -0.06910659350000001 0.355054965 -0.262432975 0.68595955 0.38847509 0.233317985 0.30015498 0.11833484000000002 -0.12694971500000002 0.048896775 -0.41631995 0.0611033
ADAMTS6 -0.018219602999999997 0.0005320105 -0.01098175525 -0.012111008 -0.018929788 -0.034129282500000004 -0.0073073033999999995 0.0077104967 -0.0198724655 -0.019268086499999997 -0.0118153408 -0.00789764855 0.006293567 0.006351802499999999 -0.011013928999999999 0.007158375799999999 -0.00106673185 -0.010938462999999999 -0.009562191000000001 0.012480092 -0.026823 0.011823655 0.042005472749999995 -0.0057632425000000015 0.030831832 -0.0063606643 -0.0053548218 0.021185865999999998 -0.010000685 0.003451714 -0.007516667999999999 -0.021034116000000002 -0.0142697236 -0.028475899 0.022140573 0.019687515 0.022876536000000003 -0.064027483 -0.034413357 0.019759915 -0.0219491315 -0.01715728725 -0.0088186155 0.030355562000000003 -0.038104541500000005 -0.003748013999999999 0.0166941997 0.0208632945 -0.027391166 -0.00710451625 0.0035694745 -0.008721451 0.010216442999999999 -0.0221132517 0.0229972065 0.0042039174999999995 -0.0172498695 -0.0117023765 -0.019828501999999998 0.039241617 -0.0465835145 -0.0051685059 0.01712452225 -0.0265460418 0.0068963229 0.0189724035 -0.027968916 0.0015197090000000002 -0.0443103205 0.0276665968 -0.0126965 -0.024779396000000002 -0.0188904615 0.02059469 -0.020633113 0.032560413499999996 0.018815515 0.0499049685 -0.010832815999999999 0.020866147 -0.019490583 -0.0101250235 -0.0138523955 -0.0018440474999999999 -0.03387284735 0.0019132056499999999 0.0425144605 -0.015882662000000002 -0.00770459165 -0.044458146500000004 -0.009246255 -0.011324134999999999 0.013382136499999999 -0.008011492000000002 -0.0101647427 0.0161607988 0.015598674 0.0182297594 -0.025282402 0.025740813
ADTRP -0.11554444750000001 0.378966245 0.043042065000000004 -0.13997145 0.06776521499999999 -0.19658019499999999 0.099964 0.1518920775 -0.096701045 -0.194834289 -0.027950735000000004 0.12979784 -0.015576874999999997 0.2883585615 -0.050289085 -0.089413815 0.17363529 -0.289773725 -0.2415010155 0.31571521999999996 0.07917376999999999 0.125617965 0.008200660499999998 0.354867015 0.19131744 0.39621916749999997 0.003865153885 0.0309912585 -0.23150590199999999 -0.22161041 0.06507309 -0.14914342 0.162138735 0.059585515 -0.073408246 -0.07373409 0.32262491 0.15804599549999998 -0.012915945000000002 0.15831077500000001 -0.27312815 -0.03158092999999999 0.04686749500000001 0.026489996999999994 -0.476648265 -0.014001416999999999 -0.01920641025 -0.057748975699999996 -0.39400319 0.19886140499999996 0.117032357 0.07339759500000001 0.028470703000000003 -0.26150870000000004 0.34730764999999997 -0.20951541499999998 0.10289140000000001 -0.014813495000000003 0.05246995500000001 0.0099027 0.045324983 0.068088031 -0.028885019999999997 -0.125042425 0.4105448 -0.3183984 0.17429730999999998 -0.38260805499999995 -0.12420542500000001 -0.11946218 -0.17741366 -6.229999999998737e-05 0.001975234999999992 -0.11213500500000001 0.345069395 0.39390183999999995 0.1555414 -0.06323514 -0.045869797500000004 -0.0583870485 0.076642445 -0.1020015362 0.030001397500000002 -0.123160425 0.15136154000000002 0.10645525 -0.049332804 0.139817255 -0.1418867375 0.09411316 -0.10451124400000002 0.372606305 0.25318145 0.274786685 -0.0906014255 0.095398335 0.089669335 0.0061857477999999995 -0.36119811 0.222567665
AFAP1L2 -0.021662008 -0.10307201899999999 0.084938877 -0.024158754999999997 -0.01032849999999999 -0.2271202 -0.0233442385 0.168289142 -0.0940177625 -0.112225126 -0.046634602 0.06977772125 -0.064305483 0.134844105 -0.12276279350000001 0.030165281 0.0797356785 -0.1152145095 -0.041167524999999996 0.171599695 -0.043149617999999994 0.06665341500000001 0.156982163 -0.126874865 0.1355506765 0.038310713999999996 0.025554794500000002 0.1590084195 -0.082423833 -0.058307080000000004 -0.050239355 -0.11839186349999999 -0.13605376000000002 -0.15941778699999998 0.016965975 0.034546447 0.127430455 -0.305284265 -0.18206921750000002 0.07643111300000001 -0.11144166 -0.07765543 0.10702072 0.2476866865 -0.24870492 0.022042324999999995 0.13769907 0.13509672 -0.134422505 0.0251145815 -0.151343045 -0.11748161299999998 0.19821066 -0.080428095 -0.0305581 0.02139300999999999 -0.09198023000000001 0.004941101999999996 0.00027150000000000785 0.18103109 -0.29899859 0.128110303 0.129178357 -0.2179732865 0.18330021999999999 0.017383154999999997 -0.0930776915 -0.158209565 -0.08798991349999999 0.026880690999999998 0.03289364 -0.19951347 -0.06997698000000001 -0.0688983305 0.0793088225 0.174948385 0.197060287 0.133121245 -0.0304652875 0.08922468354999999 0.019895692000000003 0.096328077 0.002123412499999998 -0.14329096 -0.1414780275 -0.0035347434999999996 0.174547845 -0.10482247650000001 -0.16185179 -0.208994935 -0.193212685 -0.021790938000000003 0.12103615 -0.0027089600000000102 -0.13516593999999998 -0.023001714999999992 0.023370852 0.1684804632 -0.2151135425 0.267318645
AHI1 -0.40704851 0.28215749 -0.48338588000000005 -0.21371936 0.20467751 0.04986617 0.1342112935 0.2302181215 0.198041175 -0.37922647 0.11583502000000001 0.038926425 -0.356091615 0.248178915 0.24163787800000003 -0.29888256300000005 -0.20673724500000001 -0.1158766715 -0.133459255 0.19816947499999998 0.12563657499999997 0.185222635 0.06278877 -0.157509435 0.001458130000000002 0.356216925 0.18680457999999997 -0.46226482 -0.05231735499999998 0.05646567000000002 0.114981955 0.22767965999999998 0.27111144 -0.377202519 -0.36760934999999995 0.47225026999999997 0.08329842500000004 0.344323 0.234023344 0.162392115 -0.0009885965000000002 -0.03905462850000001 0.15661763499999998 -0.08841221500000002 -0.257283625 -0.530083685 -0.126056895 -0.08670412999999999 -0.1426279 0.301375045 -0.05200738499999999 -0.200128435 -0.36743407 0.216103465 0.466685585 -0.46028445 0.31402693000000004 0.010171284999999995 -0.62894732 -0.037276000000000004 0.18901471 -0.20158802750000002 -0.416898395 -0.08540930499999999 0.25599725 0.026122595 0.440538745 -0.258503365 0.033569687 -0.10976298699999999 -0.38601019999999997 0.05073487 -0.32447290500000003 0.14796831800000002 0.366524775 -0.254292725 -0.328370278 -0.2828123 0.018949959999999988 -0.222568675 0.20393797000000002 -0.38131907499999995 -0.25760728699999996 -0.1262969115 0.322742895 0.1666111135 -0.2057813237 -0.16329104000000003 0.200609615 -0.48170812 -0.24378788 0.032544085 0.43549209250000004 0.28635841500000003 0.367773755 -0.008684283000000001 -0.01641036500000001 0.093794665 -0.47811231 0.09888763500000002
AHR 0.15249801 -0.258808033 -0.71031365 -0.02148142 -0.21799862499999997 -0.78102188 0.05920873 0.63116702 -0.0473654 -0.3648749875 -0.233893625 -0.26572624499999997 -0.2010136 0.42306568850000004 -0.072631465 0.05763917649999999 0.29202651 -0.6433565 -0.11379098550000001 -0.032636835 -0.08154732 0.7793863249999999 0.013257199999999969 -0.11588051000000002 0.338407425 -0.267827744 0.25076787500000003 -0.406781465 -0.7064438264999999 -0.05666157499999999 0.39022336999999996 -0.21899939000000002 0.6671712999999999 -0.479948325 0.325307875 0.1615709065 0.10275261999999996 0.40968214999999997 0.452541985 -0.31568904000000003 0.18727811 0.26730669 0.72543425 0.02429814999999999 -0.41648400500000005 -0.183006465 -0.60639615 0.30711486499999996 0.09015965000000001 -0.66200697 -0.544747061 -0.80695012 0.22864650999999997 0.5619688399999999 0.15458081799999998 -0.2257167475 0.22105051500000006 0.759918525 -0.53063495 -0.15497869 -0.60909535 0.391775535 -0.938972895 -0.79251995 0.339566035 -0.01176102499999998 0.06864862499999996 0.18057559 -0.1811532395 -0.326611345 -0.12614523 0.5886194410000001 -0.8483065300000001 -0.64318853 0.6248087 -0.22223121 -0.6288878360000001 -0.5324778 0.03635792500000001 0.308702625 0.5208032 0.029064735000000008 -0.53184469 -0.390267759 0.66580383 -0.26468275 -0.67992486 0.06730522 0.16335075500000001 -0.5794910849999999 -0.237057305 0.225573398 -0.106663965 0.03856647499999999 0.839432745 -0.58444825 -0.12466523800000001 -0.807250375 -0.856281987 0.21220724000000002
AIF1 -0.13749875165 0.19905348 -0.28732312 -0.18001388999999998 0.24485737000000002 -0.078716125 0.12070113 0.210629815 -0.040529319999999994 -0.211992315 -0.25537188499999997 -0.0341522875 -0.1526857075 -0.022468144999999995 0.033696935000000004 0.00951024000000001 -0.16249204 -0.181769065 -0.11928295 0.037384993000000005 -0.2350126065 0.18069509 -0.22599097 0.155008625 0.436747105 0.184422682 -0.02947577500000001 -0.09614540199999999 -0.042667637 0.06337175499999999 0.33540182 0.21945923 0.276089275 0.08789561 0.14110773499999998 -0.07885933 0.2499811 0.170715875 -0.0489543915 -0.13729847555 -0.267993405 -0.11561758 0.08596588699999999 -0.08787198499999999 0.020883898600000003 0.20136435999999996 -0.0172644825 -0.06193272500000002 0.25135383 -0.18868290999999998 0.22512751 -0.425178855 -0.006067219999999998 -0.0625566405 0.15275841 0.18668080199999998 0.167359765 -0.285303235 -0.1012440565 0.1668067825 -0.17196800950000002 -0.0019997480000000026 -0.38714355 -0.223224325 0.12302863 -0.0031758149999999985 0.07930375499999999 0.204310215 -0.1445346 -0.231676665 -0.15454237 -0.0328875975 0.0941718485 -0.01409639 0.27434218 -0.082230788 0.045148735 -0.203870895 0.10851389 -0.070819412 0.037830081 0.14609538 0.02220594015 0.11369485 -0.056038607000000004 0.23799251500000002 -0.20320171999999997 0.012155448 0.01240774 -0.1254774 -0.015538944999999998 0.223035012 -0.22761135700000001 0.12911214499999998 0.06403940999999999 -0.22531672649999998 0.151755385 0.040754293999999996 -0.003808372499999997 -0.031452425000000006
ALG13 0.014783249999999998 -1.0050955 0.0023248949999999935 -0.05084907999999999 -0.7162112 -2.1051742 0.3907233 -0.38121452499999997 0.655262705 -0.412237685 -0.21833864 -0.192627212 -0.39105822 0.054411955 0.09714765000000003 0.31279086 -0.08765866999999997 -0.18358209999999997 -1.32626775 0.1957820425 -0.02714388000000001 0.81574153 -0.44471636000000003 -0.25372367500000004 0.63364743 -0.0419119 0.068435 0.08949043000000001 0.10842886700000001 0.04773430000000001 0.280548405 -0.391423915 -0.18085754999999992 -1.49413876 0.17870980000000003 0.482433935 0.713379685 0.83176975 -0.99310215 0.7690730800000001 -0.65029325 -0.40705089000000005 -0.444747625 -0.75621385 -0.9922356999999999 -0.562811425 -1.4163995 -0.414962735 -1.41148667 -0.6440250000000001 -0.5753522500000001 0.12692620000000002 -0.0480679 0.417917445 1.07352045 0.58743865 -0.041720598 0.528720715 -0.73859304 -0.68588406 0.33596238 0.109785835 -0.9603146199999999 -0.38347252499999995 -0.601364925 -0.501854735 -0.21312152499999998 0.8555161895 -0.73492152 -0.734542 -0.7397382699999999 -0.22615578999999997 -0.010625869999999982 -0.335273905 0.031493610000000005 -0.6960158949999999 -0.2102505865 -1.0148544849999999 0.5948894650000001 0.25432281999999995 0.68486042 -0.24696189749999997 0.09341279 0.09900025000000001 -0.49654154500000003 0.787932935 0.50014244 0.67232331 -0.51508695 0.753775 -0.08238244 1.33806925 0.8639227249999999 0.25988919999999993 -0.16774489 -0.40214583499999995 0.9207842 1.1772831 -0.47063880999999996 0.0066324750000000265
ALOX5AP 0.18354008000000002 -0.13863566249999998 -0.5730324 -0.42452464999999995 -1.226741775 -0.20208330000000002 0.69167987 1.463474 -0.70761955 0.45626596999999997 -0.8556421000000001 0.13135619999999998 -0.363877015 1.214671625 1.80583495 -1.68175135 -0.5856260799999999 -1.4726165 -1.3776646000000001 1.3694500500000002 0.28005066 1.6267268499999998 -1.05869357 0.836305445 1.1037371999999999 -1.3612754 -0.8641329 -1.6880125000000001 -0.9873849299999999 1.5925164 0.9308349 -0.49108113 -0.8185933999999999 -0.47937785 1.32423893 1.048695507 -1.11270515 1.02313775 1.1813363959999998 0.8466635699999999 -0.6131411099999999 -1.1526154 -1.38793255 1.90335355 -1.42637672 -0.3347239145 -0.71029855 -0.10480060000000013 1.7334795 -0.759011388 -1.059086645 -1.8126736 -2.37975035 1.26468505 1.4907073 0.74204936 1.2534703649999999 1.5245654 -1.21286165 -1.235327525 -1.3458071500000002 0.55602092 -1.267462545 -0.34348714999999996 0.7103391 1.09765251 1.3450721625 1.163575525 -0.31392519 0.32414399000000005 -1.34482605 1.8501085499999999 -2.74401105 -1.10214737 0.380439085 -0.14812593 -1.26705495 -0.86025255 0.7082467800000001 0.7958242735 1.41452555 -0.24592335499999998 -1.8657045700000001 -0.83303465 0.248317185 0.14351679499999997 -2.28701005 0.9534541999999999 -0.80728713 -0.638156952 -0.5318706 1.9285632499999998 -2.3358102499999998 -1.89124345 -0.448610585 -1.20400617 1.6920029 -1.3001971499999998 -2.3454597 1.67374175
ANKRD28 -1.073641125 -0.10665819999999998 -0.874153125 -0.8780442 0.70164312 0.21106343500000002 1.1154815500000002 0.2111497 -0.46024421000000004 -0.8629001749999999 -0.501357705 -0.70541797 -0.72174025 0.47499250000000004 0.91535137 -0.670262785 -1.15455573 -0.90820143 -0.9150282 -0.57585234 -0.6266953900000001 1.10246318 -0.588739055 -0.011053674999999985 0.648098965 0.83083275 -0.2675198 0.1370495 -0.85981256 0.5969989 0.55686645 -0.17612241 0.844582975 -0.17461021499999999 -0.05750222500000002 0.8726534300000001 0.36827867 0.462353155 0.76717055 0.16164804 -1.18315726 -0.42983253499999996 0.351424055 1.06790625 -0.1654809 -0.35674252500000003 1.08618225 0.13751734999999998 0.5186018000000001 -0.1767516 -0.46919550000000004 -0.98277358 -0.07569790000000004 -0.25450631 0.68946103 -0.299994375 -0.560833555 0.6333735 -0.8890530999999999 0.037128085000000005 0.045032449999999946 -0.598969935 -1.8455765999999998 -0.2215044165 1.12878195 -0.47057902499999993 0.798705 0.15557245000000003 0.3412475875 -0.0616381545 0.130804325 0.6815973 0.08835114999999993 -0.24123554999999997 0.37589958 0.15199013 -0.05178961 0.0014413700000000529 -0.64968615 -0.11501295 0.5418083 -0.5339242399999999 -0.4229562751 -0.28601816 1.1373427 0.7625509525 -0.79671494 0.43425981999999996 0.24129199 -0.351298205 -1.032340375 0.545228245 -0.597852395 0.107568265 0.6526218850000001 -0.88729375 0.345232125 -0.656297425 -1.61106675 0.40136836
ANKRD37 -0.074520995 0.008386535 0.10407614999999999 -0.091799082 0.25931877545 -0.249007835 -0.122093795 0.111830765 0.007513602499999999 -0.33807716 0.12415332999999998 -0.22256673999999999 -0.32191226500000003 0.33469913500000004 0.0401863335 -0.1700447 0.047960703 -0.23156639499999998 -0.016521595 0.243959055 -0.08448626 0.28767542 0.034133775000000005 -0.10084687 0.41591974 0.33553848500000005 0.055991163 0.039505828 -0.47755135 -0.262732465 -0.007636984999999999 -0.035473914999999995 0.001931749999999982 0.013210485000000001 -0.252294935 -0.134047095 0.036985710000000005 -0.0811280385 -0.0793930325 0.46300245500000003 -0.195089592 -0.39639192 0.23164229000000003 0.087112628 -0.25301779 -0.056508835 -0.020783824999999992 0.0507172475 -0.22925246 0.175688895 0.11575655500000001 -0.21019317899999998 0.08504996499999999 0.08806878500000001 0.12871584 -0.238218765 -0.17913537499999999 -0.03857995 0.13696825 0.10924675499999999 -0.1306351865 0.340851851495 -0.12310211 -0.2441071661 0.348067955 -0.4955598 0.07249814000000002 -0.30948336 -0.09488033500000001 0.135516071 -0.038201715 0.06881769299999999 0.184206795 -0.36577475000000004 0.18363656 0.298070895 0.392242325 -0.109415965 0.1512662235 -0.228364335 0.132919755 0.06598480749999999 0.335549635 -0.11429098000000001 0.059931330000000005 -0.144735695 -0.241415837 0.016855154999999997 -0.21583354999999999 0.21925392 -0.16840458349999998 0.126707835 0.35495913749999997 0.046912150000000014 -0.111928415 -0.04805227499999999 0.227752008 -0.029210765 -0.34877695 0.37890397000000003
ANKRD55 -0.035419605 0.23752952500000002 -0.041392796499999995 -0.08346627849999999 -0.059293265 -0.0543584145 0.1516891415 0.20712772499999998 -0.097753514 -0.24689694499999998 0.018552735 0.182381148 -0.07513010780000001 0.144722425 0.06558486315 -0.0425448975 -0.0088403425 -0.047198519999999994 -0.053692195000000005 0.0580034598 0.00996772 -0.036716932499999994 0.13266493499999998 0.2019538975 0.16407852 0.217155215 0.0852442775 0.030670398 -0.02697817025 -0.046110554999999984 0.03839119 -0.09118526234999999 0.1065359115 0.07470788 0.05432015 0.041473215 -0.0015504399999999863 0.106370794 0.09273467099999999 -0.04570434499999999 -0.111668141 0.002600679999999994 0.04724101000000001 0.04204909749999999 -0.21680020500000002 0.03912257499999999 -0.14326226 -0.013838545 -0.11539305500000001 0.135500852 -0.019127626000000002 -0.060916678 -0.012338950750000001 -0.020300887999999996 0.183306225 -0.140500405 0.127094605 -0.064398628 -0.052545111 0.074132835 0.09573468699999998 -0.018656475 -0.171962885 -0.028985988 0.240252235 -0.032785762999999996 0.152908896 -0.089172852 0.014871560499999999 -0.10158669000000001 -0.090199282 -0.09698824 -0.062744232 -0.0419794745 0.22738794750000002 0.062725486 -0.04459130500000001 -0.00041723800000000033 -0.0020994805000000005 -0.08330279 0.0853938075 -0.229824625 -0.0024205779999999996 -0.109780725 0.04903959 0.256420535 -0.030273190000000005 0.102968936 -0.022526570000000003 -0.14103696500000001 0.018443875000000002 0.1429915005 0.0480138375 0.044776505 0.14499434 0.0067753799999999975 -0.02106609325 -0.053892595 -0.2801918 0.023912278
ANP32E -0.182618605 0.078843282 -1.6182919 0.10888674999999992 0.8120385315 -0.382555243 0.10125240999999999 0.26642286750000005 -0.014484750000000018 -0.49008152499999996 -0.680826715 0.340537135 0.022634525000000016 -0.46349801 0.30659293499999996 -0.76490445 -0.26793313500000004 -0.6515621549999999 -0.52668632 -0.033378425000000045 0.044139205000000015 0.2628408649999999 -0.571594915 0.5670865350000001 0.090408705 0.545855275 -0.26786855 -0.41589375 -0.74839338 -0.4457388000000001 1.4190200499999999 -0.578508335 0.30673104500000004 -0.83858263 -0.43027145 0.33364165 0.2627924 0.734882825 -0.18938206000000002 0.43521635000000003 -0.6319161115 -1.06753393 1.3810971250000001 -0.029268370499999998 -1.7120716000000002 -0.97553113 -0.25845739999999995 -0.5538973 -0.26775803649999996 0.2740852 -0.2538163 -0.9607619199999999 -0.026294144999999998 0.5038627824999999 0.738222935 -0.3506037104 1.0898706 0.72304351 -0.93796237 -0.7966669 -0.020812549999999985 0.52262019 -0.641086755 0.22407134999999995 0.8366416 0.05430861049999999 0.674630456 1.4278603 0.391490585 -0.05127506999999999 -1.9044498 0.650480835 -0.03862285500000001 -0.49721538100000007 0.535544905 -0.516167315 -0.315304473 -0.286058775 -0.030492815000000006 -0.764848 -0.22834309999999997 -0.92749385 -0.72744918 -0.01627085000000006 0.17650740000000004 -0.89276485 -0.2068023 0.18597878499999998 -0.07182914000000001 -0.031222910000000048 -1.07885735 0.6822779999999999 -0.09835780000000005 -0.11898405000000001 0.739216385 -0.62222728 0.329301217 0.091863325 -0.752615085 0.5900106725
ANXA1 0.197169095 0.43315594999999996 -0.284026398 -1.6676447749999999 -1.86864925 -0.18291185000000004 0.46403756500000004 0.6821512000000001 0.015613409999999994 0.9699147 -0.126599775 0.28158682300000004 -2.41601905 1.4956168 0.9777111250000001 -0.7842774 -2.8593992999999998 -1.26037905 -1.4134844199999999 -0.10028404999999996 0.45009361700000006 3.0187713 -2.04312055 0.765634625 1.35966445 -0.12887668000000002 -1.142809499 0.22218865000000002 -0.935304337 1.4796814500000002 1.4832838499999998 -2.4339784499999997 -0.5835935499999999 -0.35361005 1.240447 1.2895835500000001 -0.782212465 -0.693809035 1.92104025 0.07539361650000001 -1.67315075 -1.5585941499999998 -2.1091173 1.3582172 -0.011265049999999999 -0.5759967 0.15377226 -0.55069525 1.0234329 -0.68316355 -0.11957119999999999 -0.44050273000000006 -1.43816173 1.574389685 0.41868874999999994 2.3258908 1.7211087 1.474203725 -0.83818753 -0.68510535 -0.24680418000000004 0.5491801625 -2.07829735 -0.55292964 0.11118932000000001 -0.44724927000000003 0.92179158 1.78837895 -1.5356356625 -1.418330265 -0.5801023275 1.7340547499999999 -1.13432225 -1.7260205 0.831671055 -0.27673725000000005 1.094149125 -2.1027883999999997 0.7493051775 0.67416835 -0.21379415000000002 0.02994619999999998 -0.023691899999999988 0.10653785000000005 0.318597435 0.09569473 -0.7635306000000001 0.45189535000000003 -0.1078576 1.810224415 -1.84957765 1.19222005 -1.20172735 -1.22989861 -1.49779165 -0.9708595 1.6191320500000002 -0.7656840300000001 -1.24552505 0.262553939
ANXA2 2.3990391 3.3172527499999998 -0.49828048 -0.517726865 -0.018950124999999984 -1.61881645 0.44575351 1.9454278999999999 -1.2492038 1.6752646699999998 -2.18811105 -0.58103181 -0.1451668635 1.5176515 1.2247203500000001 -0.956916575 -0.07842585499999999 -1.6898071000000001 -0.47151959 0.21281437 -0.534266825 0.45393885 -1.8252893000000001 1.9383260999999998 1.39773205 0.7159736999999999 0.14642707 -1.4950686 -1.8484373 0.8175606150000001 0.6455698249999999 -0.49923487 -0.75282608 -0.03647035500000001 -0.9800492 0.88107425 -0.39779865000000003 -1.027982635 2.68587395 0.9240951 -1.6558258000000001 -1.04677679 -1.33962335 0.722467615 -1.02853216 -0.34835055 -1.1231987650000002 1.65597422 1.03448775 -0.96831665 -1.08925844 -0.74595022 -1.3639039999999998 1.1892073 0.30937991 0.77991893 -0.29397356 1.22639465 -0.9580407200000001 0.12607984 0.32370716 0.996194075 0.15717084999999997 -1.9293246000000002 0.33516635 1.33245357 -0.02490294999999998 1.8524155 -0.281629175 -1.69783725 -1.4188003999999999 1.030209785 -1.3097975 -0.297717333 0.93397818 -0.48354015 -1.49950135 -1.1813699149999999 0.72358637 -0.38086503 -0.027221150000000027 1.84845525 -2.12667065 0.18275400000000003 -0.5776787 1.37922105 -1.24909615 -0.37597728499999994 1.27582 -0.800552515 -0.88267827 -0.06261671499999999 0.1371041 -1.2573753 -2.6862314 -0.320003687 1.06484575 0.11579620499999999 -0.36912948 0.7663064900000001
ANXA2P2 -0.644707205 0.363115775 -0.276729655 -0.509447275 0.09308402500000001 0.27063169 0.17624856 0.5734552 -0.455851595 -0.29991225 -0.04761460000000001 0.4145837135 -0.916558565 0.31182116600000004 0.481848065 -0.434694585 0.03863254000000001 -0.48464760500000004 0.074593336 0.193670705 0.446887825 0.1903330225 0.8640223 0.08587839500000001 0.29628714300000003 0.41592967649999996 -0.10170113500000001 -0.12873427499999998 -0.245242285 -0.27319947499999997 0.2659445305 -0.28549241000000003 0.1929988 -0.2899044975 0.21821309999999994 0.28917192849999995 -0.249685401 -0.012635174999999998 0.175068895 -0.0375800465 -0.35638406 -0.572408555 0.44121486499999996 0.19251219000000003 -0.7831667499999999 -0.198391675 -0.016512714999999997 0.21205235 0.115620465 0.505692875 -0.04878054999999998 -0.56983133 -0.339230873 0.902034 0.62469738 -0.3606931499999999 0.656873095 -0.07102395 -0.45392370000000004 -0.108141135 0.22717863499999996 0.03977947500000001 -0.9618896350000001 -0.38608162 0.318517905 0.132511225 0.9212801899999999 -0.162416473 0.150420375 -0.128772752 -0.800954975 -0.07707449999999999 -0.15097375 -0.0252816675 0.73669728 -0.445138046 0.35434687499999995 -0.21780578 0.09419280999999999 -0.31188695000000005 0.28841476 -0.50720457 -0.3870913 -0.13494146500000004 0.07488123999999999 0.03177952499999999 -0.45804565999999997 -0.24105758 -0.18692235499999998 -0.10714151 -0.48315390999999996 0.39817011750000003 0.3449915425 0.31768359999999995 0.770070775 0.07499274 0.20634027499999996 -0.045166700000000004 -1.1221603 -0.03824829999999999
ANXA5 2.4583541 1.66531033 -1.5377055 0.2937642275 -1.214328 -1.5337015 -0.926014 0.854071475 -0.44672230999999996 1.05757305 -0.5886784 -0.022449635000000003 -1.2257560299999999 0.15351357999999998 1.79387545 -1.7890986500000001 -0.59637677 -0.452856575 -0.9291707499999999 0.06686658499999998 -0.267498142 1.05839675 -1.070735 0.994720085 1.040660435 -0.501601485 0.6093350999999999 -1.16540155 -0.7010369599999999 0.5510025000000001 0.6701896350000001 -0.521473175 -0.8527754999999999 -0.10508688999999999 -0.54975173 0.21780217500000001 -0.38592283499999996 0.45595538 1.3388654500000001 0.8782150000000001 -0.36222150000000003 -0.535096855 -0.64927563 1.1336038 -0.75862363 -0.37982423499999995 -1.173509235 0.6177274100000001 0.813164275 -2.04412645 0.39117714000000003 -0.61160295 -1.3812608499999999 0.437340565 0.19571765000000002 1.25845385 0.84892022 0.1682288445 -0.966296685 -0.681924185 -1.35642435 1.26818268 -1.24523632 -0.8032373500000001 0.11198864999999997 1.4901875310000001 -0.9632602750000001 0.25046203999999994 1.1195662 -0.7242096149999999 -0.94715975 0.23512961 -0.822839315 -0.645496165 1.003999015 -0.13430561 -1.4780923000000001 -1.03487045 -0.144371465 -1.1036915999999999 0.7504177062499999 1.44566818 -1.3972291000000001 0.21774558 1.4934681150000002 -0.044226395 -1.7069952000000002 0.257333854 0.29704826149999997 -0.9950196600000001 -0.65287516 0.385756 0.29102476 -0.42301158000000005 -2.00209815 -0.670676735 1.00333698 -0.85489667 -0.8917211 0.62179224
AOAH -1.5318033 0.95283115 -0.24280060999999997 -1.2001666999999998 0.466351775 -1.7838346 -1.051575015 0.09455640750000001 0.63848397 -0.99633185 0.6399557 -0.011993845000000003 -2.12402795 1.81576365 0.03563617500000002 -0.6363927 -0.51427082 -1.0626997 -0.74638165 -0.20222379000000001 0.650199795 1.27531387 -0.08004066500000001 -0.43454931499999994 0.717632065 0.48400587 0.22317712499999998 0.2681165115 -0.0012760599999999955 -1.1387071 1.4064899 0.215586395 0.9792006 -0.823291295 -0.772804698 0.7621511750000001 -0.47360703000000004 -0.4611037115 0.21600884999999997 0.60219702 0.18606686 -0.170129487 -0.238710225 -0.29879218500000004 -0.38480428499999997 -1.63153175 0.725365985 -0.18450823 0.012352649999999965 0.5004450675000001 0.6887949025 -0.673338145 -0.11007045999999998 0.65498572 1.09523695 -0.612530365 0.088681985 -0.07858409470000001 -1.29717963 -0.07785419999999998 0.59451539 0.182914335 -0.39878404 -0.0555272 0.7908569049999999 0.30270455999999996 -0.1778586499999999 -0.49886715000000004 -0.46188345 0.14755978 -0.22077648 0.702569995 -0.23466986 -0.92120614 -0.231203235 0.42664415 0.37730929 -0.343880415 0.61006796 -0.16799226499999997 -0.47411396000000006 -0.9383931499999999 0.07129366500000003 0.08802035999999999 0.37080457 0.8777027150000001 -0.42845559 -0.26990780000000003 0.19793246 1.10307635 -0.13966457000000002 0.40037607999999997 1.233476035 0.96798692 -0.11183385000000007 -0.8904928799999999 -0.341321918 -0.40824462499999997 -0.598084165 0.7489964
APLP2 -0.32986579 0.7269319 0.05080888 -0.4568761585 0.1225012285 -0.09949265000000002 -0.46407802 0.057850540000000006 0.023034195000000007 -0.10429082999999997 0.09651373499999999 0.218247295 -0.7513307250000001 0.2976419775 -0.160755191 -0.03022509999999999 -0.25884827 -0.796760635 -0.015440862 0.45332241500000003 0.57958563 0.114321575 0.32888539499999997 0.04133347 -0.07716727500000001 0.41799205500000003 0.40335007 0.005836039999999987 -0.6293403 -0.56427132 0.64790809 -0.011049570000000009 0.66941311 -0.466509765 -0.160054465 0.10549889500000001 0.020524365 0.15967097249999998 -0.07669538000000001 -0.209314005 0.0325578 -0.19174889150000002 -0.042871060000000016 0.046368885 -0.664670725 -0.26717712 0.15108964999999996 0.356251455 -0.12924732 0.274467735 0.0698805 -0.3394247445 0.006914584999999973 0.43798645999999997 0.48895422 -0.007273539999999995 -0.028269817000000003 0.7052889 -0.394924485 -0.1731241 -0.056568730000000005 -0.06196994 -0.5767232 -0.19161967 0.7445745349999999 -0.10644431500000001 0.20159123499999998 -0.05112727 -0.089970045 -0.037277885 -0.08261094999999999 0.071422875 -0.394945115 -0.053873367000000005 0.6023301249999999 -0.2295566 0.6173806749999999 -0.386711115 0.093683185 0.0009836099999999959 -0.28524971 -0.14674432 -0.0953887425 -0.49067661500000004 0.03702596 0.207656815 -0.254434341 -0.47103983 -0.215490275 0.12018218 -0.244638395 0.247725545 0.8660185 0.500813065 0.8834417 -0.17162408 0.020661399999999996 -0.075619777 -0.39033049 0.09627973749999999
APOBEC3B -0.008332129499999997 0.056224891650000004 -0.027249216 0.01770942475 -0.046193733 0.012662040000000003 0.0066794985000000005 0.098339945 -0.027012271500000004 0.0007766355000000001 -0.0306273295 0.041240770499999996 -0.0021038575000000004 -0.028599696 0.012098198 -0.0194038908 -0.005609275 -0.016158054999999998 0.052683566 0.0295871905 0.049721357 -0.076928945 0.058225334 0.0198650475 0.0630743525 0.053419223 0.061961781 0.012217922 -0.0334908855 -0.013889205000000002 -0.001171427 -0.032171982 0.015356380500000003 -0.038535878499999995 0.034594836 0.0114801498 0.030429590999999995 0.015369893 -0.017239998 -0.066370497 -0.041832717000000005 -0.0012992310000000014 0.082563633 0.043075718 -0.09760105499999999 0.0102037895 -0.033292671999999995 0.039129774 -0.017970321499999997 -0.017364904499999997 -0.054122079000000003 -0.030828873500000003 -0.023329802 0.013660876999999998 0.08581048399999999 -0.0570937185 0.049541005 0.048499994000000005 -0.0272588775 0.027191229999999997 -0.010309720500000001 0.0272266125 -0.0332895965 -0.0110911779 0.080371476 0.0350826739 0.0655220225 0.002281462500000001 0.032608292 0.049886070000000005 -0.052301141999999995 -0.0207930365 -0.0773317765 0.0389102615 0.07222992 -0.0213744585 -0.0050654699999999955 0.027492579500000003 -0.0547332775 -0.028953706999999995 0.009952248 -0.081341822 -0.0248455165 -0.03612020235 -0.03606198675 0.031335749499999996 -0.012809908364999999 -0.016985969 -0.025788135 -0.111886712 -0.03686054875 0.0520422315 0.014480872499999999 -0.005453439500000001 0.063103767 -0.010645549999999997 0.0017948241499999998 -0.000536876165 -0.09964931499999999 -0.0289409285085
APOBEC3C -0.9013282175 0.9549656 0.6506809325 -0.030041669999999993 0.13336760000000003 -0.358594105 -0.4660093 0.82573768 0.095470155 0.13827108500000002 -0.22647045 0.25156686000000006 -0.77433515 0.201909385 0.11945006 -0.003947649999999969 0.10848074999999999 -0.9256628499999999 0.016316091999999997 1.228413975 1.37279325 -0.05751727999999999 1.0629921150000001 0.338465295 0.37774341 0.86683132 0.94114765 -0.17510637499999998 -1.01070683 -0.88125549 0.49197194499999997 -0.293051 0.5429746 -0.2262491948 0.4006209 0.058518020000000004 1.05736328 -0.12014777000000001 -0.15388659999999998 -0.10736741600000001 -0.31257882000000003 -0.7213098849999999 0.707083082 0.800527635 -1.118026125 0.11775503300000001 0.07566148 0.76739211 -0.6897306150000001 0.17140429999999995 -0.58172734 -0.8070242400000001 -0.06493185000000001 0.36118755599999997 0.15110210500000001 -0.17791780000000007 0.50867875 0.53069815 -0.098958045 0.15539730000000002 -0.5348555399999999 1.16477903 0.064316515 -0.8690031149999999 0.75307148 -0.5363838655000001 0.84929535 -0.628535805 0.358368325 0.524000605 -0.7128204108 0.072310655 -0.47509394000000005 -0.202621235 0.69073983 -0.24319649999999998 1.23411258 -0.6778456500000001 0.163065785 0.061412019999999956 -0.22655015 -0.05949175000000001 -0.25892868 -0.8862744499999999 0.15063408999999997 0.45924727499999995 -0.12921389 -0.9549315315 -1.0689107500000001 0.170749925 -0.92604255 0.237551155 1.199632 0.4991996000000001 0.38610568 0.52536582 -0.22765232500000002 0.35647973425 -0.9410545699999999 0.049256008500000004
APOBEC3G 0.09423680000000001 2.614572 -2.0536356 0.23609534999999993 -0.7745015749999999 -1.67066597 1.39665031 1.05991423 -1.041005715 1.1328194 0.68419048 -0.8112053465000001 -1.19181468 0.5237081650000001 1.7323226 -1.5285944999999999 0.725814135 -0.010476849999999982 -0.79390728 -1.1884888999999998 -0.94995978 0.323575925 -0.40289759399999997 0.472430835 0.566661595 -0.94023424 0.865661715 -0.29250666000000003 -1.6003801 0.14162780000000003 1.4701153 -0.62897791525 0.14934091500000002 -0.761685575 -0.0036213499999999677 2.0859545500000003 -0.8546886300000001 0.025635375000000016 1.9516041999999998 0.540029375 -0.7927346 -1.10855913 -1.4818411 1.716161185 -0.46596451999999994 -0.8610184700000001 -0.32976593499999995 -0.991840185 0.08148315000000006 -1.192499825 -0.77702176 -1.41825495 -0.00343593385 1.60842035 -0.05454073500000001 0.75822503 1.21122576 0.33779865 -0.30802510000000005 0.724721765 -1.40585742 0.715343785 0.2335052499999999 -1.7998367499999999 0.55792801 -0.032048550000000064 1.372440525 1.3420055 -0.9470911900000001 0.29604625500000004 -1.3079203499999998 1.62729165 -1.4689405 -0.18812123 1.5802600999999998 -1.6186821500000002 -1.037197325 -1.1093248999999998 0.30661940499999996 -0.6169237000000001 0.47539589000000004 -0.38314047 -0.6193991249999999 1.0438127499999998 1.23983273 -0.24613425 -0.4893936 1.20651145 0.63646035 -0.760736708 0.4478406275 -0.07543581975000001 0.653978615 -0.8351295300000001 0.52462775 -0.07043451 1.09838577 0.145713985 -1.42007865 1.28038415
APOBEC3H -0.4998176425 0.574637515 0.29010052 -0.5519061 0.0278743725 -0.09144995999999997 -0.3062676 0.7134619615 -0.12820634 -0.25525855000000003 0.13005652 0.310544652 -0.826207865 0.692108115 0.32165215999999996 -0.382612555 0.18289670700000002 -0.7428847249999999 0.132248245 0.89011595 0.6022776700000001 -0.204551945 1.1630022000000002 0.3607933015 0.275166915 0.515579875 0.49300946 0.20993975999999998 -0.5592738875 -0.701791025 0.21219008499999997 -0.310786523 0.55841337 -0.24319003999999997 -0.05763154499999999 -0.059776062000000005 -0.008684055000000024 0.0029627600000000087 -0.28150791000000003 0.091987311 0.018029036 -0.592453455 0.319204415 0.40609286499999997 -0.68838009 -0.296483875 -0.11677187 0.402112885 -0.24140114 0.25967555 0.08052613000000002 -0.25698296 0.09721628500000001 0.34931554 0.651071255 -0.412263805 0.191793615 0.365023565 0.037954199999999993 0.06692144 -0.16425795999999998 0.57627783 -0.25181384 -0.40903706500000003 0.76110551 -0.19325025500000004 0.45909745500000004 -0.6029122149999999 0.43587339 0.19047159700000002 -0.224621535 -0.166239805 -0.184417335 -0.169827917 0.1493484689 -0.14626367 0.851905848 -0.17954309499999999 0.24681697149999998 -0.32598562000000003 -0.030784229999999996 -0.028617150000000036 0.07067775000000001 -0.39276307 0.079388155 0.3380768965 -0.410622275 -0.06972892999999997 -0.47615883999999997 -0.057218897500000004 -0.10664967499999999 0.2829174 0.6768038 0.58612803 0.47210133500000007 0.29515887500000004 0.12216291530000001 0.04175309999999999 -0.72670065 0.174364715
AQP3 -0.147153991 -1.1707604 -1.4885784 0.21371000000000007 -0.040925174 -0.64621186 0.15278500000000006 1.01925325 0.15837261500000002 -0.92987792 0.083747225 -0.36092468999999994 -0.36462825499999996 -0.53722645 0.6482985095 -0.84902265 -0.34176823 -0.772469215 -0.49301291 0.714791385 -0.7946031619999999 0.5853280599999999 -1.046227975 1.2571667 0.7437835 0.3079142 -0.578094315 -0.42188736 -0.8946069249999999 -0.36245744999999996 0.482646295 -1.1669067 -0.44138488 0.48841318 0.5035474 0.36943351 0.27552317 1.208429515 0.678300032 0.328472365 -1.8219394 -0.16626780000000002 0.6449888699999999 0.6103309650000001 -1.9407115 -0.17542535 -0.44871327000000005 -0.49015659999999994 -0.30543170000000003 -0.608867515 0.46565770000000006 -1.03534793 -0.843297025 0.346443915 1.30157531 -0.060510564249999996 0.73657073 0.36095972485 -0.34751337499999996 0.22371993 0.09338231 0.59099787 -0.76109976 -0.210240875 0.320242575 -0.822180822 -0.28833620000000004 1.4381271 -0.983455075 -0.3559745 -0.306848195 0.83229314 0.18509236499999998 -1.43252565 0.396481935 -0.141711575 -1.07920565 0.14337693 0.43046701500000006 -0.38296425 -0.26921858 -0.40484029 -1.19523715 -0.60494174 0.27877712 0.43779383 0.071270485 0.669254455 -0.34343107999999994 -0.10035590000000005 -0.412732675 1.01192205 -0.2653645499999999 -0.663707835 -0.514573315 -0.34419325 -0.10335791499999997 -0.301989285 -1.5309352 0.17336265
ARC 0.018002625 0.0007379400000000003 0.0173041687 -0.036286719499999995 -0.005883554 -0.0491283295 -0.0397490665 0.024935538 -0.027801445 -0.06253516 0.009405764999999996 -0.0014101655000000012 -0.0793410965 0.0559073549 0.0494778145 -0.024266683749999997 0.021837754 0.0310177685 -0.041983977 0.0258292869 0.005086120999999999 0.0316886695 0.07478478 0.06495654305 0.09162387999999999 0.023532056500000002 -0.05224276 -0.0018478106999999999 -0.0333329747 -0.014052599000000002 -0.008613838549999999 -0.009055263499999999 -0.038244095000000006 -0.053892718000000006 -0.053051630999999995 0.041405132 -0.005428558 -0.0035893500000000016 -0.016655555 0.0583611815 -0.0336524875 -0.021783938 0.05630942 0.025144602500000002 -0.021438312 -0.040106475 0.0017762895 -0.0266736995 -0.0646424598 0.017285300000000003 0.03815437 -0.0019933419999999986 0.019029136999999995 0.0093699 0.060154313 -0.040945094 0.0196227525 -0.083921432 -0.039366649 0.042558939000000004 0.0291277645 0.012408738999999998 -0.0077520869999999995 -0.026966508 0.0041005320000000005 -0.073238357 0.003495578499999999 -0.04696536675 -0.03143405299 -0.017614157499999998 -0.02665596 -0.057595938 0.065990327 -0.042096630149999995 -0.006775979 0.037261086 0.035897057999999996 -0.05344004000000001 0.026579471499999997 -0.0014921805000000007 0.11074464 0.0215787455 0.028297335000000003 0.07899495 0.021382678000000002 0.11381395 0.006569088499999999 0.017326263 -0.0180590675 0.024449897999999998 0.013805025 -0.0015814999999999996 0.07805174649999999 0.015435069500000002 0.0017994619999999947 -0.024115606000000005 0.010168780000000002 -0.0427460605 -0.050720415 0.025132951
AREG -0.05658812499999999 -0.055494085 -0.19014236 -0.923639025 -0.062620435 -0.292180225 0.13428564999999998 -0.16845083000000002 -0.008763799999999988 0.8484821 -0.50479892 0.2964202 -0.46573604499999993 -0.27701658 0.873935245 -0.632509655 -1.03885793 -0.298129565 -0.7277789299999999 1.4937426 0.425539435 0.16810279835 -0.08211689999999999 1.51172475 0.24136897 -0.550605565 -0.25703049 -1.2266159 -0.651891945 1.4232628 0.50558195 0.4113345625 -0.299306384 0.43675632000000003 0.5485480835 -0.07912267 -0.14763069000000004 1.17082525 0.52225894 1.2199156 -0.280781745 -0.735887325 -1.137415325 0.18210730999999997 -0.18723771500000003 1.063750725 0.32749993499999996 0.148517725 0.675649275 -0.755069885 0.70971149 -1.0909445500000001 -0.335246215 0.08976945000000003 0.2393869065 1.7613862999999998 0.2724188625 0.8859889800000001 0.188245785 -0.586894975 -0.7521262799999999 0.103112065 -0.14327267999999999 -0.13544692 0.502768905 -0.019335544 0.08308008500000001 0.46148519 -1.57452995 -0.219539725 0.017611249999999995 0.54629662 0.039510553500000004 -0.28328694 0.0011711850000000051 -0.32117196000000003 0.40566505500000005 -0.08336225 0.2065723185 0.759151715 0.69174965 0.93123025 -0.989025575 -0.539568235 -0.30941336499999994 1.2073239 -0.57853459 0.7143381 -0.19791902 -0.25281578 0.20307153 0.38125492999999994 -0.619448505 0.554293115 -0.007506310000000016 -0.92200808 0.9878592150000001 -1.5434274000000001 -0.29352353000000003 0.050722445000000005
ARHGAP11A -0.06685676000000002 0.187808755 -0.17653043499999999 -0.172478125 -0.072540914 -0.04615841500000001 -0.1032155575 0.09467988905000001 -0.226817048 0.010009884999999996 -0.056298394999999994 0.13299016000000002 -0.25503718 0.1658731275 -0.010861257999999999 -0.1385010985 0.134174382 -0.079001515 0.0767659485 0.345248795 0.23299990499999998 -0.105901267 0.15578366999999999 0.218105463 0.20404126 0.0987743935 0.036967784999999996 0.14476582999999998 -0.25441827 -0.080304175 0.16606242999999998 -0.04171087749999999 0.12817969 -0.0374013625 0.0088658405 -0.120311045 0.079141507 -0.08437766000000001 -0.0694898105 -0.087869985 -0.0885044155 0.035689442 0.03697049 0.07327500999999999 -0.253233175 0.062393883 -0.006635132499999995 -0.0715961235 -0.1772474575 -0.07959752 0.121528257 0.049924275 0.08995981000000002 -0.08420104 0.261450475 -0.19078154 -0.10274232 0.123035812 -0.017459265 0.052513186999999996 0.02823876 0.060569395 0.01680327572 -0.05759802 0.25696800000000003 -0.18353282 0.09567672 -0.20806814 -0.048723158 0.199628235 0.020243698 0.06288731499999999 -0.252281765 0.050126425 0.049807124 -0.03330939000000001 0.16929504499999998 -0.0357774255 -0.03826489905 -0.095710625 0.056899165 0.0161705295 0.053883255 0.007959482499999997 -0.04782531500000001 0.15211207335 0.0702634675 -0.015423224999999999 -0.0838330065 -0.0430658775 -0.08790192499999999 0.081125495 0.172344008 0.026651800000000003 0.142350995 0.03798298500000001 0.103101849 -0.036857155 -0.220135965 -0.056215560000000005
ARHGAP24 -0.0361921115 0.085828165 -0.008444848000000001 -0.02482765725 0.017441461499999998 -0.0464958365 -0.018691492 0.0057026724999999995 0.042742850000000006 -0.038131669 0.0115625515 0.0468283865 -0.02297960625 0.026766208 -0.016082897500000002 -0.0013849119999999986 -0.0358500813 -0.054263393 0.009482698500000001 0.06911519 0.029549767650000003 0.0094068732 -0.0232110435 0.020047459 0.049997691999999996 0.06632033749999999 0.0101388055 0.0125775165 -0.0212319465 -0.009877597999999998 0.060094445999999996 -0.0177636313 0.0396424485 -0.012675662999999998 -0.014219183000000002 0.0123419218215 0.07185516 0.033106303000000004 -0.017160514249999998 0.0056678075 -0.0166049985 -0.0234790765 -0.0453381936 0.0023994475000000005 -0.03888311 0.012707957999999998 -0.022136661235 -0.017701486 -0.07765783500000001 -0.023051311999999997 -0.0083446293 -0.034326319499999994 -0.014401126500000002 -0.013839416 0.042457826000000004 -0.042049087 0.021260125350000002 0.007021972499999998 -0.00205701035 0.07420516055 -0.014437042600000002 0.0420917495 0.0137057695 -0.0363605325 0.0310786881 -0.01930876265 0.002235710000000002 -0.003187620000000002 -0.04645851200000001 0.023077469500000003 0.01241830115 0.0065478805000000005 -0.0385908585 -0.012992729849999999 0.006696123500000001 0.01082025235 0.037286985 -0.035942748 0.0228300745 0.0025009735000000016 -0.0087874975 -0.003285913 -0.021834679 -0.0327321382 -0.056086774000000006 -0.005019712000000001 -0.01416901725 -0.049200495999999996 -0.0330965165 0.004017429499999999 0.006496890850000001 0.02467340275 0.034928817 0.020833365 -0.01099759105 -0.0010700155000000003 0.019180326999999997 0.01051048825 -0.0259465247 -0.0018642329999999999
ARL4A -0.51390694 -0.52036295 0.05698990000000004 0.25235997 -0.39317383499999997 -0.68030828 0.59398909 1.0189425 -0.29937861499999996 -1.2006663 -0.27440137 -0.25199376 -1.14382445 0.5282274965 0.394299815 -0.38649299000000004 -0.29376430899999995 -1.5176087 -0.667469185 -0.40646457 -0.011154340000000013 0.8378555999999999 0.391404475 0.102472965 0.7510374850000001 0.055810475000000026 -0.38440292499999995 0.22015995500000002 -0.44671328499999996 -0.92215935 0.80586068 -0.14358971999999998 -0.55447119 0.071512045 0.225485995 0.31279761500000003 -0.442870505 -0.032747225000000005 0.510127945 -0.3930087545 -1.3224275799999998 -0.8351438 0.9767935999999999 0.659620645 -0.10269539999999999 0.31278357999999995 -0.18567016 0.6357078999999999 0.27738142 -0.13035634000000001 0.27979766 -1.2888494700000002 -0.900733475 0.4275745 0.4967298 -0.11749309 -0.5220438150000001 0.465452535 -0.17192094000000002 0.0012791220000000006 0.40215550499999997 -0.4470499499999999 -0.98422125 -0.25288889000000003 -0.07366631499999998 -0.548113311 0.7440089274999999 -0.1377575085 -0.18084128 -0.27863940000000004 0.373737775 1.24664793 0.27080057 -0.588248935 0.19630620000000004 0.06093342500000001 0.280668585 -0.30863744 0.488054305 -0.036326250000000004 -0.045825265 -0.06141954999999999 -0.08343750999999999 -0.170916192 0.519231835 0.4861061 -0.607772365 -0.01591052999999998 -0.5340751699999999 0.9475894695 -0.009661574999999999 0.6992984 0.41755281000000005 -0.41662435 0.47066874999999997 -0.738003575 -0.09012310999999998 0.376710905 -0.9635957500000001 0.1977576785
ARL4D -0.05415673500000001 0.385042975 0.15003423500000002 -0.251265942 -0.07403952500000002 -0.42445461500000004 -0.144466728 0.310184195 -0.174825443 -0.159871495 0.10475085999999997 0.21472858 -0.288856866 0.34183565 0.05739659 -0.11796752499999999 -0.07635626000000001 -0.144881115 0.049721115 0.65523836 0.10107234 0.0009637100000000065 0.4108993115 0.08952049000000004 0.332395155 0.105533262 0.1543559775 0.28352791 -0.47848966000000004 -0.140847485 0.207130725 -0.326672345 0.23457703000000002 -0.138018995 -0.035888841000000005 -0.15622168 0.169265237 -0.2251469435 -0.13245440149999999 0.0661042725 -0.134757515 -0.214964581 0.06233931499999999 0.24865558 -0.5508132800000001 -0.007325679999999998 -0.180285885 0.18189241 -0.397795575 0.16340055 0.002858004999999997 -0.1261741845 0.2132997 -0.10931421649999999 0.15603663 -0.182996165 -0.125818235 0.1492714675 -0.041175117 0.40441070500000004 -0.336840307 0.4215824 -0.10775392 -0.33240928999999997 0.53560478 -0.28348562499999996 0.13289698499999997 -0.464482585 0.010575560000000012 0.22046119 -0.03658378000000001 -0.2587855 -0.155609255 -0.1857665 0.1268472575 0.10320111 0.6341193700000001 0.042784751499999996 0.009526134999999998 -0.28602678000000004 0.09779804999999998 0.011121739999999991 0.1028238875 -0.370808925 -0.25204665000000004 0.284960435 0.13898887250000003 -0.23878662999999997 -0.295170035 -0.113326487 -0.21829668000000002 0.05628255 0.3107938 0.13732920000000004 0.23376586 0.12944242499999997 0.023850979999999994 0.178434857 -0.415297135 0.17773077
ARL5B 0.00816302499999999 0.00509412435 0.20832992000000003 0.014044479999999998 0.232639875 -0.19595299500000002 -0.151346879 0.12782324 0.199924983 -0.34188384 0.12042030000000001 -0.1472331 -0.3340075435 0.18607244 0.20724092 -0.20131058500000001 -0.07233556499999999 -0.43175863999999997 0.007335963499999999 0.56712248 0.24429857000000002 0.303973495 -0.09121696500000001 0.144240505 0.592721225 0.30462286 0.06487444 -0.33987933 -0.75335235 -0.330642765 0.087577185 -0.18051162399999998 0.16843669 -0.016841550499999997 -0.11462335 -0.286063835 0.1448101 0.27934728 0.11977259199999998 0.356943785 -0.37450635 -0.359200085 0.367262115 0.118245422 -0.303789885 -0.2454347 -0.40504144750000004 -0.16239304 -0.398947745 0.13337543000000002 0.12441655000000001 -0.0090373495 -0.10376799500000002 0.311890665 -0.032211989999999996 -0.173501715 -0.151652579 0.08280350250000001 -0.226304045 0.30894201 0.003189659999999997 0.514575672 -0.531950335 -0.210734425 0.339662525 -0.8675962500000001 0.249652065 0.064073295 -0.02870777499999999 -0.06539261500000002 -0.19606773700000002 0.319282018 0.16023779999999999 -0.369005845 0.36018343999999997 0.167477675 0.591752525 -0.6398292299999999 0.277094185 -0.22850448699999998 0.1639522488 -0.08167121000000001 0.45783503 -0.24580026 -0.15379007 -0.34471747 -0.5987846 -0.0994998775 -0.60176545 0.48622328 0.013525204999999998 0.412690325 0.328382474 -0.212052815 0.24706797299999997 0.185205738 0.21665105 0.177582506 -0.387518715 0.196426975
ARL6IP1 0.31429185 2.8441631000000003 -2.0290337000000003 -0.089930455 -0.019835304999999998 -0.06610812000000002 0.6385732850000001 -0.28874117400000004 -1.0247514 0.006773649999999964 -1.99436305 -0.069913555 -0.9841055000000001 -0.24532770000000004 -0.226048865 0.448661555 -1.30248755 -0.66331839 -1.404914 0.380656015 -0.78439828 0.87075605 -1.7138079 2.2453835 1.47509475 -0.9314205099999999 1.365030865 -0.35886054999999994 -0.317269735 0.32392275000000004 1.1385209399999998 -0.751391625 -0.35338471 0.47225380000000006 0.44710109 1.38546623 -1.71678683 -0.48531198000000003 1.4747801699999998 1.3148426 -1.47465905 -1.2990143 -0.9591482250000001 1.9070778000000002 -0.107202508 -1.1558530100000002 0.5572517 -0.9191212500000001 0.355228615 -0.95470857 0.218738445 -0.1533905465 -0.653943665 0.19266093500000003 0.433783265 1.0000528499999999 1.9569926500000001 0.4165546 -1.46991567 -0.7042031550000001 -0.69426725 1.91170725 0.470475455 -0.06326470000000001 0.7893918750000001 1.078361985 -0.82035215 0.7800944500000001 0.5594019 -0.7167687199999999 -0.833734305 0.79508468 -1.4160258025 -1.7290013499999999 0.5663762434999999 -0.35430973000000004 0.1835271645 -1.24407325 1.55619935 -1.03370845 -0.81190175 0.37231479999999995 -2.1069339 0.8406773249999999 -0.64482929 -0.09027818000000001 0.04506564000000002 -0.17242325 0.86908286 0.15266714999999997 -3.28093085 0.9657141999999999 -1.9730394 -1.959216675 -0.35126978 -0.47067818499999997 0.74070514 -1.2025725 -0.488121255 0.13662599
ARPC1B 2.52889625 -1.6501676500000002 -2.38820115 1.0569021250000001 -1.35330875 -2.25637585 1.74959175 2.5170529 -2.0956818999999998 0.48988225999999996 -2.457415 -0.9706426699999999 -1.91276285 1.137337735 1.0476006435 -1.48170299 -1.09182315 -0.068068557 -1.127837 1.19926565 -1.4533873499999999 0.6652519 -1.1802908 2.6667338999999997 1.5296119 -1.797077635 1.1431173000000001 -0.12568039999999997 -1.0812026000000001 1.4906163499999998 0.61865915 -2.3549457499999997 -3.0140561000000003 -1.063757665 -0.1618925000000001 2.816557 -2.8924796500000003 1.0442016349999999 1.5259098999999998 2.03986095 -1.37212485 -1.7243678 1.010393575 1.35685185 -0.56380222 -2.3548486 -1.6631839 -0.11610075000000009 1.1210254 -1.56896275 -1.02809805 -1.41984702 -0.20178535 1.5716632499999998 0.370315655 1.79825095 1.19391 0.992963875 -1.5198215 -0.57118305 -1.2465058500000001 0.46686035 -0.791050965 -1.38368495 1.62575925 0.88775455 0.16754524999999998 2.17626375 -2.12253335 -1.48901385 -0.89556755 0.51788525 -0.7543521449999999 -0.4153221025 2.0764193 -2.4181513499999996 -1.3967149 -0.56069041 0.08429948500000001 -0.7715408 1.6337022749999999 3.0483647 -0.68088777 1.367373615 0.39627088499999996 0.01886739999999998 -1.38385805 1.859757 3.01994115 -3.36092355 -1.05575028 0.8991238500000001 -2.1242679 -2.77486515 -0.22380365000000002 -1.80575453 1.187148525 -1.6825149700000002 -0.30181424999999995 1.1143760249999999
ASB2 -0.4580355525 0.35095659 0.004622144999999994 -0.167998785 0.24385558000000002 -0.007144750000000005 -0.0583754885 0.42115818000000005 -0.072972833 -0.07908262500000002 -0.25663784 0.30546954000000004 -0.428094925 0.22966523 0.20056984300000003 -0.315557596 -0.06203766499999999 -0.055767264999999996 -0.24125760910000002 0.667173 0.5640289199999999 0.18549639 0.360626045 0.30139293 0.03403048 0.28935641 0.109584065 -0.27681882 -0.264279739 -0.13129391499999998 0.16678431500000002 -0.12180790500000001 0.4361498955 -0.2393878665 -0.017660574999999984 0.39772655 0.36660692500000003 0.24512583500000001 0.14441513050000002 -0.086608565 -0.183046355 0.019885555 0.17715955 0.08652489 -0.27444074500000004 -0.42604525 -0.04445164 -0.108147785 -0.17023364000000002 0.24321224499999997 0.061535943499999995 -0.309433745 -0.1675466285 0.24275292999999998 0.2400161318 -0.38288065 0.452108085 -0.0099247185 -0.408256185 -0.024331419999999992 0.09959849750000001 -0.038297934500000005 -0.23899335500000002 -0.181211895 0.224116478 -0.086130125 0.478146645 -0.30406071 0.29223414000000003 0.04467917750000001 -0.389115965 -0.07903014 -0.062073724999999996 -0.11920833035 0.48015638000000005 -0.08162945500000002 0.19720378 -0.285873535 -0.05714425999999999 -0.20491169800000003 0.062059385 -0.1352113875 -0.11564266499999999 -0.099565902 0.190803745 0.401339965 -0.14835445985 -0.30754225 -0.09917321500000001 -0.1042048915 -0.35845720999999997 0.286267695 0.36679207700000005 0.41063385500000005 0.33462858 0.21564944 -0.26895681 0.18297512 -0.35926586600000004 -0.05237219
ASF1B -0.10744248375 0.21480854500000002 -0.14903591449999998 -0.018897765000000004 -0.04760658500000001 0.169200945 0.033821517999999995 0.14970672499999998 -0.0907380255 0.0334121483 -0.171110922 0.0442218525 -0.08366974499999999 -0.08163402 0.004813461115 -0.09948644849999999 -0.015476150000000001 -0.028607217500000004 0.100276735 0.15972707 0.18811543000000003 -0.053267993 0.0895755435 0.072224923 0.07222864749999999 0.11134744999999999 0.195920635 -0.021250965 -0.07673535249999999 -0.05142880999999999 -0.061715515 -0.004982935000000008 0.112561919 -0.10632901974999999 0.09390046499999999 0.08202867350000001 0.0632337145 -0.0472530064 -0.032341034000000005 -0.1066825755 -0.06070261499999999 -0.01945240000000001 0.144375415 0.040143435500000005 -0.23559522 -0.0458970575 -0.0475548715 0.041104075 -0.052092108500000005 0.003650164999999997 -0.054279166499999996 -0.1506244 -0.1977922465 0.0682596085 0.2972631 -0.182937525 0.12913335 0.2188543 -0.0801721453 -0.1676593235 0.025182415 -0.10340191 -0.144133235 0.024845147 0.184217945 0.048665876 0.20916938000000002 0.017252585 0.1485124635 0.1528524 -0.16476512999999998 -0.00579081 -0.24100665999999998 0.1194396545 0.25022294500000003 -0.157758785 0.005311175000000001 -0.046063093 -0.03384658815 -0.105819605 -0.03071518000000001 -0.11246128500000001 -0.162982462 -0.071373487 -0.032320325 0.08636885250000001 -0.054482882 -0.0646099735 0.061424033100000004 -0.186758415 -0.1535402775 0.057736682 0.030727664 0.014853834999999996 0.25797400000000004 -0.0394888225 0.04627951350000001 0.0103573025 -0.133314065 -0.11700341
ASPM 0.09667658 0.36856768500000003 -0.06092122 0.076724545 0.1729553933 0.0195456185 -0.13371376710000002 0.07569534550000001 -0.082949743 -0.048888169999999995 -0.16366919000000002 -0.024548094 -0.14302271500000002 -0.240543121 0.17218882000000002 -0.263746595 0.027658314999999996 -0.08091748 0.176170532 -0.14581644 0.08399755 -0.0557044375 -0.30715428499999997 0.12453850500000001 -0.025013569000000003 0.006941100000000006 0.179380297 -0.00328026 0.24931295 -0.26732244 -0.12613388 0.16665866499999998 -0.097802053 -0.139054115 -0.129731403 -0.020578775000000007 0.034996515000000006 -0.263354195 -0.09732750999999999 0.14278603499999998 -0.115063652 -0.19225107 0.15877251 0.0005279200000000012 -0.37600265499999996 -0.003711685499999999 -0.127302685 0.16660907 -0.010224670000000002 0.0406346025 -0.1077695285 -0.344570515 -0.24939497 -0.0752902215 0.331401795 -0.051266875 -0.25640338 0.074751713 -0.067357745 -0.253877815 -0.03806282500000001 -0.006278295999999999 -0.346040755 -0.051708616 0.07586469500000001 0.37673703999999997 -0.06259317 0.0004580515000000007 0.210110835 -0.11688132000000001 -0.33103802000000004 -0.266457595 -0.08621702349999999 0.16654125 0.14436046300000002 -0.1557218245 -0.07269205499999999 -0.29681292000000004 0.1048896185 -0.20266632699999998 0.02930428795 0.106820625 -0.191125825 0.08114821900000001 -0.055764823500000005 0.038262335999999994 -0.16944459 0.1585785515 0.291410285 -0.0105036945 -0.21126009 0.1505502585 -0.182489335 -0.017275578 0.127033522 -0.45143859 0.054370749999999995 0.196331305 0.023179184000000002 -0.0714967275
ATAD2 -0.412375378 0.38726459999999996 -0.25793673500000003 -0.3031915715 0.018236114999999997 0.2162016194 -0.14653014775 0.33851312 -0.0040890695000000005 0.0560659 -0.303860925 0.310872305 -0.487675695 0.0621639125 0.164890785 -0.22752315999999997 -0.23121497600000002 -0.28769452 -0.03343381 0.71834055 0.6440913349999999 0.03831854999999999 0.304805385 0.34019986999999996 0.066031715 0.20618223 0.2212496025 -0.09891697 -0.37329261 -0.25994757 0.36197631 -0.17636910000000003 0.44801895499999994 -0.318455085 -0.09540132500000001 0.160287768 0.22383978 0.36542647500000003 0.017855924999999995 -0.21851798 -0.09792188099999999 -0.204379345 0.30350102 0.12616503 -0.532707965 -0.35651101999999996 0.06679722999999999 0.006323355000000003 -0.22445782499999997 0.13947355500000003 0.085701235 -0.027985120000000002 -0.23562111 0.19500957200000002 0.41285238999999996 -0.28178376 0.35027638 0.332331185 -0.46339482 -0.10898871499999999 0.09225056 -0.023842376 -0.42496463500000003 0.0022556052500000002 0.53002841 -0.1969758725 0.511237815 -0.190827575 0.305697925 0.15440119449999998 -0.36019756999999997 0.18955412 -0.25172393 0.0941898 0.45150705599999996 -0.2723695 0.392420165 -0.43712222500000003 0.003238295000000002 -0.21828064 0.009189680000000006 -0.146449365 -0.2555238975 -0.20190884 0.021118015000000004 0.13599197500000001 -0.28523392999999997 -0.341815385 -0.20086876999999997 0.0059024533 -0.49929706500000004 0.362742725 0.3153408075 0.29342831999999996 0.6556841 0.16159770774999999 -0.04313657000000001 0.0780469785 -0.4064471725 -0.194140685
ATF3 -0.6806279799999999 0.40846684499999997 -0.96836335 0.405991915 -0.75804193 -0.355082425 -0.33545934 1.2005183000000001 0.74182305 1.2104229 -0.77653595 0.054684414999999986 -0.7777612 0.76380324 1.42138565 -1.1543706 -1.086222465 0.35411329799999997 -0.14966139 0.5471747130000001 -0.347898845 0.41519775999999997 -0.37498462 0.62816352 0.8842310600000001 -0.9420796 -0.11614482999999998 -1.42955885 -0.240080823 0.05923004999999998 -0.096048228 0.32194122000000003 0.09624453 -0.427888665 -0.6291285975 0.18006439999999996 0.09599033499999998 0.18354945 0.520316475 0.678877035 -0.011979932500000005 -0.639390985 -0.6747705150000001 0.40438002 -0.42879669500000006 0.77608075 -0.49606885 0.49949005999999996 0.5644574975 -0.896231185 -0.10854831999999999 -0.7286537200000001 -0.11304257649999999 0.72201246 0.43284402499999997 0.896817175 0.25167888 0.534158735 -0.5550779100000001 -0.5661039803 -0.78499581 0.46405356000000003 0.44469707 -1.1989343 1.0826566499999999 0.09216426999999999 -0.30122055000000003 -0.1741348925 -0.17898164 -1.289666125 -0.8943678500000001 0.737638655 -0.789166915 -0.612108 0.027652380000000004 0.16550135 -0.568609841 -1.8267592 0.1857730125 0.481842275 1.001543275 0.326884213 -0.912314565 -0.173756275 1.047065155 1.0517674000000001 -0.49321172 0.9817873500000001 0.72895661 -0.4509041715 -0.299408172 0.2254270685 -0.616436335 -0.39660513 -0.73017635 -0.68489331 -0.31712157 -1.4901514 -0.588700055 0.21908017999999996
ATP2B1 -0.8807373 -0.21201180000000003 -0.231449175 0.02752460000000001 -0.25945773499999997 -0.31074132499999996 0.5226042150000001 0.601704055 0.093469415 -0.6681436700000001 -0.06989145 -0.34152666 -0.07160032499999996 0.507591525 -0.3991863245 -0.4298349 -0.654103025 -1.15118644 -0.9754130999999999 -0.016732024999999984 0.397850705 1.4446283000000002 -0.84054575 0.33052491500000003 0.62655175 0.34768712999999996 -0.4572301 -0.39677374 -0.4397477799999999 -0.5310647000000001 0.46085885000000004 -1.3589905 0.299741895 -0.15326385500000003 0.4122928 0.052928419999999976 -0.07649890000000004 -0.168149651 0.90173525 0.15418476000000003 -0.53599582 -1.0209605 0.89461925 0.60253436 -1.0630357 -0.35044085 0.22649021499999997 -0.31967775 0.29358533 0.802883075 0.41776404999999994 -1.05563685 -0.23742636499999997 -0.1946850335 0.8901562 -0.10355535000000005 0.26716084 0.820317175 -0.87445287 -0.464037765 -0.1527902035 0.087356405 -0.5132216085 -0.25353535499999996 0.144998545 -0.20886667499999997 1.025044 0.84411495 -0.8934247 0.39502176499999997 -0.97675395 1.2293302425000001 -0.41288197 -0.49373382 1.3340445 -0.02390700499999998 0.283743755 -0.402045735 -0.26963739 -0.3512847499999999 -1.09629785 -0.65635934 0.111247195 -0.68498773 0.172826135 -0.498442085 -0.101137018 0.022270395 -0.17067533000000001 0.969115025 -0.527860975 0.6754578499999999 -0.1085969 -0.9206135650000001 0.24201699999999998 -0.15475803000000005 -0.19478840999999997 -0.305978875 -0.9341797425 0.83964405
AURKA 0.006646464999999999 0.30436563 -0.011655152500000002 -0.010875396000000002 0.06717753465000001 0.020606760499999998 0.06385123100500001 -0.012207222499999996 -0.07653605999999999 -0.012396454199999999 -0.119177085 -0.046826807 0.055903501 -0.158561837 0.06297433 -0.0338802645 -0.022984375 -0.0460963785 0.1531845445 -0.069790831 -0.006374755000000003 -0.0370059285 -0.050169426499999996 0.1171821545 0.09212155 0.0583183615 0.12836097 0.051515006 0.0405846235 -0.07051035 -0.05806423299999999 -0.023582857 0.030191822 -0.0399864725 0.00029626699999999936 -0.0139602915 0.0477999915 -0.057292449749999995 -0.01658491 0.043316965 -0.025344636999999996 -0.2101289225 0.092172318 0.00795196295 -0.24250981 0.049725939999999996 -0.13853572 0.1230301 -0.07546671299999999 0.01983008500000001 -0.150756645 -0.19304154 -0.1609406 -0.041121005 0.19811961 -0.100425825 -0.043843949 0.071375786 0.008498500999999999 -0.022693173750000004 -0.0007197700000000015 0.0017312435 -0.14928643 -0.0494718405 0.071087378 0.0915340315 0.0705921995 0.18225145 0.05122671749999999 -0.016784855 -0.22198095499999998 -0.115859002 0.0070263125000000065 0.125125286 0.07465423500000001 -0.12641358 0.069005325 -0.10000900000000001 0.04682603735 -0.138096022 -0.02481728500000001 -0.028895264000000004 -0.23544102500000003 -0.07339594 -0.150191265 0.029461452500000002 -0.109878757 0.0156614595 0.1067677375 0.0668052545 -0.0406717831 0.07154314 -0.102182738 -0.006281985 0.172828135 -0.19114186 0.06676364600000001 0.0249932385 0.0263479395 -0.073999978
AURKB 0.087752565 0.19655054 -0.175635545 0.10459315 0.0748524 -0.029086980999999998 -0.14120349 0.11796883700000001 -0.037564138500000004 -0.04513055 -0.182104145 0.023129285949999998 0.054214688500000004 -0.2347188 0.091535595 -0.218262148 0.0894857735 -0.0563601345 0.053240384999999994 -0.095752575 0.031962622999999996 -0.0182775945 -0.22580450000000002 0.16590365 -0.039225669 -0.134645725 0.07178032000000001 -0.039563483499999996 0.06410796999999999 -0.19957661 -0.001126176999999999 0.065939365 0.02773735 -0.018913265 -0.11741860600000001 -0.033139681500000004 0.1157793347 -0.13816521199999998 -0.050516264000000005 0.004049322500000001 -0.0203745195 -0.13335711 0.24733083 -0.0312031735 -0.2617503 0.091503615 -0.11026979199999999 0.09281687749999999 -0.1176658115 -0.08931271233 0.018058561 -0.17251622 -0.140742662 -0.03561653 0.13120596499999998 0.03082759845 -0.16303325000000002 0.014160811499999999 -0.01573524065 -0.12673382 -0.0298492225 0.0071058300000000005 -0.22498991499999998 -0.013734060000000001 0.015015585000000001 0.15929328 -0.17178455 0.053083067 0.19945678500000003 -0.024248465000000004 -0.31391783 -0.0218094 0.003922182500000003 0.133457975 0.089276275 -0.039948039000000005 -0.10913110000000001 -0.248649405 0.052329379999999995 -0.11094258700000001 0.015105934999999994 0.04682154300000001 -0.156056775 0.13499160999999998 0.0659369075 0.0414947965 -0.136108677 0.16485053249999998 0.1376249175 0.06596358 -0.1373229575 0.08355267 -0.1513578685 -0.023836029 0.153020855 -0.21710863000000002 0.026457629999999996 0.09018120199999999 0.11881893999999998 -0.0471237922
B3GNT5 0.0192739703 0.0182432625 0.0059521605 -0.0078040094999999995 -0.0186468285 -0.060429481 -0.009346869075 0.01827300435 -0.00767049635 -0.0558721775 0.009642861999999999 0.0169901505 -0.004275560500000001 0.0257381401 -0.0004628490000000013 0.01318019 0.0059140675 0.0173928095 -0.0059747011 0.035926467749999996 -0.0176253065 0.029097585999999998 0.034316848000000004 -0.032842997 0.0431598108 -0.008504024150000001 -0.0106025027 0.03407137735 -0.028204219 0.0041304661 -0.0151312845 -0.031681553 -0.027922513 -0.01130786785 -0.055139047499999996 0.014092773199999999 0.005877456499999999 -0.026439922999999997 -0.010267103 0.0298833435 -0.025121278429999998 -0.0011560890000000025 0.010401927 0.010322808000000003 -0.0529124846 -0.027864125499999996 -0.006252713 0.0192371375 -0.0341482655 0.04177492715 0.003825018499999999 -0.0247291 0.007275987000000005 -0.011716823500000001 0.0027368665000000007 -0.03464147875 -0.037373895000000004 -0.011710268999999999 -0.026739289 0.0625809365 -0.047853517 -0.003695182 0.020163555 -0.0012632779999999996 0.084076205 -0.01282222765 -0.024460763 -0.033343889 -0.02043377235 0.0215370415 0.0024004835000000016 -0.0311705985 0.00582914925 -0.047796302 0.012278233749999999 0.0571662175 0.0202560035 0.022733702 -0.011878004499999999 -0.016342188 0.039066656500000005 -0.0361856835 -0.005645484999999999 -0.023038083 -0.022539992 0.029321435 0.0039070295 -0.0403787975 -0.021802523 -0.0179336357 -0.008996876999999997 0.00490127018 -0.003939255500000001 0.022633057 0.021262211499999996 -0.0598752765 -0.011209317 0.0119890415 -0.0367250935 0.059291537000000005
BACH2 -0.110418405 0.62827785 0.19548370999999998 -0.30467841 0.23779112000000002 -0.682102 -0.301414635 0.30883872 -0.15487995499999999 -0.39608133 -0.00508132499999997 0.324050489 -0.264517552 0.42873365999999996 0.04397976 -0.22382164999999998 -0.0812702815 -0.382250175 -0.06337340000000002 0.871974775 -0.07190698000000001 0.2892808 0.33585980000000004 0.001639240000000014 0.56035226 0.154450125 0.20297423 0.319107205 -0.6745425 -0.25332102999999995 0.29914808000000004 -0.394757915 0.40792969999999995 -0.244126285 -0.23077879599999998 -0.0701397215 0.33256443999999996 -0.09448788000000002 -0.303132045 0.4069228755 -0.356309925 -0.49917987 -0.12294419 0.17210803 -0.586702425 0.062196474 -0.267686665 0.200093365 -0.750689725 0.08378229999999998 0.1036240225 -0.425251245 0.28657817 -0.062718735 0.278080075 -0.36521657999999996 -0.39712335 0.113173175 -0.039725465 0.582665195 -0.49076292 0.370579027 -0.1087790025 -0.583636615 0.64722537 -0.34803602499999997 0.073189583 -0.71874476 -0.19652467799999998 0.290749765 0.0010173649999999923 -0.251130375 -0.09312604999999999 -0.42800772 0.16311599999999998 0.41311095499999995 0.9460812 0.2105677565 -0.062066430000000006 -0.42878911 0.3211777265 -0.006975924999999994 0.047747399999999995 -0.45687976500000005 -0.56883876 0.146842925 -0.015312760000000009 -0.31973060000000003 -0.3088821 -0.1216357475 -0.15115960250000002 0.42174539699999997 0.5294592 0.24043830000000005 0.4730285550000001 0.16282790999999996 0.10783172 0.08791068 -0.46349377 0.151618555
BAG3 -0.443575815 0.06894961999999999 -0.435905765 -0.315344885 0.263740164 -0.63413903 0.273613215 0.013853975000000018 -0.006229294999999996 -0.628682105 0.154786645 -0.18259420299999998 -0.188856555 0.48842927 0.3336106 0.156834415 0.07172406999999997 -0.36119982500000003 -0.367371427 0.203606745 0.329403565 0.657286255 -0.26571624 -0.1201220475 0.489800765 0.378214595 -0.2604801500000001 -0.5428271899999999 -0.171572815 -0.012032449999999972 0.019992239999999994 -0.301807703 0.43008678499999997 -0.10922318 -0.19048808999999997 0.053972395000000006 0.08634958999999999 0.24495029499999998 0.45671411 0.136665438 -0.46226862 -0.359907355 0.54547358 0.27094265 -0.35065303 0.07158041500000001 -0.28476973325 -0.25842208999999994 -0.414735535 0.66071521 0.05560634999999997 -0.3160024 -0.033592430000000006 -0.061966225 0.174974955 -0.596284685 0.37475439499999996 0.0687505305 -0.307790943 0.07471109000000001 0.017967225000000003 0.45543199999999995 -0.858637615 -0.87468488 0.014219179999999998 -0.28557716 0.42381715999999997 -0.408965906 -0.48064232500000004 -0.64102733 -0.466597284 -0.021215800000000007 -0.042636175 -0.26432116 0.914462 0.196614935 -0.25864941 -0.12118069999999997 0.27930321999999996 -0.33327057 0.6772662700000001 -0.36937062 -0.12012948000000001 -0.124435935 0.6468776 0.472801105 -0.31055476 0.30196414 -0.08509578 0.217434465 -0.72633463 0.38777020500000003 0.38648751000000003 0.18668827 0.524110938 -0.006736049999999993 0.045123125000000014 -0.077654095 -1.1205265500000001 0.58204966
BAMBI -0.0304492523 0.032626803999999995 0.027988255000000004 -0.049375705 -0.08223095650000001 -0.063820432 -0.028339087 0.052613498499999994 -0.038311642900000005 -0.0757822935 0.03087219 0.03310268 -0.0241820475 0.05282615 0.008802562 0.0449901055 -0.027933384000000002 0.0165621695 0.032794592 0.0639343552 -0.023304506000000003 0.017827020000000002 0.120172136 -0.0008040500000000006 0.1300375865 0.031686532 -0.012250697 0.06653526635 -0.0565686815 -0.0073679225 -0.0319193155 -0.073086604 0.003619535 -0.048331521 -0.019937164 0.0247353955 -0.0013394070000000008 -0.0982151625 -0.066302033 0.072410185 -0.042035253099999996 -0.049037401 0.026278244 0.06053896559 -0.074349418 -0.0274180915 -0.0240154135 0.0348231515 -0.026517367500000003 0.008782587000000001 0.009601367 -0.0244451185 0.027496392 0.0023357664999999993 0.023113028 -0.011478902500000002 0.0032294135 0.011660399000000002 -0.004137604999999999 0.10564854500000001 -0.09176724350000001 0.018984242999999998 0.016931349850000003 -0.025771647999999994 0.08158894 -0.017857047350000002 -0.0569940767 -0.006289887 -0.026827983750000003 0.06670369133 -0.00011966899999999933 -0.056570023 -0.045730391499999995 -0.0478771675 -0.0536852485 0.0862828765 0.061128205500000005 0.07890312599999999 -0.011404889500000001 -0.0168747 -0.0322552245 -0.09081833 -0.016242375000000003 -0.018299297500000002 -0.05323275985 0.0425847875 0.069602357 -0.070488026 -0.041697873999999996 -0.036456078 -0.02200883 -0.034906893 0.0228925915 -0.005234135000000001 0.008163983999999999 -0.019720230999999998 0.0512761562 -0.0023319649999999983 -0.11370026350000001 0.104333788
BANK1 -0.0050758029999999985 0.075072904 -0.0764678035 0.0329527714 0.032693672 -0.0446151651 0.007305995000000003 -0.0132914555 -0.0028723525000000014 -0.02720860885 -0.10316285 -0.025540304500000003 -0.027164337000000004 -0.07326458649999999 -0.005253886999999999 -0.037083564 -0.06473639 0.029703138999999996 0.04483477275 0.084505207 -0.026500607500000002 -0.005305895499999998 -0.063145015 0.0704042 0.09912051 -0.00185798725 0.048892355 0.056775450000000005 0.038632155 0.0099840645 0.1181516875 -0.0710145465 0.07491046500000001 -0.046110588 -0.0251961487 -0.015367402499999995 0.05317305 0.071826662 -0.09311288000000001 -0.07578539599999999 0.0004793295000000003 -0.121669733 0.0284008045 -0.045864548500000005 -0.062008850000000004 0.09119497 -0.107249595 0.0373428435 -0.036467158 -0.049826383 0.0370816655 -0.08092489250000001 0.03014988053 -0.030353681000000004 0.04533725499999999 0.017339044999999997 0.022073020500000002 -0.07820546 0.008526329000000001 0.0732029465 0.0037249469999999993 0.07222998 -0.125526435 -0.0111322044 -0.0279152015 -0.017099949 -0.02418961985 0.020508514 -0.015755263 -0.011157942 -0.118400943 -0.007335474999999999 0.02794076865 0.02956004567 -0.005827005000000003 -0.064585579 0.0500691605 -0.10377212999999999 0.08585974 -0.09584332200000001 0.033994993 0.014169079000000001 -0.036470747 0.097580425 -0.011245914499999999 0.031494764 -0.0571955685 -0.008692498 0.012499819999999998 0.071660841 -0.09156743049999999 0.07420414750000001 -0.05087478 0.028879929999999998 0.0366885285 -0.022890847500000002 0.102908102 0.05815150350000001 0.0229744775 -0.0547101147
BATF 0.8201540650000001 1.2223613649999998 -0.8032301 1.84017205 -1.02180475 -1.2690468 -0.035711135000000005 0.11121475000000003 -0.16591973999999998 -0.39382798199999997 -0.6610935 -0.799079445 -0.99689865 0.44060679999999997 1.8314235 -0.40285145 -1.09157975 -1.8826821000000002 -0.91934475 1.8931844500000001 -0.14593875 0.656903435 -0.442602935 0.54467605 -0.46305653 -0.419309722 -0.57655827 -1.5830948 -1.79182805 1.5003508 1.17449423 -1.29714975 -1.36139645 0.152052655 1.2169176 0.91687195 0.053639889999999996 2.2726197 0.8497760350000001 1.93558385 -0.88768836 -0.25570905 -1.7407167000000001 1.2926895 -0.71928293 -1.09656969 -1.5112341 0.135535215 0.046175974999999994 -1.32597015 -0.35276572500000003 -1.12573035 -1.2239706700000001 1.41298865 1.10317753 -0.8719428300000001 0.6486774230000001 0.9228414650000001 -1.44004013 -1.2749242299999999 -1.10867435 1.4982563500000001 0.76741219 -1.68150095 1.10993085 1.47176397 -1.24461968 -0.009644249999999993 -0.583040305 0.41103023 0.10377315000000004 0.08070480000000002 -0.52302202 -1.9917469 -0.67891276 -1.1790658 -1.32522605 -0.48643433799999997 0.21132673500000004 0.5196293000000001 1.2922555 1.6440861 -1.0430759 -0.37912691000000004 0.8161155449999999 -0.496151385 -0.56830085 -0.13071539999999993 0.76342615 -1.22148195 -0.59436958 1.2195889 -0.91367241 -0.92128885 -0.413449035 -1.44565468 0.586729635 -1.6926321500000001 -0.521676965 -0.23918391500000002
BCAT1 0.004778774999999999 0.081280567 0.0188190395 -0.10694029 -0.0248768165 0.020054407500000003 -0.0077256438 0.0883342765 -0.053091525 -0.01201323575 -0.012740704999999991 0.0777839805 -0.0228405225 0.08967556744 0.03725128 0.0304546955 0.030750429 -0.1081508125 0.06193703 0.158529067 0.0528393955 -0.0489186855 0.064383727 0.033369581 0.06375178 0.0808722915 0.037206724 0.0289702545 -0.140751872 -0.031586285000000006 0.03512354 -0.0535201273 0.11036077999999999 -0.039739915 -0.05446438615 -0.0880376475 0.013550902000000004 0.08387765150000001 -0.033787352 -0.031777219499999995 -0.0550677365 -0.045303177 0.042278843 0.0333642465 -0.10842543500000001 0.021588534 -0.1106264225 0.02481027 -0.07520075500000001 0.06290501500000001 -0.013924766500000001 -0.015353601250000001 0.04118939 0.027967363500000002 0.073386302 -0.08856033 -0.007197255 0.118412995 0.0004751100000000008 0.043951444500000006 -0.07165832700000001 0.1121014725 -0.081707805 -0.0974825525 0.160761448 -0.08655898000000001 0.05805374625 -0.09231554 0.042414894499999994 -0.009921180000000002 0.027939745000000002 -0.013244383499999998 -0.1331592783 -0.0007972150000000004 0.055861962 0.0471337375 0.101438587 0.0097165795 -0.024631562999999995 -0.0912508 0.030676518 -0.052345939599999995 0.0037357169999999995 -0.100366815 -0.04983906 0.019962785 -0.0316784015 -0.0177409125 -0.0750931375 -0.094543715 -0.03829012000000001 0.123913631 0.0535300685 0.025642549999999993 0.15429242999999998 0.055603822 0.0601282 0.03354870969 -0.143935475 0.042466743
BCL2A1 -0.27389456225000003 0.41369871 -0.659861325 -0.6465131970000001 -0.27070477 -0.78736845 0.3105762 0.588965925 0.12289249999999996 -0.794136325 -0.54005071 -0.23059839499999996 -0.6216703349999999 0.28885536 0.08569602500000001 -0.41904112000000004 -0.31835235500000003 -0.39103723500000004 -0.450926815 0.29703923 -0.55640211 0.19410198999999997 -0.40720064499999997 0.006817139999999999 1.44158212 0.0829730125 0.40000022500000004 -0.488494605 -0.066857441 0.569548305 0.6810781 0.5560176415 0.42732509999999996 -0.0023344699999999774 0.571588615 0.09228444 0.130710865 -0.16299501 -0.11360557200000002 -0.501857565 -0.30113520899999996 -0.580261885 0.8930197 -0.22439833 -0.023937021814999997 0.18148318 -0.705010485 0.13618094000000003 0.49986195 -0.6578229800000001 0.20329490000000006 -1.02805528 -0.35186572 0.21664460500000002 0.64608265 0.56232079 0.49949523500000004 -0.1348821 -0.7381739 -0.21805714000000004 0.5979680549999999 0.0460539925 -0.84891257 -0.43590639999999997 0.0965770745 -0.16390015000000002 0.1336457 0.7993666150000001 -0.56640223 -0.8100351800000001 -0.7208800200000001 0.18143392800000002 0.11660451250000001 0.38549277000000004 0.17490909999999998 -0.933211585 0.06993027000000002 -0.64449881 0.3543155565 -0.13611848000000001 0.444974955 -0.132740305 -0.59678225 0.09331610500000001 -0.33092351 0.9696952 -0.5176976449999999 0.4292811815 -0.08257586 -0.08527142 0.006413949499999998 0.17466661500000003 -0.4820894225 0.28694558000000003 0.184512615 -1.2496744 0.78816025 -0.036708245 0.5035366 -0.155847895
BCL2L11 -0.339230085 0.053667208499999994 0.142288755 -0.037075775000000005 0.18715642000000002 -0.5367011 -0.308771945 0.3250959 -0.1048506965 -0.16500383 -0.226461325 0.121138908635 -0.66713507 0.11880962800000001 0.13518531 -0.15849588499999998 -0.10488593000000002 -0.3494123 -0.22839209 0.6027283649999999 0.537366115 0.361482665 0.470062825 0.01551635500000001 0.41051040800000005 0.480717175 -0.09917293099999999 0.197834655 -0.236239625 -0.1071461555 0.18391276999999998 -0.14385349149999999 -0.10816501499999998 -0.50472994 0.270152545 0.27983742500000003 0.759969765 -0.5411671250000001 -0.37829637000000005 0.335223955 -0.31996433 -0.14559032 0.120756105 0.5308037299999999 -0.6423835 0.01558509000000001 0.462181415 0.23903143 -0.48775963499999997 0.034085085000000015 -0.27406947849999996 -0.501293815 0.06141675000000002 -0.12647711 0.1239605395 -0.21608226 0.030252781 -0.14912303300000002 0.034391880000000014 0.444359498 -0.35564997 0.151335635 0.10367653615 -0.42769852500000005 0.30951900200000004 -0.009481369999999989 0.074029179 -0.42553597499999996 -0.0566396708 0.511853875 -0.31306161699999996 -0.354191125 -0.069055625 -0.090070077 0.2336494675 0.34816480000000005 0.43015501749999996 -0.0014627650000000048 0.177140605 0.34350765 0.050925200000000004 0.204862685 -0.075277393 -0.13151456 0.0949688325 0.3336733428 0.27362447 -0.5933072850000001 -0.48433388 -0.06276549000000001 -0.51585133 -0.05629178 0.70954435 0.2581502 -0.310609735 -0.16756695 -0.012765689999999996 0.34489759999999997 -0.5662034149999999 0.308838965
BCL3 -0.5260596500000001 0.65575355 -0.44272528000000005 -0.46445692 0.161932945 -0.58620191 -0.4316165 0.598985219 -0.0764078705 -0.8375833450000001 0.09029644999999997 0.5355489 -1.095450015 0.9686124999999999 0.3214410605 -0.1566982665 0.582474065 -0.80426912 -0.4425733275 0.93545575 0.67054611 0.013044639999999996 1.04028313 0.6261257275 0.11827980000000005 0.10909782000000001 0.219943625 -0.53306962 -1.20424585 -0.778171193 0.5384081 0.086052925 0.17738700000000007 -0.05576302500000002 -0.868906728 0.0028388749999999907 -0.20019006 0.45603492 0.5625012650000001 -0.08176249 -0.330759 -0.12257869249999999 0.54669633 0.027974605000000013 -0.687005655 -0.897813335 -0.098267095 0.07149086500000001 -0.60207305 0.73032922 0.49124099499999996 0.1811194505 -0.25707515000000003 0.47357677 0.672184855 -0.65496865 0.08267965999999999 0.228278678 -1.20900027 0.31717008500000005 0.27697206 0.3327402 -0.5726358 -0.3470712675 0.62774122 -0.7501808249999999 0.33358350999999997 -0.7816550149999999 0.1455093 -0.43020422750000004 -0.27288798000000003 -0.100256715 -0.052487019999999995 -0.532321275 0.533426835 -0.27532596499999995 0.36137593 -0.62619247 0.315325865 -0.708924685 0.446792395 -0.28579638500000004 -0.06263581000000001 -0.2072288815 0.314631015 1.0425456 -0.2654617925 -0.34993552 -0.822315425 0.13995185999999998 -0.099922569 0.720111815 0.83897555 0.525155415 1.1890897085 0.185174955 -0.361823275 0.30624997 -0.98970033 0.22772448499999998
BHLHE40 -1.13907603 -0.67771923 -0.85413686 -0.778451265 -0.36546891049999997 -1.63780705 0.20681686499999996 0.44592402000000003 0.08013229999999999 -0.5324263 -0.16650649499999998 -1.07113339 0.10172360000000003 0.206185285 0.272195115 0.16504902 0.12993863349999998 -0.417444813 -1.4420012500000001 1.83588705 -0.10027661999999998 0.928903825 -0.403327478 0.7890463999999999 0.41456309999999996 -0.41438810000000004 -0.08658280000000007 -0.2736636661 -0.95087855 0.17801587000000002 0.791156465 -0.47964803500000003 -0.0019855500000000026 0.705893995 0.52794135 0.36538256999999996 -0.15266795 0.28554898500000003 0.176864425 0.68186225 -1.011895575 -1.5092332000000002 0.8642048499999999 0.3720920145 -0.7754157300000001 -1.1738697999999999 0.06368689999999999 0.03992580000000001 0.2756413175 0.08523884500000001 0.12421234999999997 -0.22944955 -0.809016301 -0.6944381500000001 0.417121835 0.48019911 1.55774605 -0.16901945 -1.3175237499999999 -0.43937707000000004 -0.030384899999999992 1.5519623500000002 -0.7801499199999999 0.04634090999999999 0.46128409000000004 -1.4504044600000001 0.84597948 0.38763824999999996 -0.7987628397500001 0.6768682623 -0.84778928 1.7408297 -0.40995648500000004 -0.162154615 -0.035305949999999975 -0.88973885 0.003092125000000001 -0.84633315 0.31640177500000005 -0.13471447000000003 -0.19191301500000002 -0.016326444999999995 -1.19869423 -0.10999033000000003 1.143577 -0.27852420000000006 -1.2510154500000001 0.10890391999999999 -1.23170408 0.85270868 -1.704019315 0.34871156000000003 -1.069697135 0.13489837999999998 0.274062155 -0.6962310199999999 0.93279613 0.11682412 -0.936513615 1.2105120999999999
BIK -0.040986389 0.13586006 0.0438849125 -0.10677735 0.0029647944999999995 -0.07315074 -0.132062805 0.0807548975 -0.054195688 -0.050868427 0.044978384999999996 0.10123569200000002 -0.09411273405 0.0706225515 0.08779124399999999 0.038082507 0.032220845 -0.074485562 0.05731374 0.0777331095 0.031488771205 0.041885060349999996 0.10412275725 0.033071224999999996 0.175482995 0.1244023 -0.0142172391 0.086114429 -0.1110607925 -0.068133713 0.04353969299999999 -0.018073281500000003 0.042299686999999996 -0.043747483999999996 0.0172034255 0.005240446500000001 0.064326722 -0.05240009599999999 -0.1394785475 0.11168394350000001 -0.05508529 -0.124041562 0.067318653 0.071789103 -0.12330878249999999 0.054323189 0.0063141315 0.011350863000000003 -0.0925966765 -0.022375270000000003 -0.0483365485 -0.123556015 0.060269170000000004 0.042585191 0.06776858449999999 -0.010972498 0.0285956725 0.025371083 0.068237192 0.0663015919 -0.12296167899999999 0.0798348425 0.0758856775 -0.079719600015 0.164744855 -0.041643427499999996 0.01801614 -0.043069248500000004 -0.06090830850000001 0.1122237925 -0.060895355 -0.0642936275 -0.074611647 -0.10374333 -0.062068348 0.14093743 0.1773488975 0.085551831 -0.0385363725 0.0034827593499999997 0.008942979999999996 -0.07225344 -0.0672702075 -0.06074823 -0.0939393825 0.03333156 0.087148245 -0.1030829248 -0.0835298355 -0.01787135 0.011921248999999998 -0.010733449500000002 0.13361972500000002 -0.003328020000000001 0.013735147000000003 -0.030213145000000004 0.052775829999999996 -0.0997810025 -0.11621391249999999 0.088865642
BIRC3 0.7353958199999999 0.18907485000000002 -1.55181645 -0.31071154999999995 -0.976048649 -1.49349488 -0.5963372 -0.05454987 -0.7226459 -0.79735265 -1.12544383 -0.39951353500000003 -0.440463265 0.21660834500000004 1.66143475 1.18826615 -1.5123269 0.25893794 -2.2135464000000002 0.217276775 1.12136485 0.99405765 1.067459835 0.07929664999999997 0.054870881 -0.14556570000000002 0.36359544999999993 -0.74889153 -0.1920174 0.92722883 1.2126625 0.04323294999999994 -1.40804587 1.0862233 1.06096467 0.09531028000000002 0.20173228000000004 1.91799585 0.016145444999999994 2.2559163 0.6590953374999999 -1.526163915 -1.1654947999999998 0.6832418619999999 -1.050693343 0.37654326000000005 -1.2904357499999999 0.48113385 0.3522619 -1.16195405 0.568967259 -1.6932323 -1.3799133099999998 0.44467116500000003 0.7444311 -0.6933943300000001 1.09543 0.49107050999999996 -0.7451867 -2.18447075 -2.09830825 0.03232401500000004 -0.758545942 -0.8479035500000001 1.8667570000000002 0.69050975 -0.8129364499999999 1.52109165 0.5662044549999999 -0.0811676837 -0.91597925 0.199869535 1.0396545000000001 0.25004666 0.57877578 -0.321763878 -0.356443525 -1.329874175 0.5997380999999999 0.5646394499999999 -0.7872543249999999 0.90520321 1.50176365 -1.0620624 0.397223555 0.22992350000000006 -1.27249582 1.046893785 1.15308398 -0.64733055 -0.06994619 1.209050685 -0.14176969999999994 0.16361819999999994 0.01613207 -1.2394828500000001 0.83023615 -0.773908375 -0.38302346499999995 1.21469345
BIRC5 0.05400930549999999 0.40313998500000003 -0.19211218500000002 0.045390285 0.11988442999999999 0.0951801615 -0.17888393770000002 0.14539022000000001 -0.091669383 0.0170013571 -0.159182985 0.0190737474 -0.067381405 -0.33804643 0.18835776999999998 -0.130979034 0.08019142550000001 -0.143896946 0.24831305099999998 -0.14821294699999998 0.16489109000000002 -0.103034022 -0.2597204275 0.113037277 0.02720768 0.03351718000000001 0.100040093 0.020942904999999998 0.10619101499999999 -0.262787208 -0.0810649835 0.1333809768 -0.0388769175 -0.119037693 -0.0817114 -0.059639444999999985 0.033346509999999996 -0.271787605 -0.0918213725 0.09068480965 -0.12099271199999999 -0.23781313 0.21176913 0.03618734 -0.39144313 -0.04614576749999999 -0.168030925 0.119448213 -0.02299337 -0.069603595 -0.11057769099999999 -0.29736121000000004 -0.35354902 -0.0914143815 0.32695245 -0.21040057499999998 -0.20527225 0.15993322000000001 0.01236591935 -0.19381546800000002 0.03863228499999999 -0.09804902800000001 -0.29541207 -0.07434908300000001 0.10333257800000001 0.3807818 -0.036225234999999995 0.19814666 0.268321035 -0.0769757385 -0.27041672 -0.149534485 -0.114682225 0.203180825 0.06844325500000001 -0.226625965 -0.167676865 -0.12728168 0.0646109465 -0.2398553485 -0.024288235000000005 0.08830436 -0.3461427 0.024639155 -0.019476689999999998 0.04139444 -0.141823345 0.07837755 0.28294127999999996 -0.047790203 -0.21672836 0.07866903249999999 -0.1198327325 -0.0968342872 0.21724696 -0.4007466 0.023826579999999986 0.010716904999999999 -0.017074413 -0.1423589275
BLK -0.018753890999999995 0.014407195219999998 0.022961930499999998 -0.0832758085 0.02135683 -0.05031628 -0.04581662919999999 0.0379809412 -0.10403670150000001 0.046104989 -0.050889157000000004 0.0332148425 -0.038762274 0.005232951999999999 0.048159631 0.026407625 0.0026793300000000006 -0.047725592 0.015832230000000003 0.114024182 0.04055421 0.00702115344 0.067610385 0.030046057499999997 0.11288039250000001 0.0537197715 -0.056929175 0.09540917 -0.091559853 0.026411735 0.04071161699999999 -0.06492537749999999 0.027585534999999994 -0.070084665 0.024934065 -0.0144600165 0.1179318325 -0.05115496117 -0.0991469775 0.0686357876 -0.1048465775 -0.04060169 -0.0113369159 0.0656844585 -0.09216630849999999 0.0311415435 -0.004481936499999999 0.01701004 -0.082298389 -0.03395738 0.00018037099999999992 -0.063442096 0.0300113905 -0.016749752 0.055223069 -0.062097018749999996 -0.030829580999999998 0.049842432 0.078603288 0.101097255 -0.10476581200000001 0.08422982 0.0080327745 -0.1084975495 0.06885105985 -0.0292894395 -0.02017393 -0.049897779 -0.014021916499999999 0.081170077 0.012427009999999995 -0.056583236 -0.02734989935 0.0034259775 -0.053529585000000005 0.10534764469999999 0.118207691 0.123498417 -0.028810205499999998 -0.0225505155 0.0022409249999999978 0.0116201655 -0.0295508253 -0.0158100925 -0.096033295 0.02314763312 0.06654669 -0.072166935 -0.033415635 -0.063194994 -0.0647640835 0.075224645 0.056984478000000005 0.047637612 -0.0248391125 0.030775670000000005 0.06717732 0.0372883865 -0.10297160699999999 0.0379046005
